{"type":"NeuralNetwork","sizes":[784,200,1],"layers":[{"weights":[],"biases":[]},{"weights":[[-0.04314057528972626,-0.008651462383568287,-0.12072958052158356,0.10789268463850021,-0.12446790933609009,-0.12049318104982376,-0.033615902066230774,-0.09922274947166443,-0.11262597143650055,0.03187045454978943,0.19877506792545319,0.05661439150571823,0.1351749151945114,0.0037639590445905924,0.12221987545490265,-0.19584935903549194,-0.04953695833683014,-0.14851368963718414,0.0855284184217453,-0.05593062564730644,0.19391007721424103,0.01734529435634613,-0.07045859843492508,0.08365289866924286,-0.04144604131579399,-0.1651039719581604,-0.038217827677726746,-0.06360558420419693,0.13466553390026093,-0.19935563206672668,-0.048000920563936234,-0.07689598947763443,-0.142375186085701,-0.047937773168087006,0.17989572882652283,0.004809234756976366,-0.07423283159732819,0.0979505404829979,0.1460660696029663,0.16536220908164978,0.13832445442676544,-0.08495126664638519,-0.04862019419670105,-0.03512882813811302,-0.14602138102054596,0.07225466519594193,0.1047251895070076,0.10224112868309021,-0.1920100897550583,-0.14175887405872345,-0.13995027542114258,-0.0996108427643776,-0.12689664959907532,0.12746009230613708,-0.0029141660779714584,-0.1500416398048401,-0.14204835891723633,0.08514389395713806,0.08111229538917542,0.07716606557369232,-0.16629652678966522,0.12271784245967865,0.08621048927307129,0.10243697464466095,0.016310635954141617,0.07296954095363617,0.034357424825429916,-0.056249260902404785,-0.11316559463739395,-0.12996776401996613,0.04115961492061615,-0.1461259424686432,-0.17350351810455322,-0.019289636984467506,-0.038694582879543304,-0.0431969128549099,-0.07823257148265839,-0.2013145089149475,0.08145533502101898,-0.1880265325307846,0.017933093011379242,0.0867152288556099,0.14406490325927734,0.07084845751523972,-0.03702773526310921,0.14038339257240295,-0.019625723361968994,-0.14951689541339874,-0.17511728405952454,-0.0006846152245998383,0.06158611923456192,-0.024204328656196594,0.06250351667404175,-0.1112506166100502,0.1474141776561737,0.151176318526268,-0.12138326466083527,0.016300398856401443,0.09969275444746017,-0.15051285922527313,-0.013334701769053936,0.1564462035894394,0.08104515820741653,-0.01456243172287941,0.03140830621123314,0.12335457652807236,-0.19450120627880096,0.1477520614862442,-0.056881099939346313,0.07143983244895935,0.0701967254281044,-0.19192615151405334,-0.031750116497278214,0.08620304614305496,0.05034782737493515,-0.10584935545921326,-0.16988615691661835,-0.11792859435081482,-0.17361050844192505,0.10403990000486374,0.12745709717273712,0.06827099621295929,0.07130137085914612,-0.0645967349410057,-0.05456516891717911,0.1313026398420334,0.040564022958278656,-0.2776515483856201,-0.059274375438690186,-0.16199712455272675,0.016604937613010406,0.14614076912403107,-0.022008057683706284,0.05726848915219307,-0.17269010841846466,0.017892295494675636,-0.08585719019174576,0.13751687109470367,-0.13930082321166992,0.12550927698612213,-0.17655816674232483,0.16515256464481354,-0.07738000899553299,0.05059404671192169,-0.07964219897985458,-0.2075849175453186,0.10672294348478317,0.09825003892183304,-0.2227209210395813,-0.2140306681394577,-0.20043477416038513,-0.22576890885829926,-0.20407938957214355,0.04878006875514984,0.1447664201259613,0.08971241116523743,-0.3557615280151367,-0.05380265787243843,0.08875110745429993,-0.12026043236255646,-0.10267802327871323,0.06723350286483765,0.08596807718276978,-0.01079223956912756,0.03186669945716858,0.03933167830109596,-0.11591827869415283,-0.03718077018857002,0.09687261283397675,0.035404838621616364,0.046833883970975876,-0.06020098552107811,-0.14146900177001953,0.05633307620882988,-0.23216727375984192,-0.07734186947345734,0.14749059081077576,-0.08993431180715561,0.051549069583415985,-0.09470578283071518,-0.1207863837480545,0.13604065775871277,0.10567647218704224,0.05507805943489075,0.19295281171798706,-0.045322075486183167,0.13389794528484344,-0.03877336159348488,0.041593294590711594,0.05385753884911537,0.006599558051675558,0.09793827682733536,0.08807544410228729,0.09745389968156815,0.20075543224811554,-0.13904201984405518,-0.01949288137257099,-0.01372942142188549,-0.08574225753545761,-0.0724962130188942,-0.12441155314445496,-0.1266670823097229,-0.20411032438278198,-0.05387945845723152,-0.21238592267036438,0.09949974715709686,-0.07380934804677963,0.012831400148570538,0.29122036695480347,-0.0628051683306694,0.17132265865802765,-0.0220334529876709,0.28681936860084534,-0.045846402645111084,0.2807440459728241,0.06420093774795532,-0.019772911444306374,-0.06376776844263077,0.14115145802497864,-0.161887526512146,0.15804143249988556,-0.007482003886252642,-0.16827742755413055,-0.19914834201335907,0.16224350035190582,-0.12727893888950348,-0.10701485723257065,0.10025617480278015,-0.12795142829418182,-0.04432682320475578,-0.25110572576522827,-0.23176223039627075,-0.08876531571149826,-0.08798469603061676,0.16217274963855743,-0.0010306022595614195,-0.012824182398617268,-0.06745368242263794,-0.09287519007921219,0.2074313908815384,0.15027789771556854,0.04537074267864227,0.22527794539928436,-0.1774885058403015,0.011293903924524784,-0.27985644340515137,0.1399729996919632,-0.09044188261032104,0.0902240052819252,-0.1189393550157547,-0.06022827699780464,0.043146781623363495,-0.09773567318916321,0.09070468693971634,0.0768917053937912,-0.06958002597093582,-0.12140622735023499,-0.058907508850097656,0.00017215116531588137,0.018783707171678543,-0.10067857056856155,-0.042611733078956604,0.07136623561382294,-0.11890486627817154,-0.07576404511928558,-0.2871690094470978,-0.013347490690648556,-0.2909448742866516,0.11225192993879318,0.04639005288481712,-0.22836542129516602,-0.14218969643115997,-0.1527366191148758,-0.16989393532276154,-0.11065549403429031,0.07943108677864075,0.020921945571899414,0.1649811863899231,-0.14680776000022888,-0.13164480030536652,-0.13187479972839355,-0.003140126820653677,-0.0216879490762949,-0.1490040421485901,0.04795243218541145,0.017977183684706688,-0.09824096411466599,-0.03304697573184967,-0.17526598274707794,0.02519924007356167,0.09780465066432953,-0.026265552267432213,-0.013013736344873905,-0.17721934616565704,0.040153998881578445,-0.026068173348903656,0.013324948959052563,-0.2571774125099182,-0.05304892361164093,0.12957681715488434,-0.12881122529506683,0.0874585285782814,-0.029413890093564987,0.10416059195995331,-0.02752646803855896,0.027089253067970276,-0.19318887591362,-0.09885293245315552,0.1751478612422943,0.05355636775493622,-0.009826972149312496,0.0019856346771121025,-0.12996041774749756,0.16420190036296844,0.04164058342576027,-0.009921950288116932,0.11201554536819458,-0.07949494570493698,-0.19683147966861725,-0.0017165399622172117,0.10933732986450195,0.15593649446964264,0.10386057943105698,0.1529572606086731,-0.2894269824028015,0.22944633662700653,0.18533915281295776,0.07314692437648773,-0.008085775189101696,0.07085935771465302,-0.02218780666589737,0.03728717938065529,0.10531187057495117,0.05633854866027832,0.008659625425934792,-0.06360170990228653,0.1389205902814865,-0.07776878029108047,0.1909485161304474,0.08602221310138702,0.15808314085006714,0.17093513906002045,0.20935021340847015,0.20832142233848572,0.21002040803432465,0.04942905157804489,0.007978919893503189,-0.1389537751674652,-0.12521690130233765,0.1715216487646103,0.07582468539476395,0.03265789896249771,-0.02758220210671425,0.05869240313768387,0.19756093621253967,0.12694770097732544,0.18731217086315155,0.09762881696224213,0.030728723853826523,-0.016073182225227356,0.11456456780433655,-0.1485612839460373,0.13868899643421173,-0.12741760909557343,-0.17786717414855957,-0.02228107862174511,0.017293592914938927,0.14312824606895447,-0.04302318021655083,0.034517623484134674,-0.1017007902264595,0.07165075838565826,-0.1389807164669037,0.2153862863779068,-0.25975003838539124,-0.2786481976509094,-0.047921713441610336,-0.0490742027759552,-0.12504221498966217,-0.06771168112754822,-0.20494967699050903,0.08440669625997543,0.22526268661022186,-0.014486161060631275,0.20791937410831451,0.08698005974292755,-0.12024805694818497,-0.05713846907019615,-0.05098408833146095,-0.1454610973596573,-0.11513505131006241,0.07061226665973663,0.09710102528333664,0.07535742223262787,0.12207174301147461,0.22097764909267426,0.12932322919368744,0.04329470545053482,0.09820318967103958,0.1870187222957611,0.14463616907596588,0.0038644822780042887,-0.006751085165888071,-0.21494145691394806,-0.11496859043836594,-0.1884063333272934,-0.03941887244582176,0.07482226938009262,-0.028700491413474083,0.021915197372436523,0.13700081408023834,0.01179705560207367,-0.17582717537879944,0.2301025241613388,0.12142181396484375,0.17889894545078278,0.07566535472869873,-0.13037067651748657,-0.0011576522374525666,-0.008835355751216412,-0.12454914301633835,-0.04066404327750206,-0.1931440383195877,-0.09446331113576889,0.12938940525054932,-0.1812606006860733,0.04337354004383087,-0.06883321702480316,0.1190810352563858,0.20011115074157715,0.20453178882598877,-0.1333574652671814,0.00841573067009449,-0.056774936616420746,0.08345800638198853,-0.010646708309650421,0.042858220636844635,-0.11371248960494995,-0.12365493923425674,-0.11134729534387589,0.17651993036270142,-0.10655617713928223,-0.200370192527771,0.04539160057902336,-0.11778368800878525,-0.17501650750637054,-0.13389943540096283,-0.11166047304868698,-0.1418706476688385,0.005207854323089123,0.17792972922325134,-0.08256974816322327,0.03535110130906105,-0.17092573642730713,-0.09004496037960052,0.0715964138507843,0.01181824505329132,-0.014821585267782211,0.009145804680883884,0.00026039627846330404,0.05538999289274216,0.10315091162919998,-0.1212523952126503,-0.27891942858695984,-0.12495478242635727,-0.02582561783492565,0.01643001101911068,-0.09096671640872955,-0.2194518893957138,-0.2078508585691452,0.046779971569776535,0.1452421247959137,0.12786763906478882,-0.005105499178171158,0.12798790633678436,-0.12576816976070404,0.10049587488174438,0.10657616704702377,0.16264069080352783,-0.009972462430596352,0.06366167962551117,0.1508776694536209,-0.17707233130931854,0.09774913638830185,0.23928706347942352,0.1733575463294983,0.08249631524085999,-0.06525918841362,-0.15868428349494934,-0.04644707962870598,-0.28734704852104187,-0.2626403570175171,-0.10309554636478424,-0.04235919192433357,-0.05829837918281555,0.08943237364292145,0.06427515298128128,-0.16580097377300262,-0.19493335485458374,0.058099836111068726,-0.056320227682590485,0.13961786031723022,0.18412339687347412,-0.11432436853647232,-0.16471445560455322,-0.12618687748908997,-0.12333579361438751,0.05401267111301422,-0.15340174734592438,0.09851950407028198,-0.17708511650562286,-0.058035995811223984,-0.11001381278038025,0.1939936727285385,0.059834059327840805,0.0010169132146984339,-0.15273170173168182,-0.006803082302212715,-0.3115083873271942,-0.12316108494997025,0.07552921772003174,-0.1520579308271408,-0.15219628810882568,0.011988043785095215,-0.19860757887363434,-0.04971258342266083,-0.23738428950309753,0.014605659060180187,-0.04350518435239792,0.18789415061473846,0.005724953021854162,0.09423550218343735,0.09087922424077988,-0.10627120733261108,-0.20408830046653748,-0.1206689178943634,-0.198562353849411,0.025234686210751534,-0.2916184663772583,-0.18603649735450745,-0.12512654066085815,-0.1283930540084839,-0.30931058526039124,0.017484823241829872,-0.020766908302903175,-0.0074014849960803986,-0.3847099244594574,-0.2148028463125229,0.10849392414093018,-0.1259320229291916,-0.22093962132930756,0.021300634369254112,-0.1686849445104599,-0.2606440782546997,0.10132141411304474,-0.007286421488970518,0.17574234306812286,0.1012493148446083,0.14441213011741638,0.09908345341682434,0.08826450258493423,0.04411323741078377,0.08067992329597473,0.08725401014089584,-0.010897614993155003,-0.04114605486392975,0.08134683221578598,-0.13976843655109406,0.1699165403842926,-0.13819673657417297,-0.013397946022450924,-0.15684013068675995,-0.057628437876701355,-0.25761884450912476,-0.19084952771663666,0.04150419309735298,-0.1231890395283699,-0.270865261554718,-0.07353520393371582,0.2261950522661209,-0.23324188590049744,-0.059813492000103,0.13870008289813995,0.04553341865539551,-0.2219572812318802,-0.14764288067817688,-0.0004208457248751074,0.09515491127967834,0.026246199384331703,-0.012693578377366066,-0.16406843066215515,0.0294897872954607,0.031836286187171936,0.1532043069601059,0.12667040526866913,-0.1096053197979927,-0.18633520603179932,0.04864326864480972,-0.11725971102714539,-0.3024318814277649,-0.14057688415050507,-0.4247308671474457,0.027362778782844543,-0.0025314658414572477,-0.2542671263217926,-0.02360202930867672,-0.012522620148956776,0.12122636288404465,0.0403512604534626,0.025284964591264725,-0.03939669951796532,-0.046828530728816986,0.14904111623764038,-0.014032619073987007,0.1458406150341034,-0.0873350203037262,-0.07859612256288528,-0.13264326751232147,0.06955766677856445,-0.19728180766105652,-0.09934885799884796,-0.1430734097957611,0.04379690811038017,0.04178187623620033,0.027244994416832924,-0.08474144339561462,0.021115709096193314,0.05739789828658104,-0.015927843749523163,0.01118550542742014,-0.00029339431785047054,-0.2090078592300415,-0.0886559784412384,-0.10734840482473373,0.00301778013817966,-0.1118912622332573,0.019349699839949608,0.05683515593409538,0.20229889452457428,0.13599230349063873,-0.17635701596736908,-0.04578148573637009,-0.030249912291765213,-0.08710926026105881,-0.14536070823669434,0.056364383548498154,0.19067461788654327,0.12439650297164917,0.1041458323597908,-0.18788261711597443,-0.062411289662122726,0.164057657122612,0.031916867941617966,-0.10993906855583191,-0.18108320236206055,0.07293345779180527,-0.15047332644462585,-0.18033406138420105,-0.1829521805047989,-0.25760141015052795,-0.2672317922115326,-0.07420837879180908,-0.13202035427093506,0.18065962195396423,0.14463846385478973,-0.04503898322582245,0.17377130687236786,0.02691756561398506,-0.11478220671415329,-0.09813052415847778,0.16991060972213745,-0.06207103654742241,-0.1778278946876526,0.0060668387450277805,-0.04989300295710564,0.058719269931316376,-0.03810710459947586,0.11903651058673859,-0.02572830393910408,-0.09679453819990158,0.07893084734678268,-0.11333901435136795,-0.18187293410301208,-0.004793815780431032,-0.000007828765774320345,-0.019457314163446426,-0.030438728630542755,-0.16872428357601166,0.10216550529003143,0.1917392909526825,0.007143273949623108,0.030315924435853958,0.24788019061088562,0.005421303678303957,0.11490797251462936,-0.0032029785215854645,0.048655375838279724,0.0018131365068256855,-0.018564634025096893,0.19273285567760468,0.10052873194217682,0.18066070973873138,-0.11467041820287704,0.1507279872894287,-0.06340237706899643,-0.03413945436477661,0.15937583148479462,0.02386515401303768,0.06753590703010559,-0.01941452920436859,-0.07336976379156113,-0.16666781902313232,0.08813953399658203,-0.005916145164519548,-0.09623485803604126,0.18053866922855377,0.1644812375307083,0.16280660033226013,0.13787740468978882,0.26925063133239746,0.020525338128209114,0.2246589958667755,0.04990373179316521,0.18161176145076752,0.1452796757221222,0.05876500904560089,-0.06783732771873474,-0.09902993589639664,0.1205066591501236,-0.11833711713552475,-0.12676019966602325,-0.18896540999412537,0.03951919823884964,0.0014969201292842627,0.095636285841465,-0.017034461721777916,-0.11073018610477448,0.05165230855345726,-0.045562200248241425,-0.109928198158741,0.1926610916852951,-0.02210126630961895,-0.08414093405008316,-0.12285344302654266,0.1871158331632614,-0.069413922727108,0.0003563016653060913,-0.10786965489387512,-0.11387395858764648,0.07184065133333206,-0.12827208638191223,0.19010883569717407,-0.0695275068283081,-0.06869965046644211,0.15446600317955017,-0.047346025705337524,-0.06258635967969894,-0.1511361449956894,-0.04822844639420509,0.180169939994812,0.17999322712421417,-0.1806713193655014,0.16868248581886292,-0.16200007498264313,-0.001970777055248618,-0.1957090198993683,-0.10983752459287643,-0.0695716142654419,-0.20125746726989746,0.05520540848374367,0.022989073768258095,-0.035954494029283524,-0.01167838554829359,-0.04957825317978859,-0.17668893933296204,0.031678371131420135,0.1172480657696724,-0.09083551913499832,0.021806957200169563,-0.00016671571938786656,0.09973961114883423,0.16286645829677582,-0.035408057272434235,-0.15737855434417725],[-0.09574107080698013,0.027736319229006767,0.11943422257900238,0.11638300865888596,0.08876098692417145,-0.09662669897079468,0.12314945459365845,-0.10098978877067566,-0.1629539579153061,-0.019410211592912674,-0.17941033840179443,0.03627919778227806,0.052191220223903656,0.05267675220966339,0.06212566792964935,0.05699246749281883,-0.07983778417110443,-0.07297932356595993,0.08795683830976486,0.06774302572011948,0.19721493124961853,0.035411108285188675,-0.02285894937813282,-0.10776887834072113,0.09085597842931747,-0.19370457530021667,-0.06222096085548401,-0.1842460036277771,0.09872598201036453,-0.15478001534938812,0.1297093629837036,0.14104433357715607,-0.017298007383942604,-0.040874920785427094,-0.05512566119432449,0.19138376414775848,0.10217193514108658,0.079571433365345,0.026152238249778748,-0.14301379024982452,0.049199510365724564,0.0045529878698289394,-0.14475664496421814,0.09000611305236816,-0.17018289864063263,0.16025197505950928,0.1270381659269333,-0.15387322008609772,-0.17549395561218262,0.08342164009809494,-0.06442447006702423,0.06371299177408218,-0.023979494348168373,0.024014966562390327,0.09172302484512329,-0.08414356410503387,0.07037808001041412,0.0842670127749443,-0.19917434453964233,-0.03526530787348747,0.17868822813034058,0.10892051458358765,0.10092324018478394,-0.03316618502140045,-0.1874469518661499,-0.013092286884784698,0.03613806888461113,0.036511074751615524,-0.020773280411958694,-0.04403156787157059,0.1945398598909378,0.15532270073890686,0.030512580648064613,0.12127498537302017,0.04824021831154823,-0.07872354984283447,0.16046442091464996,0.08488019555807114,-0.0698738768696785,-0.1578424721956253,-0.08994903415441513,-0.19616234302520752,0.14126737415790558,0.025858987122774124,0.10793297737836838,-0.05975060164928436,-0.10779372602701187,0.11773956567049026,-0.12007317692041397,-0.1891968548297882,-0.07460150867700577,-0.18315167725086212,0.09941646456718445,0.11184312403202057,-0.15365663170814514,0.06860923767089844,-0.02686702087521553,-0.009475021623075008,-0.061025943607091904,0.05235957354307175,-0.15337026119232178,0.15547020733356476,-0.16475261747837067,-0.07077483087778091,-0.10563046485185623,-0.11128336191177368,-0.16502095758914948,-0.022861797362565994,-0.15336847305297852,-0.05487243831157684,0.0532325878739357,0.10904880613088608,-0.1175619438290596,0.09124871343374252,0.05092035233974457,0.10415772348642349,0.13326866924762726,0.12919981777668,0.1141836866736412,-0.12491364032030106,-0.04953354224562645,0.1900872439146042,0.15036305785179138,0.1137038841843605,-0.1823936402797699,0.135909304022789,0.06750548630952835,-0.16550609469413757,0.11938538402318954,0.10756254941225052,0.0807410404086113,0.005255897529423237,-0.17207394540309906,-0.17852683365345,0.15788917243480682,-0.024230720475316048,0.022171625867486,-0.028820913285017014,0.1614546775817871,0.06617613136768341,-0.13093717396259308,0.10310107469558716,-0.1167694628238678,-0.011573717929422855,-0.13526737689971924,-0.05868262052536011,0.15026630461215973,-0.0295520331710577,-0.11315973103046417,0.1827651709318161,-0.1640506237745285,-0.03829794377088547,-0.05777989700436592,-0.2255888134241104,0.11171704530715942,-0.04166402667760849,-0.19238658249378204,0.03565450385212898,-0.19196079671382904,-0.14610756933689117,-0.10712888091802597,-0.05094216391444206,-0.18034039437770844,-0.022148577496409416,-0.01902942545711994,-0.023762566968798637,0.14718471467494965,-0.0049441419541835785,0.03852715715765953,-0.18081307411193848,0.04683208465576172,0.15816867351531982,0.1399015486240387,-0.16665121912956238,0.053927790373563766,-0.19876623153686523,-0.00572933629155159,0.10002348572015762,0.13282787799835205,0.13810952007770538,-0.20660917460918427,0.12248653918504715,0.16539636254310608,0.09145637601613998,0.07468026876449585,0.07128746062517166,0.005157740321010351,-0.10592391341924667,0.11721008270978928,-0.03321688622236252,0.08433188498020172,-0.07718498259782791,0.0870475322008133,0.06799163669347763,0.14314031600952148,0.12647834420204163,0.07148965448141098,0.18383724987506866,0.10670074075460434,-0.19281017780303955,-0.02311069890856743,-0.02867133542895317,-0.08931497484445572,-0.10008209943771362,-0.17366643249988556,-0.09849563241004944,0.12037444859743118,-0.22001032531261444,-0.2363000512123108,-0.01905055344104767,-0.10285628587007523,0.056680794805288315,-0.0732375904917717,0.08243591338396072,0.1295783668756485,0.010671968571841717,0.023677175864577293,-0.07524833083152771,0.16577401757240295,0.0312776118516922,-0.17612135410308838,0.1354716718196869,0.03952370956540108,-0.16203650832176208,0.12767349183559418,-0.15770496428012848,-0.19074152410030365,0.11613233387470245,-0.054124023765325546,-0.15869130194187164,0.08487706631422043,-0.19457440078258514,0.003917183261364698,-0.10995452851057053,0.0686342865228653,-0.1276995688676834,-0.1588166505098343,0.009934547357261181,0.030429590493440628,0.009796909987926483,0.03302711248397827,0.006371472496539354,0.1261148303747177,-0.09521247446537018,0.14925216138362885,0.0017988161416724324,0.13891151547431946,-0.08875112235546112,-0.1923973262310028,-0.07438905537128448,0.06415365636348724,0.07469144463539124,0.13461054861545563,-0.12310311198234558,0.12887878715991974,0.024435438215732574,0.05710121616721153,0.10675645619630814,-0.1597554236650467,0.16305764019489288,-0.18312756717205048,0.07551275938749313,-0.2045716494321823,-0.1242673322558403,-0.020818572491407394,-0.05150352418422699,0.006101258099079132,-0.1536102145910263,-0.11376065760850906,-0.05647911876440048,-0.1821201890707016,0.05141346529126167,0.14655327796936035,-0.13500452041625977,-0.03747984766960144,0.07821355015039444,0.1755387783050537,-0.13888946175575256,0.01932705193758011,-0.1697142869234085,-0.15777581930160522,0.04821157082915306,-0.09821784496307373,0.1895100474357605,-0.005480144172906876,0.10411456972360611,0.11149556934833527,0.13355223834514618,-0.15982337296009064,0.0771154910326004,0.09292823821306229,-0.07015550136566162,-0.017638038843870163,-0.03498868644237518,-0.20819033682346344,0.021786946803331375,-0.013287662528455257,-0.212575763463974,0.00031052911072038114,-0.160747230052948,0.0469311960041523,-0.12107215821743011,0.1458035111427307,-0.12505146861076355,-0.02317771688103676,-0.0015680617652833462,-0.13818436861038208,-0.044264696538448334,-0.1934916377067566,-0.036937590688467026,0.06513269990682602,0.05994648486375809,-0.12364781647920609,-0.06265455484390259,0.08574600517749786,0.1368633657693863,-0.0312834307551384,-0.05499659478664398,-0.21601502597332,-0.023257030174136162,-0.21646930277347565,-0.15207715332508087,-0.032062508165836334,-0.03515154495835304,-0.00549367954954505,-0.2351711094379425,-0.028766565024852753,-0.10831280797719955,-0.18660996854305267,-0.09331284463405609,0.050106581300497055,0.06495068967342377,0.022216729819774628,-0.1984529048204422,0.007130471058189869,0.03404497355222702,-0.08338382840156555,0.04886520281434059,-0.150879368185997,0.010116685181856155,0.06733223795890808,0.023715343326330185,-0.10982350260019302,-0.10278045386075974,0.16841356456279755,0.026804467663168907,0.1080063059926033,0.10746867209672928,-0.15531377494335175,-0.1277027577161789,-0.11048499494791031,0.14474152028560638,-0.19650813937187195,-0.1130194142460823,-0.22165721654891968,-0.18497078120708466,0.17470653355121613,0.018697697669267654,-0.12762193381786346,0.09323700517416,-0.13149809837341309,0.10031795501708984,-0.13106800615787506,0.06668215990066528,-0.07970687001943588,0.1453625112771988,0.1538327932357788,0.02876141667366028,0.18605893850326538,0.18606805801391602,0.04707867279648781,-0.16912826895713806,-0.09480129927396774,-0.006471339147537947,0.04690652713179588,-0.20796367526054382,0.14330993592739105,-0.01968672126531601,-0.053669705986976624,0.08785732835531235,0.09757661819458008,0.12735916674137115,-0.21977989375591278,-0.15517333149909973,0.15916532278060913,-0.17358434200286865,-0.016471024602651596,0.005576977506279945,0.1557139903306961,-0.20076057314872742,-0.16655424237251282,0.04203999415040016,-0.003778078593313694,-0.11937504261732101,-0.046194061636924744,-0.1003987193107605,-0.08283586800098419,0.11453037708997726,0.16819384694099426,-0.1820661723613739,0.04393494129180908,0.160650834441185,-0.2089683711528778,-0.19198788702487946,0.12373047322034836,-0.14959019422531128,-0.07925813645124435,0.08759284019470215,-0.05796032026410103,-0.1185927763581276,0.007962004281580448,0.15110746026039124,-0.05358828231692314,-0.05759069696068764,0.11835966259241104,0.07189304381608963,0.011905018240213394,-0.009271279908716679,-0.07784368097782135,-0.1251717507839203,0.06969970464706421,0.066491037607193,-0.18205249309539795,0.1394256055355072,0.13735052943229675,-0.10381639748811722,-0.09359517693519592,0.08953884243965149,-0.18002410233020782,-0.16858750581741333,0.14632433652877808,-0.08372054994106293,-0.010954012162983418,-0.10425364226102829,-0.1604057401418686,-0.14502766728401184,-0.15780392289161682,0.017198193818330765,-0.008829803206026554,0.14672937989234924,-0.13554398715496063,-0.11589737981557846,0.0022220287937670946,-0.06768698990345001,0.04048812389373779,0.0026250521186739206,0.10962726920843124,-0.17963308095932007,0.12120232731103897,0.042276401072740555,0.050786662846803665,-0.09383269399404526,0.19371949136257172,-0.1235559731721878,-0.03680986911058426,0.16395191848278046,-0.11508018523454666,-0.07283347100019455,-0.08537670224905014,0.15959268808364868,0.003909858409315348,-0.05722714960575104,0.140123188495636,-0.0995839312672615,-0.22319680452346802,-0.17583014070987701,-0.019171295687556267,0.05572480708360672,-0.10632804036140442,0.13920262455940247,-0.0408308319747448,-0.06340012699365616,0.14857438206672668,-0.023694606497883797,0.07292655855417252,0.1799585372209549,0.08592371642589569,0.1903538554906845,0.06442359834909439,-0.04249081760644913,0.056810252368450165,-0.060362886637449265,-0.017346130684018135,-0.12728114426136017,-0.0007927282713353634,-0.19582867622375488,0.1588754504919052,0.0923091247677803,-0.025126636028289795,-0.10410115122795105,-0.05162622034549713,0.1212662011384964,0.038036100566387177,0.14236705005168915,-0.058698177337646484,0.1191486045718193,-0.15186426043510437,-0.1353864073753357,0.15464943647384644,0.06702736765146255,0.13914266228675842,-0.06142089143395424,0.055410683155059814,0.10357380658388138,0.058223333209753036,-0.16940076649188995,0.061586689203977585,-0.1085834950208664,0.0010605400893837214,0.02166479453444481,-0.12221802771091461,-0.17689360678195953,-0.10807421803474426,-0.1538480520248413,-0.16656780242919922,-0.0479256846010685,-0.1771368384361267,0.1707734614610672,-0.18247559666633606,0.059373196214437485,-0.1922903060913086,-0.037943728268146515,-0.011937533505260944,0.025599045678973198,0.02244354784488678,0.07627899944782257,0.05044974386692047,-0.13762639462947845,0.1729547381401062,0.15608830749988556,-0.1330936700105667,0.18180304765701294,0.08993608504533768,0.1483342945575714,0.09222007542848587,0.1139603927731514,-0.06423626840114594,-0.08776091784238815,-0.13794420659542084,-0.14914608001708984,0.038566965609788895,-0.20887252688407898,0.13901865482330322,0.027763061225414276,-0.027717044577002525,0.03147513419389725,0.17115162312984467,0.09807351976633072,0.09564356505870819,-0.10195606201887131,0.07675644755363464,-0.22007957100868225,-0.19312800467014313,-0.14706911146640778,-0.16775064170360565,0.0017909676535055041,-0.14157184958457947,-0.007695270702242851,0.023544104769825935,0.0159042589366436,0.14129890501499176,0.04178356006741524,0.050646424293518066,0.18702861666679382,-0.01156916469335556,-0.17908743023872375,0.12743203341960907,-0.17888779938220978,0.05922071263194084,0.14842331409454346,-0.2070409506559372,-0.10934560745954514,-0.19647665321826935,-0.21693852543830872,0.06506932526826859,0.08324635773897171,-0.11027602106332779,-0.1287074238061905,0.10158251971006393,0.008895350620150566,-0.13031943142414093,0.1611710786819458,-0.16953787207603455,0.09744469821453094,0.07623423635959625,-0.16450034081935883,-0.15514644980430603,0.07289541512727737,-0.01433244813233614,0.1418747901916504,0.07739955186843872,0.10038211941719055,0.08648073673248291,-0.20311440527439117,-0.15852755308151245,-0.06107683852314949,0.002461782656610012,0.04388878494501114,-0.08973594009876251,0.15574735403060913,-0.20596995949745178,0.11884963512420654,0.049714960157871246,0.0189395472407341,-0.21633009612560272,-0.22419074177742004,-0.05606069788336754,-0.09031790494918823,0.08301681280136108,0.14645864069461823,-0.03982525318861008,0.01949399523437023,-0.18907132744789124,0.18465645611286163,0.15429581701755524,-0.1703687608242035,-0.06735330075025558,0.14839597046375275,0.19630448520183563,-0.06354827433824539,-0.046378716826438904,-0.1712072789669037,0.11093534529209137,-0.03271419182419777,-0.17977434396743774,0.0847817212343216,-0.0766693651676178,-0.011936619877815247,0.1601545810699463,-0.09367065876722336,-0.10431800782680511,0.0677967518568039,-0.006796864327043295,0.11528181284666061,-0.00461164815351367,0.016000758856534958,0.14085005223751068,-0.0522984117269516,0.10228436440229416,-0.047210775315761566,-0.1695069521665573,-0.09310465306043625,-0.03170132637023926,-0.1403488665819168,0.051404185593128204,0.17340457439422607,0.0073542846366763115,-0.05953066051006317,0.015947403386235237,-0.19910186529159546,0.031003599986433983,-0.08023127168416977,0.030545655637979507,0.0374755784869194,0.06849588453769684,-0.1309046745300293,-0.024448206648230553,-0.13949739933013916,0.15764552354812622,-0.04692947119474411,0.025518596172332764,-0.14673995971679688,0.11027650535106659,0.07407540082931519,0.005878550931811333,-0.048347633332014084,0.09284961223602295,0.1374376118183136,-0.16205231845378876,-0.07465671002864838,-0.031070463359355927,-0.10287094116210938,0.08173079043626785,0.013131856918334961,-0.08704636245965958,-0.011378617957234383,-0.07009220868349075,-0.15682508051395416,-0.152653306722641,0.08037902414798737,-0.19187569618225098,-0.05349264293909073,0.06635891646146774,0.1379525363445282,-0.1344269961118698,-0.10857995599508286,-0.10502409934997559,0.10572889447212219,0.1436707079410553,0.05132395774126053,-0.1996167004108429,-0.017076119780540466,0.029038868844509125,0.10831240564584732,0.12065573781728745,0.04645658656954765,0.12700927257537842,-0.0239708311855793,0.10383936762809753,-0.017602311447262764,0.16094452142715454,0.157525897026062,0.08416426926851273,-0.18230879306793213,0.03982704132795334,0.08157846331596375,0.05369797348976135,-0.1844237595796585,0.009767389856278896,0.02900383062660694,-0.1747669279575348,0.10080485790967941,-0.17074142396450043,-0.031000200659036636,-0.02452942356467247,-0.05551076680421829,0.11555782705545425,-0.16692817211151123,-0.06797686219215393,-0.07898766547441483,0.08039984852075577,-0.10768552869558334,-0.15279331803321838,0.1673382818698883,-0.10836520791053772,0.13210296630859375,0.19898711144924164,0.10111231356859207,0.15993374586105347,0.00004652271309169009,0.02002238854765892,-0.11061252653598785,0.19739772379398346,0.16435721516609192,-0.03395092859864235,-0.02950175851583481,0.15277254581451416,-0.19138158857822418,0.10054557770490646,0.1600666493177414,0.05469038337469101,-0.19954025745391846,-0.19581745564937592,0.010038022883236408,0.09462469071149826,-0.047834910452365875,0.08511289209127426,0.17165911197662354,-0.044924866408109665,-0.08243520557880402,-0.18918006122112274,-0.14274047315120697,0.15430787205696106,-0.12636446952819824,-0.08768150955438614,0.13742373883724213,-0.0035907302517443895,-0.16273322701454163,0.03721790388226509,0.1387968212366104,-0.09964704513549805,0.1538655012845993,-0.027496347203850746,0.10586177557706833,-0.02334478124976158,-0.04765259847044945,-0.09367237985134125,-0.05408461019396782,-0.014715735800564289,-0.05619807913899422,-0.09711743891239166,0.025910601019859314,0.0008473898633383214,0.02428544871509075,0.01076910924166441,-0.07286006212234497,0.025593966245651245,-0.07611238956451416,-0.14970478415489197,0.1578551083803177,0.04018475487828255,-0.09285048395395279,-0.16399498283863068,-0.10318735241889954],[-0.10180234163999557,-0.11805666983127594,-0.041034724563360214,-0.16882199048995972,-0.05036839842796326,0.1940131038427353,-0.1330723911523819,-0.11898117512464523,-0.12353862822055817,-0.039904478937387466,0.027164114639163017,0.07826792448759079,0.05542123317718506,0.09959276765584946,0.026927879080176353,0.15682409703731537,0.15766623616218567,0.05557597428560257,0.14405220746994019,0.1328466236591339,0.016898036003112793,-0.021277466788887978,-0.19435887038707733,0.18158133327960968,-0.14261896908283234,-0.1388373225927353,0.03523123636841774,-0.18067046999931335,-0.11696922034025192,0.16651467978954315,0.08627192676067352,-0.06176400184631348,-0.03542196750640869,-0.19666308164596558,0.009119808673858643,-0.1254127323627472,-0.02795080654323101,-0.07225602865219116,0.05538876727223396,0.04078349098563194,-0.09000871330499649,-0.0822104960680008,0.19240108132362366,-0.028001077473163605,-0.16706569492816925,-0.09756549447774887,0.16520249843597412,-0.16112978756427765,0.08064321428537369,0.19458910822868347,0.13658617436885834,-0.11313709616661072,0.05722471699118614,-0.056604158133268356,0.14694148302078247,-0.16756708920001984,-0.05459768325090408,-0.02852105349302292,-0.12358321994543076,-0.15265049040317535,0.1809384822845459,-0.08893132954835892,-0.024829095229506493,0.033991433680057526,0.17435678839683533,0.06839010864496231,0.06945812702178955,0.19780270755290985,-0.0300445556640625,0.17343047261238098,-0.10039684176445007,-0.12597228586673737,0.15050017833709717,-0.07866396754980087,-0.06282025575637817,-0.08255768567323685,-0.09157243371009827,0.12299052625894547,0.1703740805387497,-0.19608396291732788,-0.13202744722366333,0.1887073963880539,0.1631310135126114,0.08304870873689651,-0.12345254421234131,-0.0966191366314888,0.12603476643562317,0.1860562562942505,-0.17920507490634918,0.12971676886081696,0.1772860288619995,-0.05326197296380997,-0.17107318341732025,-0.11396877467632294,0.046830955892801285,0.07080823183059692,-0.06685011088848114,-0.10711335390806198,-0.12049826234579086,-0.1081223264336586,-0.019761361181735992,0.10985180735588074,0.22061699628829956,-0.11700248718261719,0.07649786025285721,-0.05067586898803711,-0.2043750137090683,0.06571364402770996,0.007598354015499353,-0.11048524081707001,-0.11396250873804092,-0.08875755220651627,0.07088851183652878,0.10476194322109222,-0.12438777089118958,-0.024916768074035645,0.19960817694664001,-0.17073708772659302,-0.10109957307577133,0.11573383212089539,-0.05605755373835564,0.19994057714939117,0.21300604939460754,-0.010919788852334023,0.06221790239214897,0.01510115247219801,0.1906375288963318,0.060675594955682755,0.16763630509376526,0.045830387622117996,0.1885213702917099,-0.10466655343770981,-0.1603352129459381,-0.0610496923327446,-0.06013806164264679,-0.11290306597948074,-0.08979769796133041,-0.08948174118995667,0.10605902969837189,-0.0789002999663353,0.1420026421546936,0.015104728750884533,-0.12037752568721771,0.012933168560266495,-0.058414820581674576,0.10978288948535919,-0.17668218910694122,-0.21564611792564392,0.06354273110628128,-0.06958987563848495,-0.1608651578426361,-0.09638673812150955,0.044649336487054825,0.3189072906970978,0.1479695588350296,0.006012953817844391,-0.14617174863815308,0.11845298856496811,-0.05748962610960007,-0.19922930002212524,0.12658360600471497,0.15690647065639496,-0.024248994886875153,0.1564595252275467,0.13472490012645721,-0.21878033876419067,0.11956631392240524,-0.053433436900377274,-0.17678719758987427,-0.17205442488193512,-0.16112184524536133,0.1645987182855606,0.13912975788116455,0.06718524545431137,-0.07356441766023636,0.02239651419222355,-0.09146015346050262,0.1536957025527954,-0.2647085189819336,-0.27610188722610474,0.03371550142765045,0.1336815357208252,0.15364781022071838,0.155702143907547,0.11139775812625885,0.09298773854970932,-0.08923464268445969,-0.2638697028160095,-0.16807766258716583,-0.18389330804347992,-0.21278813481330872,-0.044606346637010574,0.02895359694957733,-0.16675977408885956,-0.15126803517341614,0.10791095346212387,-0.08752333372831345,0.007022750098258257,0.13183078169822693,0.08970967680215836,-0.04337717220187187,0.10035869479179382,0.17564065754413605,-0.29695308208465576,-0.09533626586198807,-0.17403316497802734,-0.0701301172375679,-0.11050402373075485,0.109158955514431,0.11502645909786224,0.24812929332256317,0.3275565207004547,0.024114202708005905,0.09806372225284576,-0.06277701258659363,-0.13758353888988495,0.0005636860150843859,-0.10890782624483109,-0.13982215523719788,-0.33459004759788513,-0.07090852409601212,-0.07860426604747772,-0.10315628349781036,-0.005615017842501402,-0.1796194463968277,0.020042622461915016,-0.002106443513184786,0.15239831805229187,-0.12226005643606186,-0.015240957960486412,-0.03294390067458153,0.07811099290847778,-0.0339549258351326,-0.1713293194770813,-0.031025007367134094,-0.3212709426879883,-0.1390470415353775,-0.07419851422309875,0.2764213979244232,0.23076215386390686,0.2853378355503082,0.12291817367076874,-0.03147241845726967,-0.10993488878011703,0.034756164997816086,-0.19228412210941315,0.04833469167351723,0.005052296910434961,-0.038902804255485535,0.12887530028820038,-0.10021695494651794,0.13345637917518616,-0.186763197183609,-0.030802035704255104,-0.1717369258403778,0.2082354873418808,0.009381955489516258,0.030681461095809937,-0.2974183261394501,-0.13565680384635925,-0.04388653486967087,0.09121100604534149,-0.05841163545846939,-0.13557524979114532,-0.33143535256385803,-0.2406863570213318,0.059333011507987976,0.01620682328939438,0.08194202184677124,-0.19559447467327118,-0.02854079194366932,-0.044093769043684006,-0.15331490337848663,-0.1236191838979721,0.09483188390731812,-0.3466404676437378,-0.2121739536523819,-0.14442896842956543,0.18772926926612854,-0.09515411406755447,-0.19527845084667206,-0.08836391568183899,-0.001304016332142055,0.19427715241909027,-0.10166428238153458,-0.1519273966550827,-0.028943367302417755,0.07861549407243729,0.0253503005951643,-0.10701688379049301,0.17451994121074677,-0.29012516140937805,-0.49067386984825134,-0.5564453601837158,-0.2013636976480484,0.1523580700159073,0.16755732893943787,0.04751226305961609,0.20339015126228333,0.09421076625585556,0.12744975090026855,-0.04541536420583725,-0.19613677263259888,0.027632951736450195,-0.2361220270395279,0.0216507725417614,0.16012948751449585,-0.1971900761127472,-0.059901826083660126,-0.14818650484085083,-0.17565955221652985,-0.20911644399166107,-0.0889001339673996,0.018577780574560165,-0.16748902201652527,-0.13252991437911987,-0.09393381327390671,0.15178926289081573,-0.3131345808506012,-0.31528374552726746,-0.5899635553359985,-0.40563029050827026,-0.16947147250175476,0.03452610969543457,0.14341062307357788,-0.15133464336395264,-0.03358438238501549,-0.171776682138443,0.2786102294921875,-0.010751740075647831,-0.02630324475467205,-0.02096717432141304,-0.0851261168718338,-0.05483529716730118,0.11227736622095108,0.10542451590299606,-0.015345551073551178,0.03364581987261772,0.1035352423787117,0.1414104551076889,-0.09056447446346283,-0.14114698767662048,-0.31907472014427185,-0.18615594506263733,-0.1785125881433487,-0.20365986227989197,-0.3881876766681671,-0.6431983113288879,-0.2428617626428604,-0.4596030116081238,-0.011858208104968071,-0.09764198213815689,0.0842561423778534,0.18300692737102509,-0.2530573606491089,-0.019993042573332787,-0.053189221769571304,0.19008786976337433,-0.13261692225933075,-0.038834985345602036,0.10655687749385834,-0.11428911238908768,-0.08811803162097931,-0.08041208982467651,0.11955608427524567,0.12767788767814636,0.0034375987015664577,-0.13474220037460327,0.16060328483581543,0.09136620163917542,0.014426002278923988,-0.22618728876113892,-0.2486678957939148,-0.5218533873558044,-0.39740413427352905,-0.36451345682144165,-0.2500498294830322,-0.1586315780878067,0.05987764894962311,-0.17717818915843964,0.06282423436641693,0.003470400348305702,0.2083825320005417,-0.1125439777970314,-0.11159743368625641,-0.18989485502243042,0.0025551458820700645,-0.03697161003947258,-0.1906357705593109,-0.005017509683966637,-0.11640205979347229,0.0358031690120697,0.011702020652592182,0.06346500664949417,0.029388638213276863,0.09103070199489594,-0.04399888962507248,-0.045080482959747314,-0.16250072419643402,-0.14664717018604279,-0.18256159126758575,-0.2898876965045929,-0.3158179521560669,-0.39118504524230957,-0.23083548247814178,-0.2241280972957611,-0.04061201214790344,-0.04717911407351494,-0.09282191842794418,-0.22189517319202423,-0.35711389780044556,-0.29373759031295776,-0.37292027473449707,-0.10744654387235641,-0.21824277937412262,0.00935494713485241,-0.003621399402618408,-0.017287081107497215,0.054046232253313065,0.021180788055062294,0.18610763549804688,0.03355097398161888,-0.10025295615196228,0.14167959988117218,-0.03809218108654022,-0.018049171194434166,-0.08724793791770935,-0.37626194953918457,-0.15858498215675354,-0.34211790561676025,-0.21226274967193604,-0.07012373954057693,0.16188944876194,0.13480030000209808,0.07139451801776886,-0.15295612812042236,0.10526123642921448,-0.10975988954305649,-0.41666579246520996,-0.34653857350349426,-0.10005057603120804,-0.1841752976179123,-0.170036181807518,-0.13958363234996796,0.07426097989082336,0.15212120115756989,-0.050736889243125916,-0.014261346310377121,-0.19287514686584473,0.11975358426570892,0.18317697942256927,0.014980550855398178,0.19713853299617767,0.05397259071469307,0.01522778905928135,-0.13849115371704102,-0.17766879498958588,-0.07833290100097656,0.0821254700422287,0.06326453387737274,0.3718451261520386,0.599615752696991,-0.010692024603486061,0.14090918004512787,-0.24665455520153046,-0.3560595214366913,-0.22613242268562317,-0.4444328248500824,-0.26525214314460754,0.038531094789505005,-0.1778365820646286,-0.17795997858047485,0.03766685351729393,-0.19430497288703918,0.02269323170185089,-0.13611990213394165,0.193418949842453,0.06781985610723495,0.17030945420265198,-0.08670351654291153,0.07065936177968979,-0.06415484100580215,-0.3011687099933624,-0.13749289512634277,-0.15594711899757385,0.012941064313054085,0.06422661989927292,0.29606035351753235,0.3300420641899109,0.018210705369710922,-0.07460330426692963,0.14108438789844513,-0.25051426887512207,-0.45199671387672424,-0.008984274230897427,-0.19031357765197754,-0.07217570394277573,-0.16724121570587158,0.008506505750119686,-0.15402770042419434,-0.06205441802740097,-0.07750040292739868,-0.006134336814284325,0.15163367986679077,0.09888697415590286,0.19293521344661713,-0.09112617373466492,-0.1648944616317749,-0.012284254655241966,-0.1202012300491333,-0.3286944329738617,0.05504266917705536,-0.382308691740036,-0.0751873180270195,0.1676761507987976,0.05240175127983093,-0.09159702807664871,0.0014084602007642388,0.16802926361560822,0.022366685792803764,-0.22115328907966614,-0.11347357928752899,-0.299468457698822,-0.07709967344999313,-0.0041730511002242565,0.09752553701400757,0.03616499900817871,-0.07284551113843918,0.1342560201883316,0.21222496032714844,-0.021843617781996727,-0.14106647670269012,0.021184727549552917,0.053508661687374115,0.15640009939670563,0.12073829770088196,0.011034606024622917,-0.3461284339427948,-0.04657682776451111,-0.04270215332508087,-0.08526765555143356,0.2892214357852936,0.07944335043430328,0.07463724911212921,0.03384963050484657,0.31898045539855957,0.1525430530309677,0.15382258594036102,0.14673538506031036,0.06323254853487015,-0.23004288971424103,-0.08487646281719208,0.08995991945266724,0.23368191719055176,0.11169543117284775,0.1613747626543045,0.057205405086278915,0.2487507462501526,-0.04153633862733841,-0.19565999507904053,-0.040951721370220184,-0.15195290744304657,0.07864075154066086,0.016365323215723038,-0.04294635355472565,-0.18673934042453766,-0.004457277711480856,0.0840088278055191,-0.05945635959506035,0.1492452174425125,0.33863115310668945,0.390549898147583,0.00362725043669343,0.11249931156635284,-0.05568990483880043,0.07992623746395111,0.17411859333515167,-0.06862284243106842,0.22115276753902435,-0.037054941058158875,0.3406466841697693,0.14582203328609467,0.1349181979894638,0.07175881415605545,-0.00013814261183142662,-0.04011012986302376,0.045952606946229935,-0.003293242771178484,0.1693330854177475,0.17251694202423096,-0.0239251721650362,-0.08048062771558762,-0.09871377795934677,0.012791854329407215,0.029252130538225174,0.2662827670574188,0.06920573115348816,0.2747504711151123,0.09519191831350327,0.30236706137657166,0.2292928844690323,0.12367353588342667,-0.09682929515838623,-0.27593371272087097,0.2587025463581085,-0.008021591231226921,0.09102270752191544,-0.041318029165267944,0.3658280074596405,0.15252822637557983,0.23795916140079498,0.0574730709195137,0.2251848429441452,0.06548267602920532,-0.19902768731117249,0.025487862527370453,0.020264441147446632,-0.054608047008514404,-0.025971336290240288,0.19228047132492065,0.028695061802864075,0.06087667867541313,-0.12537050247192383,0.07127952575683594,0.17412656545639038,-0.14522171020507812,-0.0851447731256485,-0.16981005668640137,-0.2665310204029083,-0.28351280093193054,0.03760142996907234,0.07095476984977722,-0.07270076125860214,0.265198290348053,0.2922392785549164,0.1378490924835205,0.1419384777545929,0.14950478076934814,0.045122724026441574,-0.0040551284328103065,0.2367417812347412,-0.05010995641350746,-0.02452661842107773,-0.07562578469514847,0.07869141548871994,-0.013162491843104362,0.08877802640199661,0.0175348911434412,0.21805281937122345,0.2930092215538025,-0.09416885673999786,0.1189604103565216,0.08184121549129486,-0.08957449346780777,-0.008383920416235924,0.03161882981657982,-0.022149987518787384,-0.11737293750047684,-0.2667653560638428,-0.3859753906726837,-0.3117580711841583,-0.19782859086990356,0.15875199437141418,0.006587973330169916,0.0073951613157987595,-0.11880064010620117,0.1492978185415268,-0.018761031329631805,0.02218819409608841,0.09359706938266754,-0.16699863970279694,-0.10595424473285675,-0.07225745171308517,0.03509693220257759,0.14323769509792328,-0.06850254535675049,0.01843644119799137,-0.029574979096651077,-0.16861116886138916,-0.1806676834821701,-0.1710692197084427,-0.3753434121608734,-0.14230139553546906,0.011007719673216343,-0.12839016318321228,-0.3983944356441498,-0.06554481387138367,-0.05029765143990517,-0.05683889985084534,-0.05834610387682915,-0.04348163306713104,0.03264376521110535,-0.27089250087738037,0.10651056468486786,0.14115038514137268,-0.02835734374821186,0.054180245846509933,0.1971658319234848,0.004575151018798351,-0.1694498360157013,0.0749158039689064,-0.14049865305423737,-0.16627781093120575,0.12514623999595642,-0.035862427204847336,-0.0011309904512017965,0.12357357889413834,-0.09005453437566757,-0.24429021775722504,-0.05224469676613808,-0.09796079993247986,0.11458845436573029,-0.08429741859436035,0.0737214982509613,-0.036305733025074005,-0.003566994098946452,-0.17945639789104462,-0.15953178703784943,-0.024874122813344002,-0.07998163253068924,-0.0945461243391037,0.1548929512500763,-0.021019132807850838,-0.1424121856689453,0.04270051792263985,-0.06410308182239532,-0.1269024908542633,0.1505843997001648,0.02525452896952629,0.09603501111268997,0.1053558811545372,-0.1900319755077362,0.017782369628548622,0.19130085408687592,0.012235472910106182,0.02728937566280365,0.047146763652563095,-0.13357111811637878,0.12129326164722443,0.052654001861810684,0.2249877154827118,0.06541111320257187,-0.15331217646598816,-0.14810241758823395,0.06027250364422798,0.16977444291114807,-0.17638906836509705,0.12710295617580414,-0.09718287736177444,-0.15628470480442047,-0.02694067358970642,0.05515254661440849,0.0915885642170906,0.13234619796276093,0.14510133862495422,-0.09908140450716019,0.16018612682819366,-0.017350539565086365,-0.04510264843702316,0.16075582802295685,0.038673121482133865,0.18897077441215515,0.10650337487459183,0.1432269811630249,0.12841065227985382,0.12316835671663284,0.19316914677619934,-0.023793626576662064,-0.007540963124483824,-0.1489502340555191,-0.09939122200012207,-0.11301678419113159,-0.04527629166841507,-0.1457451581954956,0.18038132786750793,0.06463809311389923,-0.1964195817708969,-0.04611731693148613,0.0070099784061312675,-0.059699974954128265,0.1170692965388298,0.17674939334392548,0.0025803435128182173,-0.19034364819526672],[-0.17127029597759247,-0.04389846324920654,0.1148030161857605,-0.13308408856391907,-0.12183666974306107,-0.09424293786287308,-0.0723479688167572,0.09962719678878784,0.15311996638774872,-0.003497219877317548,0.19993364810943604,-0.11624151468276978,0.08800575137138367,-0.09554082155227661,-0.1518235206604004,0.015959493815898895,0.06389413774013519,0.18705615401268005,-0.03342064842581749,0.09972158074378967,0.16135922074317932,-0.04952787235379219,0.0541902594268322,-0.014680495485663414,0.1289338618516922,-0.1090317890048027,-0.014255589805543423,0.033662885427474976,-0.09970652312040329,-0.04751068726181984,0.1716095358133316,0.09750891476869583,-0.11103928834199905,-0.03248753771185875,0.11729587614536285,-0.01886274665594101,0.10562507808208466,0.19184142351150513,-0.17173776030540466,-0.06359310448169708,-0.1866993010044098,-0.04655139148235321,-0.03334253653883934,-0.12916624546051025,0.02021484076976776,-0.03358535096049309,-0.14365720748901367,-0.1397988498210907,0.03846291825175285,0.052402835339307785,0.17713473737239838,0.16884125769138336,-0.10244788229465485,0.006856075953692198,-0.030202826485037804,0.17152905464172363,0.17958471179008484,0.14381298422813416,-0.1039695218205452,-0.16746607422828674,-0.12195462733507156,0.1369086354970932,0.14268359541893005,-0.035169653594493866,-0.048362407833337784,0.06681234389543533,0.0011814148165285587,0.12453095614910126,0.1663711816072464,0.07445249706506729,-0.08711855113506317,-0.1761702448129654,-0.1746533066034317,-0.09530441462993622,0.13184723258018494,0.041705742478370667,-0.09473036974668503,0.18191643059253693,-0.05627600848674774,0.1445309817790985,-0.13378970324993134,0.05937740206718445,-0.09948798269033432,0.13924084603786469,-0.051612719893455505,0.17994453012943268,-0.13775135576725006,-0.03179694339632988,-0.015198389999568462,0.1372135877609253,0.004678650293499231,0.04850659519433975,0.017410151660442352,0.015497171320021152,-0.1312994509935379,0.005755130667239428,0.017092356458306313,0.11398983001708984,-0.16559052467346191,0.046405013650655746,-0.19745196402072906,-0.07637441158294678,0.11946967244148254,0.11911427229642868,0.12418515980243683,0.04243479296565056,0.10783559828996658,0.16765441000461578,-0.13464556634426117,-0.07768060266971588,-0.07887791097164154,-0.11207064241170883,0.15161369740962982,0.054863713681697845,-0.08274416625499725,0.06257416307926178,-0.1408349722623825,0.11853444576263428,-0.11642491817474365,0.17093682289123535,-0.1801254153251648,0.030798617750406265,-0.04402479901909828,0.1768554151058197,0.0002476126537658274,-0.10144587606191635,-0.035206254571676254,0.004861052148044109,-0.19915159046649933,-0.04764053225517273,-0.12453357130289078,0.16751889884471893,-0.05670439824461937,0.0872671827673912,-0.19495195150375366,-0.04970433562994003,0.17272770404815674,0.1008305624127388,0.17037375271320343,0.11528771370649338,0.06296741962432861,0.11800592392683029,0.1403268277645111,-0.10101598501205444,0.1513516902923584,-0.039975956082344055,-0.13309861719608307,-0.08527199923992157,-0.15089906752109528,-0.21301016211509705,0.07273394614458084,-0.17062434554100037,-0.02088877372443676,0.07226371020078659,-0.2436465173959732,0.06288021802902222,0.09031915664672852,-0.12695194780826569,-0.22128358483314514,0.07811456173658371,-0.06251551955938339,0.05918930470943451,-0.13681384921073914,-0.06117284670472145,0.1500883549451828,-0.023180298507213593,0.10014249384403229,-0.1903354823589325,-0.18464046716690063,0.008061053231358528,-0.09697642922401428,0.013406025245785713,0.19512580335140228,0.05242833495140076,-0.1250055730342865,0.043542131781578064,-0.13734227418899536,-0.007545404136180878,0.007599102798849344,0.008814884349703789,0.12845878303050995,0.15646468102931976,0.0008919485844671726,-0.24827691912651062,-0.1603763848543167,-0.08236364275217056,0.010511192493140697,-0.029855333268642426,-0.20833085477352142,-0.0947130098938942,-0.006624941248446703,0.01722443848848343,-0.057034093886613846,-0.09991493821144104,-0.09053441882133484,-0.042103271931409836,-0.04315708950161934,0.15273380279541016,-0.0692020058631897,-0.07414482533931732,-0.027514735236763954,-0.15137413144111633,-0.20127074420452118,-0.13898472487926483,0.05561130493879318,0.17585662007331848,0.010085777379572392,-0.08284098654985428,0.06630323827266693,-0.13146892189979553,-0.09037317335605621,0.08026596903800964,-0.05878949537873268,0.1220569908618927,-0.0010657627135515213,0.0801813006401062,-0.22212940454483032,-0.06193850561976433,0.20095905661582947,-0.16882649064064026,-0.11184269189834595,0.16697227954864502,0.16532167792320251,0.11350280046463013,-0.150838702917099,-0.196415975689888,0.08120352029800415,-0.03984450921416283,-0.12668971717357635,0.04550322890281677,-0.07914566993713379,0.17222648859024048,-0.15764570236206055,-0.144558846950531,-0.18654264509677887,-0.20161579549312592,0.11176753044128418,0.21491210162639618,-0.2510168254375458,-0.19965648651123047,0.014978654682636261,-0.18975885212421417,0.07582531869411469,0.06771514564752579,-0.0009560576290823519,0.07367213815450668,-0.13493898510932922,-0.0923738032579422,-0.08793658763170242,-0.0068807341158390045,-0.0660412535071373,-0.1914709210395813,-0.17507724463939667,0.1581355780363083,-0.171092227101326,-0.21208448708057404,0.011030024848878384,-0.03639904409646988,-0.19082993268966675,0.10707228630781174,-0.05309863016009331,0.03646113723516464,-0.03576366975903511,-0.05099468305706978,-0.044846538454294205,0.19294221699237823,-0.030641434714198112,-0.2198701798915863,-0.1569894701242447,-0.11107834428548813,0.06221279129385948,-0.12419594079256058,-0.2505611777305603,0.02153773047029972,0.08689232170581818,0.1716264933347702,0.00007922411896288395,-0.17585672438144684,0.10132012516260147,-0.1135983020067215,0.10804909467697144,-0.13767415285110474,0.011403192766010761,0.051639124751091,0.06733407825231552,0.055062659084796906,0.14210207760334015,-0.18012970685958862,0.16903933882713318,0.10183976590633392,0.044363103806972504,-0.12068013101816177,0.2537856996059418,0.21041882038116455,-0.2194603681564331,-0.016111496835947037,-0.14235509932041168,0.03178337216377258,0.01978265680372715,-0.19985757768154144,-0.2081657350063324,-0.025733469054102898,0.22005394101142883,0.1378767341375351,-0.09478450566530228,0.13799819350242615,0.11472444981336594,0.05919761210680008,0.1764400750398636,0.05523410812020302,-0.06184862181544304,-0.1209622249007225,-0.20835565030574799,-0.08810105919837952,0.0391966737806797,0.12511757016181946,0.08428081125020981,0.1546293944120407,-0.00476902024820447,0.14309029281139374,0.22916002571582794,-0.03053569607436657,-0.17106737196445465,-0.012721794657409191,0.04270859435200691,0.1304096281528473,-0.14204224944114685,0.03730897977948189,-0.21136300265789032,-0.13168323040008545,0.09097228944301605,-0.048995304852724075,-0.17930200695991516,0.08072547614574432,0.040425047278404236,0.011419451795518398,0.07335041463375092,0.1044144555926323,-0.17334845662117004,-0.023300770670175552,0.020335372537374496,-0.1685393899679184,-0.17325423657894135,-0.057785432785749435,-0.10792475938796997,-0.006411361508071423,0.030479980632662773,-0.12522463500499725,0.237654909491539,-0.1401340663433075,0.027677657082676888,-0.15760819613933563,-0.1446499228477478,-0.12363441288471222,-0.08830361813306808,-0.18902191519737244,-0.08283748477697372,0.10858922451734543,0.08130809664726257,0.10333036631345749,-0.13207657635211945,0.0893942266702652,0.16516835987567902,0.0035340699832886457,-0.004298396408557892,-0.0526343397796154,-0.18108558654785156,-0.0859721228480339,-0.07505094259977341,-0.03359570354223251,0.0826721340417862,-0.09482640027999878,-0.03737650066614151,0.08221901953220367,0.12403395771980286,0.20544549822807312,-0.15538616478443146,-0.07674841582775116,-0.15405260026454926,0.00005153158417670056,-0.10980699211359024,0.06630197167396545,0.18986687064170837,0.09466223418712616,0.02316809818148613,0.018651006743311882,0.04775567352771759,-0.1486702710390091,-0.007367304060608149,-0.04658256098628044,0.10239832103252411,-0.06813540309667587,-0.11692862212657928,0.08295373618602753,0.05895845592021942,0.09723750501871109,0.18033917248249054,0.03655615821480751,0.14241823554039001,0.0019979982171207666,0.18967975676059723,0.038070302456617355,0.02266375534236431,-0.12267647683620453,0.061752088367938995,0.027999263256788254,0.06806830316781998,-0.12320361286401749,0.1210150197148323,-0.17469732463359833,0.059259358793497086,-0.011457627639174461,-0.17518864572048187,-0.18531416356563568,0.1651853322982788,0.17772088944911957,-0.09838245809078217,-0.1865633875131607,0.07688907533884048,-0.043151337653398514,0.09603216499090195,0.06087300926446915,-0.07269825786352158,0.04487726464867592,-0.03230828046798706,0.11209658533334732,-0.060114067047834396,0.08618675172328949,-0.023380953818559647,-0.11720051616430283,-0.10806664079427719,-0.06283996999263763,-0.19183124601840973,-0.2272307574748993,0.046421442180871964,-0.13203194737434387,0.04827195033431053,0.0504690483212471,0.0967441275715828,-0.027056602761149406,0.06594324856996536,-0.023439904674887657,0.09929807484149933,-0.2086995393037796,0.14258810877799988,0.10948461294174194,-0.1279175877571106,-0.038068171590566635,0.1856553852558136,0.19700314104557037,0.10801021009683609,0.10494624823331833,-0.11865800619125366,0.1438589245080948,-0.13383972644805908,-0.0586082749068737,0.10095316171646118,0.05678623542189598,-0.0007458610343746841,0.10468339174985886,-0.19465650618076324,-0.14926230907440186,-0.2151021957397461,0.09425753355026245,0.03701115772128105,0.0009105188655667007,-0.21492771804332733,-0.14317598938941956,-0.25548696517944336,-0.0028412567917257547,-0.18740977346897125,-0.1726088970899582,-0.16222457587718964,0.060174811631441116,-0.011768728494644165,0.13873176276683807,0.06945357471704483,-0.025966638699173927,-0.07889332622289658,-0.17022933065891266,-0.02823745645582676,0.006222058553248644,-0.02098699100315571,-0.12867869436740875,-0.21497510373592377,-0.12976589798927307,0.006587496958673,-0.22474847733974457,-0.0033413292840123177,0.07501493394374847,0.020627805963158607,0.006040520500391722,-0.016197003424167633,-0.05945964530110359,-0.03599194064736366,0.16313159465789795,-0.012269403785467148,-0.14086295664310455,0.18408600986003876,0.05168766900897026,-0.011767958290874958,-0.12444113940000534,-0.11076744645833969,0.003966120537370443,0.1983392834663391,-0.1358024924993515,0.13226833939552307,0.1025535836815834,-0.01652992144227028,0.08923785388469696,-0.14828261733055115,-0.10576975345611572,0.12393748760223389,-0.10041999071836472,-0.06436724960803986,0.13219664990901947,-0.19088387489318848,-0.16353075206279755,-0.11030028015375137,-0.06343597918748856,0.07567960768938065,0.1741870641708374,0.12682203948497772,0.05326790735125542,-0.011544312350451946,-0.02998969331383705,-0.04157419875264168,0.21481016278266907,-0.18393456935882568,-0.14630921185016632,0.1903831958770752,0.04169570282101631,-0.15618331730365753,-0.025972729548811913,-0.1086970865726471,0.003673642873764038,-0.16858704388141632,-0.06233825162053108,0.0810508131980896,-0.12460712343454361,0.026657575741410255,-0.20064425468444824,0.09170657396316528,0.0753156840801239,0.06425292789936066,-0.15956827998161316,-0.058592602610588074,0.0737423375248909,-0.015096494928002357,0.0055785151198506355,-0.024505365639925003,-0.25137534737586975,-0.0024072828236967325,-0.10253924131393433,-0.13182379305362701,-0.12802232801914215,0.08290573209524155,-0.1302882432937622,-0.00788662675768137,0.0962766632437706,0.10679783672094345,-0.01811356283724308,0.028017299249768257,-0.010033750906586647,-0.020094778388738632,0.11152328550815582,-0.0630614385008812,-0.13294608891010284,-0.14465592801570892,-0.09152765572071075,-0.14130164682865143,-0.0975913479924202,-0.04446921870112419,0.05044630542397499,-0.18461936712265015,-0.017474738880991936,-0.014823418110609055,-0.1037307009100914,0.007190797012299299,0.0038014943711459637,-0.11861998587846756,-0.017786819487810135,-0.05904272943735123,0.09267982840538025,0.16119569540023804,0.12704013288021088,0.1869141012430191,-0.10137791186571121,0.10904188454151154,-0.07869774103164673,-0.1951715350151062,-0.06784427165985107,0.11094842851161957,-0.04570043459534645,0.17102913558483124,-0.011442598886787891,0.01719128154218197,0.06185968220233917,-0.03668617084622383,-0.17032425105571747,-0.07402399927377701,-0.11222044378519058,0.10163848847150803,-0.031150294467806816,-0.1280064880847931,-0.09903446584939957,-0.17393828928470612,-0.014755372889339924,0.04352759197354317,-0.1239849328994751,-0.16433487832546234,0.11581531912088394,-0.008731437847018242,-0.166779562830925,0.14304526150226593,0.054866667836904526,-0.12975014746189117,-0.0288914255797863,-0.013045761734247208,0.13729849457740784,-0.03734482079744339,-0.05633891746401787,0.05054003372788429,0.15493744611740112,0.07669755071401596,-0.050273969769477844,0.08684556931257248,0.07501981407403946,-0.06753204017877579,-0.15076695382595062,-0.05499688908457756,-0.1801907867193222,-0.15545383095741272,-0.09288087487220764,-0.027717988938093185,-0.08856230974197388,0.1053331196308136,-0.07402747869491577,0.11974553018808365,-0.05226382240653038,-0.17386065423488617,0.13233646750450134,0.02073219045996666,-0.13743850588798523,-0.07976451516151428,-0.008069366216659546,0.007103756535798311,-0.1761220544576645,0.1871756911277771,-0.03791957348585129,-0.21639184653759003,-0.13217008113861084,0.07102492451667786,-0.22597992420196533,0.11420100927352905,-0.10955867916345596,0.03482820466160774,-0.1635815054178238,0.054833732545375824,-0.05201584845781326,0.03427257761359215,0.00222197687253356,0.014868752099573612,0.18350903689861298,0.0030603783670812845,0.17335636913776398,0.06144265457987785,0.11242454499006271,-0.12629757821559906,0.047474902123212814,0.034724291414022446,0.18277105689048767,0.16310985386371613,0.13173799216747284,0.12690219283103943,-0.05266481265425682,-0.1179225742816925,0.024192823097109795,0.042367011308670044,0.13869401812553406,0.11787976324558258,0.0355551652610302,0.023345671594142914,0.0776779055595398,-0.12651491165161133,0.06924819201231003,-0.11544334888458252,-0.09051880240440369,-0.05905628576874733,-0.09882920235395432,0.11718951910734177,0.1773812621831894,-0.19356051087379456,0.11518660932779312,0.10592014342546463,0.06806651502847672,-0.034357115626335144,-0.1556800901889801,0.041831012815237045,0.12525631487369537,-0.17951911687850952,-0.007249705959111452,-0.10266856104135513,0.0662289559841156,-0.027960175648331642,-0.11509513854980469,-0.1771148443222046,-0.004150022752583027,-0.0062290676869452,0.013703133910894394,-0.17065832018852234,-0.18801261484622955,0.02052600309252739,0.02164185233414173,0.17729833722114563,-0.13192811608314514,0.19512878358364105,-0.05142838880419731,-0.048726510256528854,-0.061350267380476,-0.013537446968257427,-0.1249893382191658,-0.1660667508840561,0.0855131670832634,0.12926848232746124,0.15255291759967804,0.12231726944446564,0.07479608058929443,0.029223822057247162,-0.0432695709168911,-0.1652268022298813,-0.1464872658252716,0.09380052238702774,-0.02187238447368145,0.06223878636956215,-0.16853681206703186,0.1639508605003357,-0.06999046355485916,-0.12223692983388901,-0.08563016355037689,-0.12364307045936584,0.07159505039453506,0.07008850574493408,-0.06592783331871033,0.07137443125247955,-0.15723130106925964,-0.14521357417106628,-0.08586923778057098,-0.1540665328502655,-0.09742427617311478,-0.022926202043890953,-0.08015231043100357,-0.043575938791036606,-0.01438944973051548,-0.026653219014406204,0.13016590476036072,0.17708627879619598,0.010026389732956886,-0.1975613832473755,-0.1694788634777069,0.008543615229427814,0.19410865008831024,0.01583399623632431,0.03342817351222038,0.08400505781173706,-0.005153237842023373,0.003773265751078725,0.12915270030498505,0.1297159343957901,-0.15279985964298248,-0.003508415073156357,-0.05331317335367203,-0.08898547291755676,0.0037585371173918247,-0.03500519320368767,0.08528835326433182,0.06404533982276917,-0.16807523369789124,0.030070645734667778,0.04756627604365349,-0.14705203473567963,0.02371903322637081,-0.17143751680850983,-0.008000282570719719],[0.1588601917028427,0.06253377348184586,-0.05533895269036293,0.01798431947827339,0.07045958191156387,-0.1274101734161377,0.07434426248073578,0.03477759659290314,0.16640637814998627,-0.03224491700530052,-0.17626821994781494,0.07878731936216354,0.04563909024000168,0.08444783836603165,-0.12120579928159714,-0.011164284311234951,0.05035967379808426,-0.00992767233401537,-0.11197920143604279,0.19792602956295013,0.01401769183576107,0.15864618122577667,0.022470325231552124,-0.13928602635860443,0.03859921544790268,0.13638269901275635,0.16617578268051147,0.06076496094465256,0.13128088414669037,0.06368550658226013,0.13662050664424896,-0.10746601969003677,-0.11909652501344681,-0.012678408995270729,0.030227309092879295,-0.07123890519142151,0.1555030196905136,0.025170648470520973,-0.15086540579795837,-0.10051868110895157,-0.1349601447582245,-0.07017433643341064,0.12962140142917633,0.0896366760134697,0.19108004868030548,0.0946144089102745,-0.019395211711525917,-0.01641845889389515,0.1121332198381424,0.03694921359419823,0.1201106384396553,0.1293308585882187,-0.04610040411353111,-0.10445482283830643,-0.10769084095954895,-0.04117606207728386,-0.007799526210874319,0.16032487154006958,-0.15680500864982605,0.15911173820495605,0.09053293615579605,-0.13155105710029602,0.05855758860707283,0.19830282032489777,0.03780551254749298,-0.08571114391088486,0.018387995660305023,-0.1867511123418808,0.047600362449884415,0.1945507526397705,0.016457941383123398,0.16092638671398163,-0.135530486702919,-0.09763986617326736,-0.008628731593489647,0.14795143902301788,-0.03688647225499153,0.1969551146030426,-0.11120935529470444,-0.05537809059023857,0.04270153120160103,-0.14795775711536407,0.12020842730998993,0.13548031449317932,-0.1607765257358551,-0.13135085999965668,0.11283497512340546,0.15582147240638733,0.043870434165000916,0.16470162570476532,0.18673239648342133,0.15615960955619812,-0.062478356063365936,0.15560384094715118,0.15736909210681915,0.05567771941423416,0.10321582108736038,0.17065857350826263,-0.06046152859926224,0.1291845440864563,0.1542242020368576,-0.03491102531552315,0.15163566172122955,0.18703123927116394,0.033543139696121216,-0.12394735217094421,0.1288948804140091,0.01967873051762581,-0.1293434500694275,0.0015362842241302133,0.11229094862937927,-0.06661567091941833,-0.15099593997001648,0.07584995776414871,0.07748866826295853,-0.08221324533224106,0.019403044134378433,0.038952067494392395,0.11464735120534897,-0.08657947182655334,-0.013645953498780727,-0.07389415800571442,-0.05468215420842171,-0.11975488811731339,0.13215991854667664,-0.03906852751970291,-0.151982843875885,0.10080273449420929,0.03556077927350998,0.16282238066196442,0.1600792557001114,0.14328640699386597,0.08291833847761154,0.08240822702646255,-0.058948393911123276,-0.13317608833312988,0.12325073778629303,-0.07398457825183868,0.1765710711479187,0.008440262638032436,0.019861888140439987,-0.07001885026693344,-0.018723025918006897,-0.15053609013557434,0.054461266845464706,-0.05844160169363022,0.0354638546705246,0.18083305656909943,0.058679576963186264,-0.20126107335090637,0.15951712429523468,0.1429349035024643,-0.10291904956102371,-0.049452926963567734,0.018860336393117905,-0.22392478585243225,0.1429082602262497,0.07324448972940445,-0.17513392865657806,-0.09445389360189438,0.06070563197135925,0.18529212474822998,-0.15357963740825653,0.1505451202392578,-0.11880908906459808,-0.18380369246006012,-0.1546633243560791,0.046401623636484146,0.06232519820332527,0.002758013317361474,0.1077202707529068,-0.09562133252620697,-0.17994017899036407,0.10810041427612305,-0.19111233949661255,0.16698920726776123,-0.0399366170167923,-0.17929689586162567,0.05968380346894264,-0.23666290938854218,-0.03875408694148064,-0.23936060070991516,0.012415412813425064,0.07458952069282532,0.03291383385658264,-0.19231925904750824,-0.01800534501671791,-0.22625622153282166,0.14637908339500427,0.13826651871204376,-0.07792741060256958,0.03459830954670906,-0.1942186951637268,0.1620377004146576,-0.06371285021305084,0.006296051666140556,0.02906862460076809,-0.13858141005039215,0.13795636594295502,-0.003682962851598859,0.06051424518227577,0.18669001758098602,0.13376130163669586,0.1552504003047943,0.022426361218094826,-0.13510598242282867,0.04874075576663017,0.04371468350291252,0.004043871071189642,-0.24335144460201263,0.05750912427902222,-0.12823960185050964,0.10697124153375626,-0.1874944120645523,-0.16460971534252167,-0.012867938727140427,-0.027810709550976753,-0.10844939947128296,0.1444418728351593,-0.006893882527947426,-0.11813955008983612,-0.09885910898447037,0.0018332088366150856,0.08182286471128464,-0.008234820328652859,-0.05844459310173988,-0.12348043918609619,-0.11143177002668381,-0.05065857991576195,0.14367760717868805,-0.060710977762937546,0.017067035660147667,0.08591334521770477,0.1292392760515213,0.12634722888469696,-0.045438140630722046,-0.12062539160251617,-0.0977289155125618,-0.015232195146381855,-0.21262158453464508,-0.0389116033911705,0.01773594692349434,-0.11957109719514847,0.07103069871664047,0.11007140576839447,-0.0565609335899353,-0.015832027420401573,0.16157828271389008,-0.16338104009628296,-0.17944559454917908,-0.09645619243383408,0.1605270504951477,-0.04602472484111786,0.07544100284576416,-0.034590594470500946,0.10925477743148804,0.019482875242829323,-0.09157674759626389,-0.197748064994812,0.0779302567243576,-0.08814378827810287,0.049307312816381454,0.10839512944221497,-0.16490109264850616,0.028926901519298553,-0.026002394035458565,-0.08916635066270828,0.07741183787584305,-0.21509625017642975,0.04867221415042877,0.026126820594072342,-0.045247048139572144,-0.010151971131563187,-0.17689956724643707,0.043306391686201096,-0.05908656120300293,0.009244946762919426,0.0668151006102562,-0.09138838946819305,0.1849120706319809,0.07357075065374374,0.032915640622377396,0.1862114667892456,-0.062272246927022934,0.0033946700859814882,0.057018741965293884,-0.19431652128696442,-0.19258880615234375,-0.055271297693252563,-0.16104134917259216,0.13332636654376984,0.12178177386522293,-0.17323222756385803,-0.10908425599336624,0.0840747281908989,0.023320447653532028,0.003868127940222621,0.12912681698799133,-0.16512803733348846,-0.011595859192311764,-0.21591517329216003,-0.10966090112924576,0.0306561216711998,0.029922226443886757,0.0410405732691288,-0.03155595064163208,-0.02169034816324711,-0.045070841908454895,0.14001159369945526,0.03819850832223892,0.10470137745141983,-0.17431282997131348,-0.18419025838375092,-0.12931057810783386,-0.13196757435798645,0.18290212750434875,0.05548754706978798,-0.00754135986790061,-0.009267807938158512,0.05930991470813751,-0.10794467478990555,-0.05714039504528046,-0.07866620272397995,-0.20402540266513824,0.09650716185569763,0.1668514758348465,-0.20841389894485474,0.049445703625679016,-0.1246267780661583,0.09011390805244446,0.06470638513565063,0.05861544609069824,-0.10639487206935883,-0.15113532543182373,-0.11430637538433075,0.10448555648326874,0.18253079056739807,-0.1445479840040207,0.04161515831947327,-0.14679184556007385,0.018589556217193604,-0.015296148136258125,-0.0683944821357727,0.0328235998749733,0.14274464547634125,0.036845386028289795,-0.2640707492828369,-0.09104358404874802,-0.132715106010437,-0.04974200576543808,-0.07971757650375366,0.05093991756439209,0.12630270421504974,-0.055579401552677155,-0.079935722053051,-0.0033251135610044003,-0.06785345822572708,0.05974529683589935,0.040549136698246,0.06474422663450241,0.05214393138885498,-0.11964493989944458,-0.0010157620999962091,-0.1545255482196808,-0.010328955017030239,-0.1722070425748825,0.13966824114322662,-0.17317047715187073,0.13609078526496887,0.15675827860832214,0.057088859379291534,0.012976589612662792,-0.061311833560466766,-0.24255426228046417,0.12368062883615494,0.016469525173306465,0.0228743776679039,-0.07592491805553436,0.15912462770938873,0.12334511429071426,-0.16948379576206207,-0.015952743589878082,-0.02972705289721489,-0.13461409509181976,-0.19432923197746277,-0.06726768612861633,-0.07370469719171524,0.008536724373698235,-0.0916416123509407,-0.028238939121365547,0.1837427020072937,-0.10352388769388199,0.1769571453332901,-0.1261330246925354,0.17287807166576385,-0.09453960508108139,0.19410552084445953,0.16665862500667572,0.14875741302967072,-0.20657071471214294,-0.187495619058609,-0.1731148660182953,-0.2139672189950943,0.15106718242168427,0.03202950581908226,-0.24683262407779694,0.05449921637773514,0.06370741873979568,0.10473140329122543,-0.01928633451461792,-0.08732468634843826,-0.16996745765209198,-0.12075693160295486,0.14788101613521576,0.15551768243312836,0.19348695874214172,0.0971379429101944,-0.05058908089995384,0.0731562077999115,0.05114571005105972,-0.056289467960596085,0.12195349484682083,-0.026067331433296204,-0.06673845648765564,-0.17526713013648987,0.04958559572696686,-0.19018924236297607,0.11837346851825714,0.01220341119915247,0.09743670374155045,-0.19931451976299286,-0.05899151787161827,0.024961456656455994,-0.23483771085739136,-0.166359081864357,0.0899762436747551,-0.009374269284307957,-0.0722527951002121,-0.1291520744562149,0.11857317388057709,-0.15773829817771912,0.05162610486149788,-0.1190573051571846,0.012923046946525574,0.028362035751342773,0.17112776637077332,-0.10976342856884003,0.0454929955303669,0.19492709636688232,-0.07852796465158463,0.07836756110191345,-0.09455373883247375,-0.0362049825489521,-0.13737550377845764,0.1642916053533554,-0.21829774975776672,-0.15699568390846252,0.0778563916683197,0.12108372151851654,-0.054724905639886856,0.07266484946012497,0.023457562550902367,0.12487179040908813,-0.04672864079475403,-0.1429276466369629,-0.18105080723762512,-0.22349192202091217,-0.02003123238682747,-0.12726864218711853,0.10362251102924347,-0.06390196084976196,0.18514172732830048,-0.011307661421597004,-0.1037563905119896,0.17148783802986145,0.08956577628850937,0.1548304408788681,-0.046846047043800354,-0.06546607613563538,-0.14736813306808472,0.05158504843711853,0.02632042020559311,0.06797247380018234,-0.19790540635585785,-0.10116873681545258,0.12565645575523376,-0.14794054627418518,0.10535339266061783,0.03634655475616455,0.08365188539028168,-0.10648583620786667,0.07676824927330017,-0.07557793706655502,0.010563595220446587,-0.014499226585030556,-0.024761419743299484,0.0038591469638049603,-0.044436343014240265,0.08098729699850082,-0.1324695199728012,-0.18289686739444733,-0.023816997185349464,-0.019494464620947838,-0.16643786430358887,-0.07364826649427414,-0.08850887417793274,-0.17289310693740845,0.017261743545532227,-0.0513928197324276,-0.21084456145763397,0.12180367112159729,0.11881861090660095,-0.10799896717071533,-0.18748442828655243,0.012903641909360886,-0.07392279803752899,0.13360849022865295,0.06476382166147232,0.0605824738740921,-0.16637453436851501,0.1326441764831543,-0.14016900956630707,-0.05268626660108566,-0.188291996717453,0.09935688227415085,-0.13989754021167755,0.00394446961581707,0.06796114146709442,0.102948859333992,-0.1324416995048523,-0.19461844861507416,0.12551598250865936,0.042507756501436234,0.14782394468784332,0.034418243914842606,-0.08479057252407074,0.17350618541240692,-0.15121059119701385,-0.011470142751932144,0.02536911703646183,-0.1861460953950882,-0.22716124355793,0.1094372421503067,-0.15967635810375214,0.02996654622256756,0.04025588184595108,-0.19454704225063324,0.09389062970876694,0.005520942155271769,-0.2558206617832184,0.10910134762525558,0.12512809038162231,0.07877922803163528,-0.18148092925548553,0.05071885883808136,0.11260103434324265,-0.08249697834253311,-0.15521347522735596,0.06681255996227264,-0.19716259837150574,0.019960744306445122,-0.09632116556167603,-0.17622219026088715,0.019040776416659355,0.0032155972439795732,0.1548663228750229,-0.005872062407433987,0.07104822248220444,0.0200917050242424,-0.03878309950232506,-0.21325692534446716,0.061967842280864716,-0.20233121514320374,-0.06663493812084198,-0.1794642210006714,0.059193313121795654,0.033574968576431274,-0.17268706858158112,-0.14954742789268494,0.14268600940704346,0.15836668014526367,-0.17317356169223785,0.1514131724834442,0.16906332969665527,-0.04939667135477066,0.08215749263763428,-0.1362268179655075,-0.15361669659614563,-0.04981497302651405,0.1360834389925003,0.08828049898147583,0.050062913447618484,0.09783578664064407,0.009147818200290203,-0.03742942214012146,-0.12844567000865936,0.03861461579799652,-0.17605067789554596,-0.03229302540421486,0.11225423216819763,-0.08602871745824814,0.09766100347042084,0.09694437682628632,-0.2009822428226471,-0.08786579966545105,0.021331893280148506,0.1005437895655632,-0.07887174934148788,0.12581871449947357,0.14141179621219635,0.16159839928150177,-0.10784585773944855,0.0615973025560379,0.13316930830478668,-0.08900392055511475,-0.09635797142982483,0.14266586303710938,0.040036391466856,-0.016410833224654198,-0.08133982121944427,-0.1945922076702118,-0.15838468074798584,0.1911967545747757,-0.05529435724020004,-0.13896283507347107,-0.15072403848171234,-0.09365284442901611,0.03495731204748154,0.0802030861377716,0.1158934012055397,0.052247967571020126,-0.0897059440612793,-0.08297758549451828,-0.019531050696969032,0.0822606086730957,0.1546429842710495,-0.1582605540752411,0.14292563498020172,0.1635412573814392,-0.026604063808918,-0.08336320519447327,0.1593814492225647,0.049416713416576385,0.07659691572189331,-0.12099818885326385,-0.14929276704788208,-0.15251575410366058,-0.16154657304286957,-0.009189060889184475,0.16878949105739594,-0.02740078791975975,0.1928873211145401,-0.1825082153081894,0.08829879760742188,-0.1449141651391983,-0.13368023931980133,0.029530491679906845,0.0604635551571846,-0.20819725096225739,-0.2444075644016266,0.1092725619673729,-0.09858909249305725,-0.09008702635765076,-0.18715788424015045,-0.07851827144622803,-0.16033998131752014,-0.15045078098773956,0.11041141301393509,-0.18097487092018127,0.12645640969276428,-0.185668483376503,-0.00087687250925228,-0.11705473810434341,-0.19359296560287476,0.15175184607505798,-0.13426104187965393,0.07008678466081619,0.01164976879954338,0.04504573345184326,-0.024278083816170692,-0.17562508583068848,-0.15066400170326233,-0.009727511554956436,-0.027919884771108627,0.034032855182886124,-0.13391168415546417,-0.1377749890089035,-0.09864659607410431,0.1744994968175888,0.0647096037864685,0.1949208378791809,-0.10329601168632507,0.05602612346410751,0.04525710269808769,-0.17912468314170837,-0.07031380385160446,0.16819769144058228,0.11963751167058945,-0.04644540324807167,0.05619626119732857,0.003039419651031494,-0.02808731608092785,-0.14849306643009186,-0.08978352695703506,0.12115824967622757,0.08079956471920013,-0.08743289113044739,-0.164077028632164,0.18611332774162292,0.1680382639169693,-0.020424462854862213,0.0886780321598053,0.083245649933815,-0.12663421034812927,-0.18686464428901672,-0.1872042864561081,0.10452967137098312,-0.018748190253973007,0.1832159459590912,-0.18752725422382355,-0.005808380898088217,-0.168326735496521,-0.0333939865231514,-0.16501197218894958,0.10569895803928375,0.10637493431568146,-0.19632601737976074,-0.07007476687431335,0.0558742992579937,-0.14017440378665924,0.1477099061012268,0.18912915885448456,0.058174729347229004,-0.10738272964954376,0.19716432690620422,-0.16936859488487244,-0.19181302189826965,0.09230431169271469,0.04671845957636833,0.07695772498846054,0.04538983851671219,0.07303642481565475,0.20093278586864471,0.07475617527961731,0.18231895565986633,0.0454346239566803,-0.17314335703849792,0.10524691641330719,0.17781808972358704,-0.15427857637405396,0.14002496004104614,-0.17399592697620392,-0.11634989082813263,-0.15930579602718353,-0.02138851396739483,-0.15500667691230774,-0.1338079273700714,0.14353294670581818,0.13995924592018127,-0.0012435202952474356,0.10732585936784744,0.15136010944843292,0.06206391006708145,0.08280862122774124,-0.019479449838399887,0.14362961053848267,-0.10607141256332397,-0.07316677272319794,0.19082486629486084,-0.16990001499652863,0.025851372629404068,-0.005091298371553421,-0.03176412731409073,-0.012816191650927067,0.02383972704410553,-0.005357556976377964,0.04793720319867134,-0.045207858085632324,0.1851245015859604,-0.06428815424442291,-0.1870405375957489,-0.11057832837104797,0.1061156690120697,0.08143898844718933],[0.047595638781785965,-0.0005864936974830925,-0.1522786170244217,-0.010478777810931206,-0.14928510785102844,0.18354342877864838,0.17309027910232544,-0.16786989569664001,-0.013202259317040443,0.08002495020627975,0.13542233407497406,-0.09697136282920837,0.1396377682685852,-0.09119148552417755,0.14994293451309204,0.051271308213472366,0.08995212614536285,-0.13406071066856384,0.013995318673551083,-0.022544965147972107,-0.04436904937028885,-0.09237325936555862,-0.12366818636655807,0.022957848384976387,-0.014805232174694538,-0.015820667147636414,0.16421914100646973,-0.09675303101539612,0.039564426988363266,0.03801070526242256,0.10390952974557877,-0.04434622824192047,0.057367563247680664,0.0660778284072876,-0.08384907990694046,0.016929663717746735,0.06591001898050308,-0.18145914375782013,-0.04361564666032791,0.05380619689822197,-0.18370723724365234,0.17619919776916504,0.022583240643143654,-0.16261838376522064,0.027778713032603264,0.04513197019696236,0.1469172239303589,0.007705786265432835,-0.12613363564014435,0.19809100031852722,0.15179887413978577,-0.10269789397716522,0.10850010067224503,-0.013772604987025261,-0.11127202212810516,-0.09605035185813904,0.14999520778656006,-0.19108335673809052,-0.19527846574783325,0.09422224760055542,-0.08594708889722824,-0.040804747492074966,0.04093952849507332,-0.19564296305179596,-0.08353086560964584,-0.15991906821727753,-0.08619379997253418,-0.03736587241292,-0.1007876768708229,-0.15426458418369293,-0.0037352063227444887,-0.15507157146930695,0.160827174782753,0.013962174765765667,-0.1334165781736374,0.0693972110748291,0.05318109691143036,-0.009616550989449024,0.06748971343040466,-0.1125163659453392,-0.05361052602529526,0.1497451215982437,-0.04306679219007492,0.0974002406001091,-0.013613478280603886,-0.10458741337060928,-0.11765453964471817,0.11936920881271362,-0.17318230867385864,-0.06901098042726517,-0.08307058364152908,0.18864399194717407,0.15564455091953278,-0.06396484375,0.030793681740760803,0.02040589042007923,-0.0803985521197319,-0.11149630695581436,-0.13470841944217682,-0.15610650181770325,-0.19351118803024292,-0.015812711790204048,0.0709439367055893,-0.06529843807220459,-0.08289895206689835,0.15796782076358795,-0.17600107192993164,0.0015263294335454702,0.1604909896850586,0.015446603298187256,-0.04792778566479683,0.06757136434316635,-0.06466290354728699,-0.13170428574085236,-0.105196513235569,-0.06281723082065582,-0.05188124254345894,0.03924954682588577,-0.12552933394908905,-0.23446720838546753,-0.06793088465929031,0.22328512370586395,0.07652371376752853,0.12755464017391205,-0.05107831954956055,-0.09879603981971741,-0.10431459546089172,-0.15316739678382874,0.10546599328517914,-0.281292587518692,0.02369481511414051,-0.10849333554506302,0.06270384788513184,0.017252597957849503,0.09141992032527924,0.10570789873600006,-0.09864364564418793,0.02689584344625473,0.06085347384214401,0.0035018303897231817,-0.13036656379699707,-0.11222764849662781,0.024892693385481834,-0.04942093789577484,-0.0059646060690283775,-0.21970391273498535,-0.003244341816753149,-0.11165347695350647,0.006418267730623484,0.1129009872674942,-0.08586466312408447,0.005471129436045885,-0.14912305772304535,-0.14899331331253052,0.13624991476535797,0.2732365131378174,0.14742796123027802,-0.27642539143562317,0.049767374992370605,0.24647125601768494,0.15266327559947968,-0.16195301711559296,0.0890413448214531,0.09097962826490402,0.12473594397306442,0.08158045262098312,-0.12303338199853897,0.031743068248033524,-0.1160423755645752,0.08282479643821716,0.001415681908838451,0.03483821824193001,-0.14274461567401886,0.05648360401391983,0.09667468816041946,0.04641403257846832,0.21501675248146057,-0.07865019142627716,-0.06305206567049026,-0.04762095585465431,0.17551739513874054,0.060004789382219315,0.27465054392814636,0.12849971652030945,-0.01091146469116211,-0.16882461309432983,-0.14274966716766357,-0.016272570937871933,-0.07287261635065079,-0.08814987540245056,0.11218118667602539,-0.0015956154093146324,-0.16112445294857025,-0.16848912835121155,0.007323052734136581,-0.1753140091896057,-0.18007108569145203,0.18654172122478485,0.16792239248752594,0.09424728155136108,0.0070863282307982445,0.15106497704982758,0.007749053183943033,0.1781867891550064,0.01011169608682394,0.06402245163917542,0.15462587773799896,-0.06033816561102867,0.06666042655706406,0.23723043501377106,0.25130102038383484,0.05213342607021332,0.04986673593521118,0.012363659217953682,0.03457796201109886,-0.28654536604881287,0.1527387499809265,0.07426914572715759,0.029981909319758415,0.16103458404541016,-0.02112242951989174,-0.11632891744375229,0.009936037473380566,0.15362130105495453,0.19417674839496613,-0.08940993249416351,-0.020184488967061043,0.10398754477500916,-0.19831174612045288,0.007826010696589947,0.03688425198197365,-0.09272748231887817,0.04126717895269394,0.07271300256252289,-0.02754846401512623,0.04872644692659378,-0.2731310725212097,0.02800813689827919,0.12299748510122299,0.12709620594978333,-0.20231254398822784,-0.3968399167060852,-0.2493327558040619,-0.1414007991552353,-0.2851811945438385,0.16107048094272614,-0.006453727371990681,0.20265014469623566,-0.1272759884595871,-0.21736952662467957,-0.23009148240089417,0.17259186506271362,-0.17460793256759644,0.08304937928915024,0.0613623782992363,-0.022748125717043877,-0.15902523696422577,-0.09212584048509598,-0.34782326221466064,-0.23092173039913177,-0.238877072930336,-0.17126359045505524,-0.2358381301164627,-0.0859600305557251,-0.22136090695858002,0.1047365590929985,-0.01988164894282818,0.23023854196071625,0.050193849951028824,-0.22659002244472504,-0.22342735528945923,-0.22453665733337402,0.09226608276367188,0.057784054428339005,-0.11249672621488571,0.010111063718795776,0.10705564171075821,0.08735373616218567,0.07543796300888062,-0.06337405741214752,-0.17901724576950073,0.06944701820611954,-0.07560130953788757,-0.08461441844701767,-0.09703613072633743,0.07041315734386444,-0.23683759570121765,0.0009155090665444732,-0.22107785940170288,-0.34288543462753296,-0.21268483996391296,0.03572582080960274,0.13937225937843323,0.05201396346092224,-0.0751401036977768,-0.009403656236827374,-0.12868930399417877,-0.17801958322525024,-0.27095887064933777,-0.077628493309021,0.0034136127214878798,0.1662490963935852,0.19757872819900513,0.2556340992450714,-0.1324397772550583,-0.05817139893770218,0.1570539027452469,0.02501961775124073,0.17682988941669464,0.1971651315689087,0.04057765007019043,0.051782816648483276,0.1595151722431183,0.1066800132393837,-0.176194965839386,-0.31334757804870605,-0.18173377215862274,0.06721667945384979,-0.17504875361919403,0.10643459111452103,0.08102203905582428,0.1615746170282364,0.09590478986501694,0.06652174890041351,-0.2792333960533142,-0.24046146869659424,-0.18131884932518005,0.049764856696128845,0.1277667135000229,0.2066768854856491,0.03144194930791855,-0.01580575667321682,-0.009272280149161816,-0.21859797835350037,0.12826554477214813,0.04439324140548706,-0.10674655437469482,-0.004846376832574606,-0.16696380078792572,0.1838429868221283,-0.13234177231788635,-0.18001917004585266,-0.04370063915848732,0.13873733580112457,-0.10138809680938721,0.12437864392995834,0.0870475172996521,0.4230223596096039,0.3397601842880249,0.2922830581665039,-0.053568270057439804,0.10148096829652786,0.24132248759269714,-0.19145819544792175,-0.3105435073375702,-0.07252668589353561,0.11878655850887299,-0.18882162868976593,-0.20037993788719177,0.022076888009905815,0.11419837921857834,0.13932965695858002,0.0048726024106144905,0.12621520459651947,0.16587552428245544,0.04965360835194588,-0.16356013715267181,-0.047566354274749756,0.05412519723176956,0.07674488425254822,0.07056888192892075,0.18467730283737183,0.1751689314842224,0.2001965194940567,0.08742173761129379,0.15744133293628693,0.08543222397565842,-0.0023498053196817636,-0.005350538995116949,0.2137945145368576,0.13314232230186462,0.11523903161287308,-0.08219446986913681,-0.09604336321353912,-0.018976330757141113,-0.10884340107440948,0.2143552452325821,-0.1097559779882431,0.10058049112558365,0.16467399895191193,-0.056771401315927505,0.09959349781274796,-0.14959265291690826,0.1496354639530182,0.10292207449674606,-0.17750237882137299,0.09467096626758575,-0.0012351213954389095,-0.06892265379428864,0.0009080857853405178,0.22947047650814056,0.04637971147894859,0.24754922091960907,0.2292957305908203,-0.0942382887005806,0.23147647082805634,0.08443471789360046,-0.04917433485388756,-0.06497389823198318,-0.2055664211511612,-0.2298898547887802,0.0652189776301384,0.24238885939121246,0.17145207524299622,0.1375177949666977,-0.03854513540863991,-0.015907377004623413,-0.05993473529815674,0.06876525282859802,0.04572831839323044,0.14369063079357147,0.12527091801166534,-0.0687793642282486,-0.04998882859945297,-0.0503707118332386,0.17571720480918884,0.07122661918401718,0.07010115683078766,0.2328755110502243,0.13977189362049103,0.19423988461494446,0.03468918427824974,0.17891709506511688,0.16889545321464539,0.07744032889604568,0.13271448016166687,0.02043522335588932,-0.15523682534694672,-0.13964509963989258,-0.10350634157657623,0.002987306797876954,0.0021802715491503477,-0.08303982764482498,-0.1353129744529724,0.11804898828268051,0.019045453518629074,-0.02821834571659565,0.11078271269798279,-0.12769077718257904,-0.17927932739257812,-0.006528381258249283,-0.17849253118038177,0.10242216289043427,-0.014487819746136665,0.10142502933740616,0.25441181659698486,0.09802046418190002,-0.0605352483689785,-0.029330391436815262,-0.19570349156856537,0.147750586271286,0.08305317908525467,-0.029011663049459457,-0.013829597271978855,-0.1746741533279419,-0.28802490234375,0.09622085094451904,0.12894171476364136,-0.02521294541656971,0.16107799112796783,0.03032265044748783,0.017627697438001633,-0.05056842416524887,0.03602086007595062,0.050082869827747345,0.03526885434985161,-0.09016335755586624,0.15429750084877014,0.13127227127552032,-0.02101263962686062,0.09812228381633759,0.08584298193454742,-0.014210738241672516,-0.0020667121279984713,-0.012996837496757507,-0.21909072995185852,-0.13710640370845795,-0.09080676734447479,0.0446138009428978,-0.00975032988935709,-0.07049563527107239,0.1098925918340683,-0.09151418507099152,0.06632887572050095,-0.11404242366552353,-0.22712326049804688,0.09113069623708725,0.05464637279510498,0.10248749703168869,0.14556041359901428,-0.164226233959198,-0.046129852533340454,0.1343041956424713,-0.08430872857570648,-0.020241595804691315,-0.17195533215999603,0.008909745141863823,0.1764259785413742,0.10729693621397018,-0.11523592472076416,-0.04495923966169357,-0.16300681233406067,-0.17509213089942932,0.0790238305926323,0.024603817611932755,-0.14874935150146484,-0.19437269866466522,-0.14402219653129578,-0.25460395216941833,-0.15423326194286346,-0.192653626203537,-0.06644634157419205,-0.2112669050693512,-0.04678735136985779,-0.1757393628358841,-0.14224392175674438,-0.2024049311876297,0.10540112853050232,-0.03453554958105087,0.061471059918403625,-0.03874368593096733,0.10888152569532394,0.11163575202226639,0.11965807527303696,0.07650183141231537,-0.14767912030220032,0.01807684637606144,0.1860995590686798,0.08700202405452728,0.10319862514734268,-0.008455033414065838,-0.20736455917358398,-0.15596303343772888,-0.27620929479599,-0.17967632412910461,-0.3052201569080353,-0.033649004995822906,0.03157848119735718,-0.33339792490005493,-0.34593358635902405,-0.030122291296720505,-0.29556339979171753,0.05460572987794876,0.10432438552379608,0.056963685899972916,0.02758198231458664,-0.13556399941444397,-0.1722869873046875,-0.0718800276517868,0.07772879302501678,-0.08385355025529861,-0.06945182383060455,0.18288739025592804,0.1389586478471756,-0.07330644130706787,0.1558159440755844,-0.08866617828607559,0.008368263021111488,-0.17083901166915894,-0.13054484128952026,-0.2904633581638336,-0.4030548930168152,0.04659124091267586,-0.24556751549243927,-0.14300116896629333,-0.02047663740813732,-0.2663550078868866,-0.17604544758796692,-0.1850138008594513,-0.2385021299123764,-0.00916743092238903,-0.16446909308433533,0.04591180384159088,0.14029358327388763,-0.15928252041339874,0.12030517309904099,0.19907529652118683,0.19444169104099274,0.01281139999628067,0.09113363176584244,-0.19030363857746124,-0.047185275703668594,0.2249656319618225,0.09194742888212204,-0.25072571635246277,-0.23633511364459991,-0.05961146578192711,-0.061093516647815704,-0.095949687063694,-0.06798935681581497,0.0675436481833458,0.016390223056077957,0.0024805478751659393,0.09344275295734406,-0.05719796568155289,-0.20800457894802094,0.07398415356874466,-0.13789145648479462,-0.07121910899877548,0.24056532979011536,0.13486571609973907,0.009444032795727253,-0.13414731621742249,0.12353486567735672,-0.032777294516563416,0.17117707431316376,0.111567422747612,0.04463452473282814,-0.13490550220012665,0.03747090697288513,-0.04894578084349632,0.09913734346628189,-0.0593804232776165,-0.1582757532596588,-0.11281917244195938,-0.02403387241065502,0.12498841434717178,-0.05238226801156998,-0.0958588495850563,0.06773538142442703,0.04745211824774742,0.02961750142276287,-0.07272440195083618,0.04757153242826462,-0.0795757994055748,0.14621104300022125,0.05971737205982208,0.10192367434501648,0.04161912202835083,0.09273741394281387,0.17374032735824585,-0.20198191702365875,0.17616242170333862,-0.11635719239711761,-0.06098944693803787,-0.16810938715934753,0.12403268367052078,-0.12278769910335541,0.06995496898889542,0.07803881913423538,0.10935067385435104,0.17395682632923126,-0.24240101873874664,0.0422179251909256,-0.033175479620695114,-0.12704120576381683,-0.11452947556972504,0.30026036500930786,0.008457785472273827,0.2526412010192871,0.26897576451301575,-0.013593950308859348,-0.11370467394590378,-0.019690219312906265,-0.17789769172668457,0.11272218823432922,-0.05133616924285889,0.16696923971176147,-0.0011986151803284883,0.12339207530021667,-0.1519453227519989,-0.021747462451457977,-0.056395042687654495,-0.19952696561813354,0.037139881402254105,0.14310796558856964,-0.07764921337366104,-0.13535121083259583,-0.11212108284235,-0.1456756293773651,0.11740531027317047,0.17811568081378937,-0.12506866455078125,-0.08456350862979889,-0.0771460011601448,0.13067027926445007,-0.06820408999919891,0.18766649067401886,0.18647590279579163,0.09939581900835037,-0.056263722479343414,0.08074479550123215,0.05945154279470444,0.1313040554523468,-0.060353368520736694,-0.027016200125217438,0.11310833692550659,0.0975901186466217,0.12836092710494995,-0.055753983557224274,-0.11530953645706177,-0.13311566412448883,0.11504287272691727,0.13351216912269592,0.13355514407157898,0.1846887171268463,-0.06096101924777031,-0.10815460979938507,-0.11999188363552094,0.26442617177963257,0.06211063265800476,-0.03873567283153534,-0.22988305985927582,-0.05284303054213524,0.04716729000210762,-0.2131882905960083,-0.19323676824569702,-0.2889695167541504,0.1407586932182312,-0.1778530329465866,0.16021506488323212,0.01944652758538723,0.17465287446975708,0.056303054094314575,-0.1663472056388855,-0.07099299877882004,0.0965784564614296,-0.022543925791978836,-0.09441211074590683,-0.17906907200813293,-0.15031374990940094,-0.07285799086093903,-0.15264232456684113,0.0508810393512249,-0.1969495266675949,0.19502365589141846,-0.08074596524238586,-0.1485094279050827,-0.1703275591135025,0.03945677727460861,-0.0797414630651474,-0.08986949920654297,-0.13732552528381348,-0.06260354816913605,0.014342221431434155,-0.18828634917736053,-0.044210463762283325,0.050123054534196854,0.06866645067930222,0.031988319009542465,-0.10404115915298462,0.015713371336460114,0.14113928377628326,-0.06771659851074219,0.12202940881252289,-0.11089097708463669,-0.15704579651355743,-0.1023089811205864,0.14769963920116425,-0.13914939761161804,0.02929198369383812,-0.12328741699457169,0.0586031936109066,0.07197459042072296,0.008332245983183384,0.14300253987312317,0.11556527018547058,0.15701034665107727,-0.08221039175987244,0.0062371850945055485,0.07172367721796036,0.1802588850259781,-0.006106879562139511,-0.19428426027297974,-0.10159916430711746,0.07538957893848419,-0.010474169626832008,0.004586472641676664,-0.17106671631336212,0.12251431494951248,0.15568867325782776,-0.037068307399749756,0.02726002223789692,0.05283285677433014],[-0.15496458113193512,0.11334178596735,0.08635503798723221,0.08018168807029724,0.1877664029598236,0.1066850945353508,0.12245726585388184,0.1904258280992508,-0.11670331656932831,-0.054770298302173615,-0.07792171835899353,0.1296815276145935,0.022265151143074036,0.07658863067626953,-0.06069929897785187,-0.05039283260703087,-0.14067667722702026,-0.17693255841732025,0.08190620690584183,-0.020319662988185883,0.04758617281913757,-0.09690844267606735,0.07673728466033936,-0.06129099428653717,0.12100876867771149,-0.09991946816444397,0.15622350573539734,-0.006768615450710058,0.026129676029086113,-0.1253509670495987,0.08176793903112411,0.11763369292020798,-0.06088699400424957,0.09884721040725708,-0.003946973476558924,0.05761586129665375,-0.12557977437973022,-0.0841982364654541,-0.02804008312523365,0.08436384797096252,-0.17805972695350647,0.0952690914273262,0.0187789686024189,0.0832248106598854,-0.14354901015758514,0.10576006770133972,0.08229342848062515,-0.010477634146809578,0.11258620023727417,0.08724202960729599,-0.07436060160398483,0.039856504648923874,0.15606175363063812,0.07114443182945251,-0.01914280652999878,0.12876085937023163,0.08899074047803879,-0.06747444719076157,0.1579056829214096,-0.16614343225955963,0.17320895195007324,0.163518488407135,-0.19794468581676483,-0.007083733566105366,-0.13485421240329742,0.09974212199449539,0.07714007794857025,-0.07526853680610657,-0.10070803761482239,0.11270125955343246,-0.10710800439119339,-0.049337804317474365,0.08379870653152466,0.14927057921886444,0.05385329946875572,0.17885375022888184,-0.11947619915008545,0.1446497142314911,0.12430065870285034,0.09714607149362564,0.12592194974422455,0.12577365338802338,0.006673742085695267,-0.1597040444612503,0.1565815657377243,0.12002211809158325,-0.1721152663230896,0.007829634472727776,0.03364579752087593,-0.004804251715540886,0.17743857204914093,-0.025606704875826836,0.029881132766604424,0.13702064752578735,-0.03295566886663437,0.015511260367929935,0.1941242516040802,0.11533193290233612,0.0067009031772613525,-0.049511343240737915,-0.19626443088054657,-0.025656437501311302,0.1748075634241104,-0.06395304203033447,-0.11038009822368622,0.05813782289624214,-0.1670345962047577,0.08442823588848114,0.05213703587651253,0.10305257141590118,-0.13999302685260773,0.03851792961359024,0.12314822524785995,-0.017911380156874657,0.16975174844264984,-0.02425880916416645,-0.18470793962478638,0.14438021183013916,0.14605551958084106,-0.17578713595867157,-0.007507126312702894,-0.1998978853225708,0.15149745345115662,-0.13429614901542664,-0.14609575271606445,-0.1073000356554985,0.038447536528110504,0.002203825395554304,-0.14281469583511353,-0.2101171314716339,-0.12516185641288757,0.03372487425804138,-0.156511127948761,-0.19540606439113617,-0.15657612681388855,0.1697867065668106,0.193619504570961,-0.03623993694782257,0.09182830154895782,-0.036445774137973785,-0.12558522820472717,0.18056720495224,0.028242411091923714,-0.1792631447315216,-0.08322650194168091,-0.0070518143475055695,0.045537251979112625,-0.03625448793172836,0.13162097334861755,0.14447809755802155,-0.097669318318367,-0.07952865213155746,0.09061416238546371,-0.16803103685379028,-0.08209428191184998,-0.16105130314826965,0.09499414265155792,0.03029901720583439,0.17945919930934906,0.05316536873579025,0.11356263607740402,-0.026027265936136246,0.050565581768751144,