{"type":"NeuralNetwork","sizes":[784,200,1],"layers":[{"weights":[],"biases":[]},{"weights":[[0.025333089753985405,0.19799542427062988,-0.0315948948264122,0.14703552424907684,-0.11292679607868195,0.11026249825954437,-0.020894408226013184,0.1449962854385376,0.007966526784002781,0.05761599540710449,-0.19713978469371796,-0.027540216222405434,-0.09921921789646149,0.138722226023674,0.11405292898416519,0.17488841712474823,-0.007171041332185268,0.013653473928570747,-0.14406977593898773,0.009373960085213184,-0.1930238902568817,-0.03962536156177521,-0.1663816273212433,0.16524027287960052,-0.0760534405708313,0.1966860443353653,-0.15838871896266937,0.045516371726989746,-0.15198275446891785,0.08652941137552261,-0.10727012157440186,-0.052529819309711456,-0.13241170346736908,-0.036359161138534546,0.11460597068071365,-0.11274544894695282,0.20268264412879944,-0.07608994841575623,0.19291618466377258,-0.013909803703427315,0.1835310459136963,0.10709556192159653,-0.021839803084731102,-0.08013366907835007,-0.04577585682272911,-0.01134222000837326,0.10053092241287231,-0.08727692067623138,0.06441934406757355,0.1045311987400055,-0.17340457439422607,0.023360079154372215,0.05991760268807411,0.07715890556573868,-0.13359621167182922,-0.03433099016547203,0.036897048354148865,0.14168524742126465,-0.15011604130268097,-0.0057673584669828415,0.15254580974578857,-0.0192424189299345,0.028234802186489105,-0.10352553427219391,0.19175328314304352,-0.004187454469501972,0.0727432444691658,-0.011635211296379566,0.11896709352731705,-0.16035693883895874,0.11836332082748413,-0.1508694887161255,0.14590047299861908,-0.14765511453151703,0.16761793196201324,-0.03334808722138405,0.029668517410755157,-0.14077962934970856,-0.12289877235889435,0.06334200501441956,-0.12763206660747528,0.012296199798583984,0.0880371630191803,-0.11748991161584854,0.06886973977088928,0.11761652678251266,0.17860840260982513,-0.09067557007074356,0.09948072582483292,0.005549532826989889,0.0958971157670021,0.07828238606452942,0.1558775007724762,-0.14389881491661072,0.12904676795005798,0.06482654064893723,-0.07874254137277603,-0.13509349524974823,-0.04730315878987312,-0.14074677228927612,0.024964774027466774,0.044738732278347015,-0.06701752543449402,0.0319555290043354,0.21985603868961334,0.06467118859291077,0.14574535191059113,0.18608155846595764,0.15178747475147247,-0.15627190470695496,0.048485174775123596,-0.07709956914186478,0.08603822439908981,-0.11538363248109818,0.13754794001579285,0.02285291627049446,0.14766892790794373,0.08789296448230743,0.05647347494959831,0.10850279778242111,0.08862108737230301,-0.19195064902305603,-0.14654025435447693,-0.24048030376434326,-0.1368314027786255,0.12031367421150208,-0.0633886381983757,-0.12111928313970566,-0.08765539526939392,-0.11718718707561493,0.0602521076798439,-0.07093483954668045,-0.16696797311306,0.11817502230405807,0.17116069793701172,-0.042722318321466446,0.16305454075336456,0.12256385385990143,0.16104274988174438,0.1637326180934906,0.10172209143638611,0.13896894454956055,0.10634331405162811,-0.028557518497109413,0.033123813569545746,-0.14710211753845215,-0.17895542085170746,-0.14206813275814056,-0.0718425065279007,0.11095747351646423,0.13562512397766113,-0.24379302561283112,-0.19892598688602448,0.07720870524644852,0.006899339146912098,0.1396576464176178,-0.12021591514348984,-0.0021419948898255825,0.27551504969596863,0.2138095498085022,-0.05268632248044014,-0.15508851408958435,0.09014230221509933,0.19732840359210968,-0.17856039106845856,-0.06278698146343231,-0.1272113174200058,-0.1812005341053009,0.11144732683897018,0.17042326927185059,0.05876462906599045,-0.09652610123157501,-0.14879554510116577,-0.12511108815670013,-0.1008768156170845,-0.07322012633085251,-0.19324597716331482,-0.1331075131893158,-0.020756984129548073,-0.011182466521859169,-0.19728955626487732,-0.14731937646865845,0.09904883801937103,-0.0378962866961956,0.21388551592826843,0.05734926089644432,0.04255204647779465,0.07995624840259552,-0.01438956055790186,-0.20975235104560852,0.1032828837633133,-0.009994187392294407,0.022939659655094147,0.014529338106513023,-0.1376546174287796,0.0021734246984124184,-0.0012019710848107934,0.012956162914633751,-0.1419396549463272,0.03730838745832443,-0.021517127752304077,-0.2274428755044937,0.16070780158042908,0.12816786766052246,-0.09744633734226227,-0.10645696520805359,-0.07649154961109161,0.11219169199466705,0.09115169197320938,-0.08270688354969025,-0.19977715611457825,0.1381773203611374,-0.08766691386699677,-0.022373424842953682,-0.11911623924970627,-0.2262999415397644,-0.0285349003970623,0.12101653963327408,0.07666889578104019,-0.0731167420744896,-0.22830814123153687,-0.1398554891347885,0.19352509081363678,-0.04722946509718895,0.1826791912317276,-0.025109978392720222,0.10500964522361755,0.19246959686279297,0.10763909667730331,0.04048077389597893,0.15088175237178802,-0.1608038991689682,0.1068195179104805,-0.00850510224699974,-0.08734595030546188,-0.029136449098587036,0.019388334825634956,-0.14004695415496826,0.05655091255903244,0.015692899003624916,0.010494504123926163,-0.26941707730293274,0.03310242295265198,-0.11719480156898499,0.16197122633457184,0.17527595162391663,-0.2053951770067215,-0.16732922196388245,0.15675969421863556,0.03768793120980263,-0.0937233716249466,-0.05802907049655914,0.09125027805566788,-0.014246937818825245,-0.04543258622288704,-0.17027701437473297,0.10626287013292313,0.06382304430007935,-0.14215295016765594,0.017403902485966682,-0.1469593495130539,-0.11051761358976364,0.04963071644306183,0.018130583688616753,-0.09555120766162872,-0.18981137871742249,-0.0956665650010109,-0.22655600309371948,-0.1814912110567093,-0.02558072842657566,0.06099347770214081,-0.24094651639461517,-0.036511749029159546,0.0005964370793662965,0.05270007997751236,0.19063693284988403,-0.1006501168012619,0.11836863309144974,-0.18740130960941315,-0.09054449200630188,0.19855694472789764,0.19584932923316956,0.06402464956045151,0.009659438394010067,0.03526246175169945,-0.05077068507671356,0.08066391199827194,-0.06721942126750946,0.08566812425851822,0.04273417592048645,0.05470037832856178,-0.25032177567481995,0.08335386216640472,0.09098466485738754,0.004805092699825764,-0.0580902136862278,-0.2548891603946686,-0.21325233578681946,0.06704651564359665,0.09496815502643585,-0.07965882867574692,-0.18289606273174286,-0.04916641116142273,-0.025135548785328865,0.016164684668183327,-0.05231635272502899,0.17712725698947906,0.05291088670492172,-0.17754915356636047,0.15839332342147827,-0.09054850786924362,-0.13159701228141785,-0.11432936787605286,-0.12629611790180206,-0.10661809146404266,0.1628933846950531,-0.11745229363441467,0.18956050276756287,-0.023709725588560104,-0.2861812114715576,-0.12917372584342957,0.08898169547319412,0.07555285096168518,-0.2652179002761841,-0.0714237168431282,0.007293098606169224,-0.0905705913901329,-0.09259501844644547,-0.026351667940616608,-0.14592087268829346,-0.09491543471813202,-0.1761222928762436,-0.18027834594249725,-0.15008549392223358,-0.11877846717834473,0.01802165061235428,0.02755752205848694,-0.140297070145607,-0.06275047361850739,-0.11763233691453934,-0.11455061286687851,0.02421456389129162,0.06728542596101761,-0.02525053359568119,-0.1180170550942421,0.13068348169326782,-0.023364581167697906,0.11439593881368637,-0.15432071685791016,-0.12405180931091309,-0.07055246829986572,-0.12069553136825562,0.19839240610599518,0.222342848777771,-0.06353778392076492,-0.23503373563289642,-0.1275491565465927,-0.14339719712734222,0.1314006745815277,-0.02042536623775959,0.11325147747993469,0.01990087889134884,0.15916478633880615,-0.1899198740720749,0.048358652740716934,-0.0017144744051620364,-0.1457272619009018,-0.11386788636445999,0.03132893145084381,0.0805433839559555,0.14732004702091217,-0.159420445561409,-0.15406787395477295,0.1270659863948822,0.1259751170873642,0.21238376200199127,0.20550236105918884,0.07768149673938751,-0.15291470289230347,-0.04049242287874222,-0.13674648106098175,0.11405479907989502,-0.23110751807689667,-0.15793776512145996,-0.21220919489860535,0.12473824620246887,-0.12277155369520187,-0.16517023742198944,0.11861942708492279,0.0744212195277214,0.10880690068006516,-0.12642139196395874,0.1756165623664856,-0.012302177026867867,-0.12432703375816345,0.0835949182510376,-0.19906285405158997,-0.1674821674823761,-0.08403811603784561,-0.2407129406929016,-0.08949583768844604,0.12569139897823334,0.15094557404518127,0.1281113177537918,-0.25903308391571045,-0.10673335939645767,0.04212585836648941,0.09786058217287064,-0.1627776324748993,-0.06191384419798851,-0.22461038827896118,-0.23279345035552979,-0.12289959192276001,-0.14362475275993347,-0.13560962677001953,-0.17287389934062958,-0.10853579640388489,-0.18809877336025238,0.013057995587587357,-0.0783550813794136,-0.10477419197559357,-0.03193435072898865,0.056888397783041,-0.08852456510066986,-0.038605377078056335,-0.14436042308807373,0.1668161302804947,-0.12078546732664108,-0.19706924259662628,-0.020840728655457497,-0.06292984634637833,0.2360921949148178,-0.059818677604198456,-0.09952821582555771,-0.17531560361385345,-0.27357688546180725,-0.10014645755290985,-0.019501667469739914,0.050247013568878174,-0.009823812171816826,0.11209383606910706,-0.14469026029109955,0.12940676510334015,0.18525320291519165,-0.20775552093982697,-0.15621261298656464,0.1740742176771164,0.03267785906791687,0.038574595004320145,-0.11847833544015884,0.18123500049114227,-0.13641148805618286,0.130839005112648,-0.0022268600296229124,0.1856740266084671,-0.09991322457790375,-0.1958240121603012,-0.07972487807273865,-0.0410953015089035,-0.16850189864635468,-0.07007153332233429,0.0265676099807024,-0.14866669476032257,0.15439154207706451,0.10938536375761032,0.0006734230555593967,0.0922727882862091,-0.16727402806282043,0.08702553808689117,0.18096649646759033,0.08798713982105255,-0.08109232038259506,-0.0657125934958458,0.11669724434614182,-0.07226307690143585,0.0016972542507573962,0.06549770385026932,-0.15033158659934998,-0.14699400961399078,-0.1728152185678482,0.008824944496154785,-0.16984404623508453,0.15567268431186676,0.014964696019887924,0.08197875320911407,-0.08593781292438507,-0.07952006161212921,0.08553526550531387,0.14777785539627075,-0.1591518372297287,-0.05814075469970703,0.2236863672733307,0.2756582796573639,0.043220311403274536,-0.17052620649337769,0.16964128613471985,0.11321625858545303,-0.12384188175201416,0.02027941681444645,-0.009677655063569546,-0.09097402542829514,0.031575825065374374,-0.07655491679906845,0.1670505553483963,0.05926044285297394,-0.06045462563633919,-0.17930348217487335,0.05179353058338165,0.000851727498229593,0.1247013732790947,0.02565460279583931,-0.019125482067465782,0.13803020119667053,0.14303606748580933,0.10453985631465912,0.22151827812194824,0.04581339284777641,-0.010583794675767422,0.0957101583480835,0.1699456125497818,-0.1307053565979004,0.1099906638264656,-0.006450050510466099,0.12145648151636124,-0.1281963437795639,-0.15974079072475433,0.10003755986690521,-0.010232211090624332,-0.19634945690631866,0.08251044154167175,-0.11123209446668625,0.08645430207252502,-0.034994129091501236,-0.03478672355413437,0.09457273036241531,0.10749877244234085,0.06588820368051529,0.1668512374162674,-0.1456778645515442,0.04724821075797081,-0.1946408599615097,0.07079793512821198,0.20265519618988037,-0.018961520865559578,-0.01204389426857233,0.03209318593144417,-0.06849773973226547,0.014047020114958286,0.053397100418806076,0.08148391544818878,-0.21751850843429565,0.11895420402288437,-0.18222211301326752,0.048323262482881546,0.009703262709081173,0.014958631247282028,-0.18248885869979858,-0.0325491763651371,0.12184327840805054,-0.1368016004562378,-0.17255154252052307,0.0005984652088955045,-0.1074223592877388,0.007168909069150686,-0.010354440659284592,-0.1338091641664505,-0.08729023486375809,-0.07132168114185333,-0.15183763206005096,-0.22939571738243103,-0.016217803582549095,-0.01719454862177372,0.1603977382183075,0.05988962948322296,-0.28994399309158325,0.041206832975149155,-0.13574077188968658,-0.14740557968616486,0.15102523565292358,-0.0001178792372229509,0.0898817777633667,0.16408446431159973,-0.057641249150037766,-0.17361700534820557,-0.18170219659805298,-0.039323773235082626,0.13088616728782654,0.17882077395915985,-0.12565279006958008,-0.17926675081253052,-0.16781936585903168,0.14128932356834412,-0.11926787346601486,0.055451009422540665,-0.1953837275505066,0.01728476583957672,-0.18039175868034363,-0.060946766287088394,-0.1419556736946106,0.15673398971557617,-0.031576115638017654,-0.04117698594927788,-0.004498856142163277,-0.27391013503074646,-0.15847499668598175,0.042001161724328995,-0.03083636797964573,-0.20256981253623962,-0.1505044400691986,-0.0799211859703064,-0.16827073693275452,0.12489538639783859,0.09421668201684952,0.06433741003274918,-0.12181957811117172,-0.1500001698732376,-0.05514714866876602,-0.1619800329208374,0.08572693169116974,-0.09609675407409668,-0.008358621969819069,0.12610772252082825,-0.0022770625073462725,-0.11633896082639694,-0.06044945865869522,-0.06923249363899231,-0.17868614196777344,-0.0430280826985836,-0.21370819211006165,-0.1890166699886322,-0.05875224247574806,-0.060564447194337845,0.12853005528450012,0.1629772037267685,-0.1921694576740265,0.07847011089324951,0.07585375756025314,-0.052519574761390686,-0.22108373045921326,0.11420462280511856,-0.09072823077440262,0.03533746674656868,0.14423644542694092,-0.015878809615969658,0.05994105711579323,0.04021421819925308,0.14364443719387054,-0.1702495813369751,0.1026395633816719,0.05523665249347687,-0.16936810314655304,-0.15736447274684906,0.033204585313797,0.021407241001725197,0.1257094442844391,0.14874237775802612,-0.08676622807979584,-0.08534355461597443,-0.18590253591537476,-0.09973737597465515,-0.18376260995864868,-0.0090406509116292,0.04868375509977341,-0.16917608678340912,0.17784050107002258,-0.029891641810536385,-0.0620448961853981,-0.04144692048430443,0.17877809703350067,-0.15863780677318573,0.14785648882389069,-0.18910709023475647,0.027246441692113876,-0.11446220427751541,0.05197548866271973,0.020762654021382332,-0.058634549379348755,-0.000038256945117609575,-0.06599291414022446,0.04756507650017738,0.09865809231996536,0.14615043997764587,-0.18128223717212677,-0.21116696298122406,-0.12300559878349304,0.1128571555018425,-0.06263402849435806,-0.1806572824716568,-0.20911386609077454,-0.14525000751018524,-0.026628537103533745,-0.12536005675792694,0.10996359586715698,0.07497718185186386,0.17067134380340576,-0.07262726128101349,0.1472889930009842,-0.07898196578025818,0.10979735106229782,-0.1048799678683281,-0.08104249089956284,-0.0878201350569725,0.07681135088205338,0.01916019804775715,0.07567678391933441,0.04722198098897934,0.0820358544588089,0.05208033323287964,0.20778045058250427,0.14230117201805115,-0.0887722447514534,0.014003012329339981,0.019815420731902122,0.13666722178459167,0.15882907807826996,-0.184054896235466,-0.1562901884317398,0.14263854920864105,-0.12087155133485794,0.030990352854132652,0.052217014133930206,0.040050651878118515,-0.03863326832652092,0.17902407050132751,-0.07252413034439087,-0.15545445680618286,-0.18041957914829254,0.02968308888375759,0.03887491300702095,-0.06923402100801468,-0.13600492477416992,0.0007492533186450601,0.06266608089208603,0.07865604013204575,0.18806865811347961,-0.15810245275497437,-0.1256345808506012,0.029809141531586647,0.11671903729438782,-0.16180618107318878,0.14273443818092346,0.17294587194919586,-0.13181474804878235,0.015966122969985008,-0.11126132309436798,0.2181418091058731,0.19995124638080597,0.07340807467699051,0.21310822665691376,0.15824894607067108,0.13392101228237152,-0.1786031872034073,0.14807501435279846,-0.01752587966620922,0.1449512243270874,0.11771928519010544,-0.19481487572193146,0.19091564416885376,-0.08010508120059967,0.01118837296962738,-0.11298723518848419,0.026998264715075493,0.021618660539388657,0.034046802669763565,-0.08670642971992493,0.04714931920170784,0.01774084009230137,-0.13347850739955902,0.13650383055210114,-0.014343561604619026,-0.05158384516835213,0.11373773962259293,-0.04532173275947571,0.18414294719696045,0.18168553709983826,0.13687583804130554,-0.1555919200181961,-0.014946616254746914,0.05326765775680542,0.13375143706798553,0.0910048857331276,0.08932522684335709,-0.1053365096449852,0.18807442486286163],[0.014637818560004234,0.0859159380197525,0.08904936164617538,0.16470098495483398,-0.13953272998332977,-0.10890474170446396,-0.04690511152148247,-0.14068138599395752,0.04775847867131233,-0.09033975750207901,-0.18627215921878815,-0.07364653795957565,0.03810986131429672,0.06908323615789413,0.03039444237947464,0.06747139245271683,0.17925971746444702,0.1137976422905922,-0.03754938393831253,-0.13769209384918213,0.19472545385360718,0.13381361961364746,0.08935592323541641,-0.09811948984861374,-0.10870195925235748,-0.028930755332112312,0.1867358535528183,-0.08320809155702591,0.07798343151807785,-0.1317708045244217,0.16532661020755768,-0.1721014529466629,-0.1721615344285965,0.18012046813964844,-0.006479182280600071,-0.17833180725574493,0.1219983622431755,-0.1171530932188034,-0.056177787482738495,0.015662146732211113,0.06178424507379532,-0.05402733385562897,0.0910697653889656,-0.18196113407611847,-0.08582767844200134,0.14118129014968872,-0.11139533668756485,-0.13746917247772217,0.0850122720003128,-0.0566876046359539,-0.15355391800403595,-0.10805265605449677,0.14782142639160156,-0.0065822782926261425,0.09951577335596085,0.17308484017848969,-0.12503044307231903,0.19753232598304749,-0.03242255374789238,0.08893800526857376,-0.12227392941713333,-0.047616347670555115,-0.1645643562078476,0.1874142587184906,0.07427548617124557,-0.013578245416283607,-0.10270766913890839,0.09955079853534698,-0.06923559308052063,0.12972328066825867,0.11021013557910919,-0.07330947369337082,0.058402713388204575,-0.20716026425361633,0.0754283219575882,0.023553328588604927,-0.08879384398460388,0.14748574793338776,0.03654799237847328,0.1226351335644722,0.19862984120845795,-0.013593565672636032,0.14468547701835632,0.06995391845703125,-0.14108623564243317,-0.1748049408197403,-0.08063886314630508,-0.15223553776741028,-0.022577524185180664,-0.17067879438400269,-0.18353034555912018,0.19162212312221527,0.04670466110110283,0.15844233334064484,0.050544947385787964,0.04824114963412285,-0.04640085622668266,0.11744292825460434,0.007984849624335766,-0.2501022219657898,-0.272499680519104,0.07530197501182556,0.10896412283182144,-0.23466262221336365,-0.045908596366643906,-0.016766080632805824,-0.1751270890235901,0.08771473914384842,-0.18696792423725128,0.04749850183725357,-0.07278980314731598,0.010516990907490253,-0.17157389223575592,0.010763028636574745,-0.14256487786769867,-0.026562795042991638,0.08847488462924957,-0.143715038895607,-0.19913804531097412,0.028050042688846588,0.005799751728773117,0.1524614542722702,0.18667638301849365,-0.05971551313996315,-0.17691761255264282,0.04786112532019615,-0.27608931064605713,-0.252582848072052,-0.002250454155728221,-0.2498122602701187,-0.06898195296525955,0.01212978083640337,-0.19843870401382446,-0.22492344677448273,0.032973021268844604,-0.15906570851802826,-0.06388090550899506,-0.17410534620285034,-0.020533673465251923,0.01311921700835228,-0.18628501892089844,0.08966537564992905,0.08540892601013184,0.08053692430257797,0.12887756526470184,-0.03661585971713066,-0.2109737992286682,-0.17764906585216522,0.07240045070648193,-0.07124412059783936,-0.12417864799499512,0.06362821906805038,-0.17619691789150238,-0.03836246579885483,-0.088585764169693,-0.320110559463501,-0.13461041450500488,-0.2984607219696045,0.029543869197368622,-0.13532331585884094,-0.26152822375297546,-0.19824831187725067,-0.03864951804280281,-0.05093357339501381,0.16427820920944214,0.05657699331641197,0.1426571160554886,0.17761248350143433,0.16289956867694855,0.10839978605508804,0.1320781260728836,-0.006721208803355694,-0.1398116648197174,-0.2564908266067505,0.06776333600282669,-0.275509238243103,-0.08425538241863251,0.1674724519252777,-0.04448296129703522,-0.07489524781703949,0.4354718327522278,-0.043269265443086624,0.1335379034280777,-0.1561964899301529,-0.11222504824399948,-0.029233846813440323,0.09940993040800095,0.0593254379928112,0.13338680565357208,-0.06258119642734528,-0.11636114120483398,0.15275344252586365,-0.0544106662273407,-0.0244459081441164,-0.09612184017896652,-0.02032102830708027,0.18780125677585602,-0.03634582832455635,-0.13189895451068878,0.06893478333950043,-0.08544657379388809,-0.17149335145950317,0.024437977001070976,-0.2365105003118515,0.14426785707473755,0.012151520699262619,0.26914286613464355,0.11333026736974716,0.2234979122877121,0.07400460541248322,-0.00728617375716567,-0.06127169355750084,-0.0073495469987392426,-0.1736411601305008,0.17499278485774994,-0.11845916509628296,0.06668175756931305,0.07798036187887192,0.10191776603460312,0.13580165803432465,0.03378822281956673,-0.0334748774766922,0.14566990733146667,0.018820691853761673,-0.18694518506526947,0.19269272685050964,0.0812080129981041,0.05273951590061188,-0.14720825850963593,-0.15447726845741272,-0.22035714983940125,-0.026431620121002197,-0.1965719610452652,0.038496993482112885,0.19900265336036682,0.0595623143017292,0.19269634783267975,0.2085198611021042,-0.005584250204265118,-0.16629397869110107,-0.16982975602149963,-0.26600050926208496,-0.18063606321811676,0.21171577274799347,-0.030407026410102844,0.3532558083534241,0.07873659580945969,-0.13592590391635895,-0.011327729560434818,0.11795183271169662,0.09928781539201736,-0.003123767441138625,-0.0505996011197567,-0.06939475983381271,-0.040479935705661774,0.0881432592868805,-0.09718625992536545,-0.3225155770778656,-0.25703784823417664,0.12754307687282562,-0.018750764429569244,0.172981858253479,0.42183396220207214,0.19380177557468414,0.1006539836525917,0.14259208738803864,0.003068319521844387,-0.06645004451274872,-0.2869962453842163,-0.3702816367149353,0.060203056782484055,-0.06452035158872604,0.1492597609758377,-0.10050522536039352,0.056884679943323135,0.07145201414823532,0.08624136447906494,-0.14368309080600739,-0.04816650226712227,0.17629005014896393,0.13589051365852356,0.10119325667619705,-0.20709869265556335,-0.2148451954126358,-0.14219912886619568,-0.2793444097042084,-0.03611306473612785,0.027305664494633675,0.20699037611484528,0.07483475655317307,-0.012381128035485744,-0.01793571002781391,0.18222053349018097,-0.030995439738035202,0.06484535336494446,-0.12202375382184982,-0.46976155042648315,-0.3894055485725403,-0.1691417098045349,0.11418797075748444,0.10408683866262436,0.09782756119966507,0.17362821102142334,0.25607648491859436,0.25555697083473206,-0.03156193345785141,-0.16601170599460602,0.15440137684345245,0.16542664170265198,-0.155471533536911,0.010708033107221127,0.0891878604888916,-0.06544217467308044,0.0846700370311737,0.215905100107193,-0.1579253077507019,0.0772407054901123,-0.13703900575637817,-0.13111883401870728,-0.09114345908164978,0.11191172152757645,-0.1746124029159546,0.07505804300308228,0.09652847051620483,-0.46132782101631165,-0.16979598999023438,-0.04862378165125847,0.016563143581151962,0.03483576700091362,-0.028928259387612343,0.21330884099006653,0.029149776324629784,0.18695935606956482,-0.0023163871373981237,0.15232957899570465,0.06785808503627777,0.02438034862279892,-0.02614443749189377,-0.12019724398851395,0.007991049438714981,-0.0848982185125351,0.004242220893502235,-0.030230436474084854,0.07092376798391342,-0.2228100448846817,-0.14208222925662994,-0.08127031475305557,0.03080984577536583,-0.11289897561073303,-0.00785333663225174,-0.050913359969854355,0.002457701601088047,-0.07711493968963623,-0.3561214208602905,-0.1677413433790207,-0.13462363183498383,-0.09511099755764008,0.030269302427768707,-0.06613220274448395,0.14843106269836426,0.13800513744354248,-0.026078343391418457,0.11957283318042755,0.10257098078727722,0.15860605239868164,0.0014212618116289377,0.05331403762102127,0.15269610285758972,0.12543906271457672,0.14963790774345398,0.05672755092382431,-0.1992638260126114,-0.13540837168693542,0.015341834165155888,-0.09235674887895584,-0.15785636007785797,0.05943406745791435,0.23126789927482605,0.03397015109658241,0.08242670446634293,-0.138689324259758,0.07854445278644562,-0.23300236463546753,-0.2933785617351532,-0.04171750321984291,-0.08570409566164017,0.1824711412191391,-0.08104300498962402,-0.057228934019804,-0.03680293262004852,-0.015180939808487892,0.12313579767942429,-0.1792210042476654,-0.05511757731437683,-0.04214238002896309,-0.09128047525882721,0.12365385890007019,-0.18451005220413208,0.07010334730148315,0.009012889117002487,0.03205059841275215,0.04235844686627388,0.01909206621348858,0.035219401121139526,0.17890843749046326,0.18326431512832642,0.19306650757789612,-0.14042919874191284,-0.27811574935913086,-0.5319395065307617,-0.3635573983192444,-0.17758989334106445,-0.1889960616827011,-0.12055855244398117,0.07683160901069641,0.21747693419456482,-0.10881883651018143,-0.06603377312421799,-0.0709347277879715,0.08609984070062637,0.18571563065052032,0.0521664097905159,0.15911123156547546,0.02562014013528824,-0.052578043192625046,-0.0184656772762537,-0.05585229769349098,-0.29935434460639954,0.1003185361623764,0.17262063920497894,-0.0253886878490448,0.048916902393102646,0.2522265613079071,0.09545014053583145,0.08838899433612823,-0.03624345362186432,-0.257251113653183,-0.2217242568731308,-0.2582000195980072,-0.43949878215789795,-0.2341059148311615,0.05967221036553383,0.04726593196392059,-0.029005372896790504,0.010807559825479984,0.05270073562860489,-0.09560956060886383,0.08964115381240845,0.19585996866226196,-0.17298544943332672,0.1365087926387787,-0.09477222710847855,-0.20098015666007996,0.20188388228416443,0.06307071447372437,-0.23328402638435364,-0.10095822811126709,-0.07081739604473114,-0.07954040914773941,-0.254831463098526,0.21036848425865173,-0.0990355908870697,-0.019855262711644173,-0.003614926477894187,0.0447407104074955,-0.12789297103881836,-0.19742394983768463,-0.1315286010503769,-0.21440289914608002,0.04891614988446236,-0.0719718411564827,0.07193171232938766,0.20082394778728485,-0.11369446665048599,-0.12550340592861176,-0.014778739772737026,-0.09606222808361053,-0.08143951743841171,0.10169301927089691,0.14510151743888855,0.16710083186626434,-0.053696196526288986,0.14595022797584534,-0.1130361407995224,-0.10854556411504745,-0.012045745737850666,-0.06998024135828018,-0.04617419093847275,0.06343816220760345,0.28995972871780396,0.22952543199062347,-0.03392215445637703,-0.005230358336120844,-0.16582053899765015,-0.0838770940899849,-0.12688754498958588,-0.1168273314833641,0.08861824870109558,-0.14500564336776733,0.01814878359436989,0.001628837431780994,0.047292016446590424,0.10477479547262192,0.16785717010498047,-0.08796634525060654,-0.060315944254398346,-0.08332041651010513,-0.022062331438064575,0.026384489610791206,-0.06539947539567947,0.09178157150745392,0.1495113968849182,-0.09968670457601547,0.0017507665324956179,-0.05476909875869751,-0.2564062476158142,-0.06820593029260635,-0.12247403711080551,-0.10509178787469864,-0.09343987703323364,0.1530141532421112,0.04489618167281151,0.0939781442284584,-0.25812071561813354,0.2014818787574768,0.15879619121551514,0.05700080469250679,0.0031672127079218626,-0.14303338527679443,-0.04641248658299446,0.0932784155011177,-0.01009384822100401,-0.10028829425573349,0.05392073839902878,0.16796889901161194,-0.15829698741436005,0.1035638228058815,0.07385467737913132,-0.013613279908895493,-0.07366057485342026,-0.24699878692626953,-0.22456684708595276,-0.11033540964126587,-0.1229279488325119,-0.34572041034698486,-0.13515333831310272,-0.009146735072135925,-0.18676212430000305,0.1014133021235466,0.06074706092476845,0.16413433849811554,0.11095386743545532,-0.029445884749293327,-0.2189299464225769,-0.028705086559057236,0.052706003189086914,0.14565302431583405,-0.06403441727161407,-0.1894368976354599,0.03864692524075508,0.14803601801395416,0.015727367252111435,-0.04743679612874985,-0.17246432602405548,0.10869007557630539,0.12491720169782639,-0.1435510367155075,-0.10805761814117432,-0.09255507588386536,-0.21495367586612701,-0.2866445481777191,-0.3365299701690674,-0.16797007620334625,-0.41348403692245483,-0.26987677812576294,0.09567243605852127,0.0026003350503742695,0.002229443285614252,0.05558649078011513,0.07032868266105652,0.1180257722735405,-0.2910641133785248,0.06647482514381409,0.07664874196052551,0.038208287209272385,-0.05216003209352493,-0.14818374812602997,0.18756644427776337,-0.011737078428268433,-0.051147229969501495,0.037992607802152634,0.15744677186012268,-0.003195109311491251,-0.1177784875035286,-0.011773835867643356,0.004905586130917072,-0.06762384623289108,-0.16198241710662842,-0.23408399522304535,-0.07039586454629898,-0.1458681970834732,-0.08835328370332718,-0.33707818388938904,-0.2875836193561554,0.06929511576890945,-0.0068818349391222,0.10873612761497498,0.061995308846235275,-0.015309845097362995,-0.029771894216537476,-0.17446893453598022,-0.17800551652908325,-0.14679428935050964,0.11714323610067368,0.17299999296665192,-0.12404794245958328,-0.001274213194847107,0.19853155314922333,0.1769343465566635,-0.14435704052448273,-0.0027677686884999275,0.020274724811315536,-0.22416649758815765,0.06023188307881355,-0.3133419156074524,-0.03156847506761551,-0.1739538013935089,-0.26010990142822266,0.04788682982325554,-0.14348204433918,-0.029340432956814766,0.1843147724866867,0.06843400746583939,-0.1581910103559494,-0.02708875574171543,0.027305083349347115,0.0015648301923647523,-0.1602017730474472,0.07688850164413452,-0.06742193549871445,-0.06331825256347656,-0.04915785416960716,-0.04351486638188362,-0.0018482001032680273,0.0585833415389061,0.08237621188163757,-0.05484399572014809,-0.09959422051906586,-0.1328672468662262,0.17854014039039612,-0.08951448649168015,0.005576112307608128,-0.23800398409366608,0.08274319767951965,-0.010528159327805042,-0.09763075411319733,-0.0416635125875473,-0.23509304225444794,0.03596494346857071,0.21749389171600342,-0.012242691591382027,-0.07175973057746887,-0.13227492570877075,0.004034418147057295,-0.03481485694646835,0.0902005210518837,0.10945814102888107,-0.05529802665114403,-0.037362851202487946,0.14635710418224335,-0.003581485478207469,0.19510652124881744,0.15889698266983032,0.06430032849311829,0.0882834866642952,0.03328564390540123,-0.06679549068212509,0.10390795022249222,-0.06318662315607071,0.09105774760246277,-0.009447986260056496,0.16355597972869873,0.22209468483924866,-0.003266873536631465,0.3017731010913849,0.14317095279693604,-0.0012049550423398614,0.100525863468647,0.19915419816970825,-0.055235471576452255,-0.009669249877333641,-0.1601928323507309,-0.14856991171836853,-0.077916219830513,0.1253005862236023,0.14839018881320953,-0.1070488840341568,0.03834568336606026,-0.19838416576385498,-0.0973856970667839,0.06224202737212181,-0.006003207992762327,-0.09261352568864822,-0.05743301287293434,-0.11680514365434647,-0.110158272087574,-0.04098178446292877,0.0021694370079785585,0.33207178115844727,0.5258931517601013,0.1567504107952118,0.2051433026790619,0.3749980330467224,0.11805403977632523,0.18319129943847656,-0.14184726774692535,-0.08457406610250473,0.1255796253681183,0.11311639100313187,-0.22610419988632202,-0.1351127326488495,-0.1193145364522934,-0.05989658087491989,-0.14868739247322083,0.15431621670722961,0.18403460085391998,-0.15135665237903595,-0.16205082833766937,0.000551201228518039,0.0077647739090025425,-0.03389175236225128,0.15899839997291565,-0.059162385761737823,-0.11637739837169647,0.17959465086460114,0.16606289148330688,-0.0838591530919075,-0.11376953125,0.04568888992071152,-0.046872206032276154,-0.1441754549741745,-0.012917249463498592,0.12021391838788986,-0.19539877772331238,-0.1232532411813736,-0.15138603746891022,-0.09950808435678482,-0.041907794773578644,-0.18515457212924957,-0.1719057559967041,0.17867222428321838,-0.12524129450321198,-0.023839440196752548,0.027874508872628212,0.1458728015422821,0.00044001577771268785,0.015478555113077164,-0.05778125301003456,0.13350653648376465,0.03351431339979172,0.12242662906646729,0.16774310171604156,0.0020773240830749273,0.09222514927387238,-0.04845307767391205,-0.00590037414804101,-0.050373345613479614,-0.06776171177625656,0.02444833517074585,-0.09085188806056976,0.007702602073550224,-0.1813507229089737,-0.13923941552639008,0.05755160003900528,-0.05790317803621292,-0.1272066980600357,0.16753819584846497,0.13922271132469177,-0.18348464369773865,0.12020288407802582,-0.005892671179026365,0.06241317093372345,0.08209154009819031,-0.10388439893722534],[-0.07030650228261948,-0.05803164467215538,-0.1437048316001892,0.02557511068880558,0.12690335512161255,-0.1779511719942093,0.19332629442214966,0.05136667937040329,0.16460779309272766,-0.17366626858711243,0.029814979061484337,0.1330460160970688,-0.10064413398504257,-0.0035500244703143835,0.0943870097398758,-0.1915304809808731,-0.025155646726489067,-0.010991665534675121,0.170769602060318,0.12759019434452057,0.0824936181306839,0.06942366808652878,0.07583750039339066,-0.1939663290977478,0.11613708734512329,-0.06345009803771973,-0.02147980034351349,-0.18565715849399567,0.061097949743270874,-0.06540074199438095,-0.05658561363816261,0.19410428404808044,0.05781541019678116,-0.004471867345273495,0.17021141946315765,-0.11076045781373978,-0.16778048872947693,-0.19502092897891998,0.014026647433638573,0.0873468816280365,0.04394296184182167,-0.11467650532722473,-0.10427135974168777,-0.08176209032535553,0.07758431881666183,-0.13113988935947418,-0.03907637298107147,0.11361367255449295,0.12334714084863663,0.07887085527181625,-0.08849795907735825,-0.006608936470001936,-0.12851886451244354,-0.13837964832782745,-0.17090067267417908,-0.0070336670614778996,-0.15666000545024872,0.03312058374285698,-0.14398251473903656,0.12353517860174179,0.12851640582084656,-0.1976414918899536,-0.005169172305613756,0.0021681569050997496,0.07368310540914536,-0.13272391259670258,-0.07176239043474197,0.07975076138973236,-0.11052219569683075,0.13812166452407837,-0.1108795702457428,0.06694211810827255,-0.08914495259523392,0.06915625929832458,0.14964494109153748,0.12407787889242172,-0.059874027967453,0.15792204439640045,0.004900876432657242,-0.1538284868001938,0.09121180325746536,-0.130128875374794,-0.012641959823668003,-0.13751748204231262,0.12767326831817627,0.11046424508094788,-0.05934518203139305,-0.0789925679564476,0.017740817740559578,0.08778264373540878,0.07342144846916199,-0.13741624355316162,-0.16209010779857635,-0.09449691325426102,0.016314402222633362,0.18640227615833282,-0.1321312040090561,-0.16098935902118683,0.09341220557689667,0.13113699853420258,-0.13644762337207794,0.005257460288703442,-0.052746694535017014,-0.1673523485660553,-0.14014320075511932,0.12053357064723969,-0.16716445982456207,0.09242802113294601,0.14574216306209564,0.016154980286955833,0.10176381468772888,0.1843056082725525,-0.17829345166683197,0.06629559397697449,-0.13961489498615265,-0.10704623907804489,-0.07194700837135315,0.14640271663665771,0.1283847987651825,0.11463247239589691,0.15432636439800262,0.036596860736608505,-0.06084555760025978,-0.01641273684799671,0.002425506478175521,0.14039359986782074,-0.053454525768756866,-0.201597198843956,0.08932406455278397,-0.03567980229854584,0.010442731902003288,-0.01928194984793663,0.11312176287174225,-0.10168931633234024,-0.12770439684391022,-0.15448345243930817,-0.19260238111019135,-0.17702199518680573,0.029342414811253548,0.1028265655040741,-0.07533249258995056,0.08710972219705582,0.0993267223238945,0.017946697771549225,0.11417515575885773,0.14556139707565308,-0.16254930198192596,-0.041556216776371,0.014639714732766151,-0.0036105578765273094,-0.20152617990970612,0.002070188755169511,0.15033668279647827,-0.07724744081497192,0.1526774764060974,-0.12052607536315918,0.10333739966154099,0.0356961190700531,-0.07763613760471344,-0.08477365970611572,0.1292308121919632,0.1285381317138672,0.034376952797174454,0.03716412931680679,0.02526022493839264,0.15946026146411896,0.174143984913826,-0.1165698915719986,0.19047021865844727,0.07702352851629257,-0.11396834999322891,0.18259142339229584,-0.14890524744987488,-0.13449862599372864,0.05474892258644104,-0.10793616622686386,-0.04705533757805824,-0.18996474146842957,-0.07673609256744385,0.004210354760289192,0.1425030678510666,0.014852783642709255,-0.09398642182350159,-0.1668323129415512,-0.12235831469297409,-0.1583940088748932,0.16475245356559753,-0.15834340453147888,-0.14672034978866577,-0.14672015607357025,-0.09488242864608765,0.039161887019872665,-0.1800486296415329,0.0711735337972641,-0.1949174553155899,-0.06312183290719986,0.01147936936467886,-0.03820013627409935,0.03250877931714058,0.03072325512766838,0.10354015231132507,0.06140507385134697,-0.07911164313554764,0.10593008995056152,-0.002358722034841776,-0.21207143366336823,0.13088060915470123,-0.19550642371177673,-0.09988800436258316,-0.03215919807553291,-0.0062375618144869804,-0.2322007268667221,-0.1583084911108017,0.1263713389635086,0.08381463587284088,0.09938497841358185,-0.2091478556394577,0.056673482060432434,-0.20042258501052856,0.17239460349082947,0.06909354776144028,-0.060633156448602676,-0.18935219943523407,0.012014546431601048,-0.04097285866737366,0.18973539769649506,-0.08566436916589737,-0.10879974067211151,-0.055035240948200226,0.01683953031897545,0.09458015114068985,0.16899819672107697,-0.016178768128156662,0.15275920927524567,-0.22714507579803467,0.1302274763584137,-0.21164678037166595,0.11055514216423035,-0.18399327993392944,-0.23561646044254303,0.05144564062356949,0.13306796550750732,-0.09552662074565887,-0.1559661626815796,-0.034800369292497635,0.04135991632938385,0.10532065480947495,-0.1188427284359932,-0.15106655657291412,0.09793785214424133,-0.11949700117111206,0.1363668590784073,-0.04180511459708214,-0.13563603162765503,-0.19392405450344086,0.1420018970966339,-0.057331014424562454,-0.14488033950328827,0.15631413459777832,0.07086849212646484,-0.08520825207233429,-0.11837424337863922,0.04737541079521179,-0.06600549817085266,0.11208396404981613,-0.20432408154010773,-0.17053423821926117,0.08837578445672989,-0.06033100187778473,-0.13434955477714539,-0.21536284685134888,0.08956846594810486,0.039234209805727005,0.1538608968257904,0.080025315284729,-0.12794257700443268,0.09781134128570557,0.06389690190553665,0.14270925521850586,-0.10159078985452652,0.01412979420274496,0.049422502517700195,-0.0767180323600769,0.16869771480560303,-0.055813681334257126,-0.05472476780414581,0.19143451750278473,-0.09055861830711365,-0.01825948804616928,-0.046067651361227036,0.09460949897766113,0.07718894630670547,-0.17156213521957397,0.1407977193593979,-0.18316492438316345,-0.00965167861431837,0.08268646150827408,-0.05169536545872688,0.07128966599702835,-0.13712815940380096,-0.09215725213289261,0.028062958270311356,-0.04860171303153038,-0.045121919363737106,0.15529879927635193,0.08506439626216888,-0.0030245324596762657,-0.07176236063241959,-0.1431466042995453,0.007007772568613291,0.09368108958005905,-0.14878974854946136,0.12209339439868927,-0.06241367757320404,-0.010793948546051979,0.10986161977052689,-0.013621036894619465,-0.1294219046831131,0.0499124638736248,0.04409298300743103,0.0888051763176918,-0.17169901728630066,0.13569726049900055,-0.22612769901752472,0.12429004907608032,0.09571128338575363,0.01037211436778307,0.06538121402263641,-0.03806493803858757,0.15985842049121857,-0.1275699883699417,-0.1831803172826767,0.04993882030248642,-0.01175124291330576,-0.1083349883556366,0.03079025261104107,-0.15733548998832703,-0.11356392502784729,0.08628532290458679,0.1440977156162262,-0.12027882039546967,0.015606755390763283,-0.17668916285037994,-0.06000148132443428,-0.19777576625347137,0.03510269150137901,-0.007225844077765942,-0.09872186928987503,-0.16258767247200012,-0.22750741243362427,-0.10374050587415695,-0.024184787645936012,-0.04184780269861221,-0.1993880569934845,0.053756531327962875,0.09956178814172745,0.021004440262913704,0.01835712045431137,-0.044203020632267,-0.028992846608161926,0.15946818888187408,-0.08109480142593384,-0.16915275156497955,0.1925400048494339,-0.17640529572963715,0.18601453304290771,0.06488295644521713,-0.18321679532527924,0.15832389891147614,-0.017124829813838005,-0.10957519710063934,0.07335185259580612,-0.2200639247894287,-0.06853481382131577,-0.08115603029727936,0.024208789691329002,0.015407200902700424,0.03841404989361763,-0.03787527605891228,-0.08171335607767105,-0.21127448976039886,0.07315966486930847,0.15699024498462677,-0.04451116546988487,0.05646371468901634,0.09722640365362167,0.15848292410373688,0.012153193354606628,-0.07498499751091003,-0.006942136213183403,-0.09531419724225998,-0.09670732170343399,0.15813368558883667,-0.07656130939722061,-0.16672421991825104,-0.09199369698762894,0.19512173533439636,0.18692053854465485,0.16853517293930054,-0.1917881965637207,0.16055582463741302,-0.10046730935573578,-0.10910369455814362,0.0780910924077034,-0.09670483320951462,0.1393023431301117,0.14511273801326752,0.04150152578949928,-0.08955781161785126,0.11121580749750137,0.0674348697066307,-0.014936782419681549,-0.061446137726306915,-0.19415682554244995,0.0025370593648403883,0.10958795994520187,0.10531795024871826,-0.03636157140135765,0.005216463468968868,0.16793127357959747,0.018074840307235718,0.1281847357749939,-0.17813387513160706,0.19823145866394043,-0.06756166368722916,-0.19619864225387573,0.17303650081157684,-0.20725437998771667,-0.08511392027139664,0.11751540005207062,0.13211143016815186,-0.12109903991222382,-0.050626132637262344,-0.21647025644779205,0.043814245611429214,-0.1251138299703598,-0.09357298910617828,-0.2085593193769455,-0.14910027384757996,-0.2073444426059723,0.038894545286893845,0.041772689670324326,0.09637121111154556,-0.041156139224767685,-0.18036165833473206,0.1943027526140213,0.11951424926519394,0.19726423919200897,-0.06249158829450607,0.1468535214662552,-0.08304377645254135,0.005761641543358564,-0.15615743398666382,-0.1415945291519165,-0.19065570831298828,0.10170527547597885,0.07319801300764084,0.11602745205163956,0.06167798861861229,-0.1325492262840271,-0.1709747314453125,-0.18090659379959106,-0.015452798455953598,0.06132480874657631,-0.062324054539203644,-0.1853477656841278,-0.16523444652557373,0.09015831351280212,-0.050758324563503265,-0.13138386607170105,0.040051981806755066,0.032107699662446976,0.03478293865919113,0.016701973974704742,0.06519340723752975,-0.008616192266345024,-0.10826507210731506,-0.07450398802757263,0.09823687374591827,0.05391664057970047,-0.1594199240207672,-0.13705815374851227,0.14078599214553833,0.1294672191143036,-0.2197510004043579,-0.15970031917095184,0.14650537073612213,0.027482815086841583,-0.11892467737197876,0.12961255013942719,-0.02328772470355034,-0.08468139916658401,0.0644821748137474,-0.08971913903951645,0.019633913412690163,-0.0013902451610192657,-0.06140929460525513,-0.1892169564962387,-0.16096197068691254,0.16541416943073273,-0.16156557202339172,0.1922634243965149,0.025487197563052177,-0.007611605804413557,0.07904525846242905,-0.05264370143413544,-0.17153581976890564,0.11179838329553604,0.04650619253516197,0.034345678985118866,0.16303065419197083,0.107969731092453,-0.1947929859161377,-0.07433760911226273,-0.04419814422726631,0.12658831477165222,-0.014461125247180462,-0.03523363545536995,-0.059368062764406204,0.08433140814304352,-0.12401662021875381,-0.06461337208747864,0.14230754971504211,-0.07169133424758911,0.020373119041323662,0.10063016414642334,0.12471287697553635,0.17136457562446594,0.1079716831445694,-0.18528440594673157,0.11050575226545334,-0.08076455444097519,-0.12747026979923248,0.08536016196012497,-0.13628579676151276,-0.09991119801998138,-0.14189308881759644,-0.05356159806251526,-0.17497184872627258,-0.09175781905651093,0.08849192410707474,-0.113639235496521,0.05351268872618675,0.11917105317115784,-0.1140996441245079,0.09265685826539993,-0.06389036774635315,0.032428838312625885,-0.01640630140900612,0.11314650624990463,-0.16393929719924927,0.12448678910732269,0.18059983849525452,0.06558800488710403,0.17493323981761932,-0.047731731086969376,0.1776506006717682,0.16501444578170776,0.15390074253082275,0.18485307693481445,0.13572195172309875,0.14611759781837463,-0.08592414855957031,-0.1216307133436203,-0.17405341565608978,-0.1334114521741867,0.14905083179473877,-0.14133712649345398,-0.2214394360780716,0.13059614598751068,0.10884281247854233,-0.1393222212791443,-0.09017390012741089,-0.19348008930683136,-0.03094097599387169,0.128045454621315,-0.04393259808421135,-0.10551340132951736,0.08799278736114502,-0.1935603767633438,0.11133831739425659,0.1044112965464592,0.10158532857894897,-0.18026237189769745,0.07303272187709808,0.05324510857462883,-0.16259679198265076,-0.08911705017089844,-0.0582519993185997,0.13676199316978455,-0.03195817396044731,0.17785152792930603,-0.13383981585502625,0.10878519713878632,0.130832701921463,0.0803481712937355,-0.15331552922725677,-0.2241775244474411,-0.09900400042533875,-0.0007077662157826126,-0.1432158201932907,0.07805134356021881,0.00016483273066114634,0.020038815215229988,-0.13590358197689056,-0.026850715279579163,-0.05236181616783142,-0.17533089220523834,-0.16648535430431366,0.06268861889839172,-0.09577326476573944,0.13289575278759003,-0.18589134514331818,0.06391362100839615,-0.12089373916387558,0.1863628625869751,-0.03583180159330368,0.007067208644002676,0.19232739508152008,0.18246938288211823,0.17833657562732697,0.17766277492046356,-0.04273194074630737,-0.057305414229631424,0.10374612361192703,-0.023080896586179733,0.08172177523374557,0.08191102743148804,-0.13387255370616913,-0.10603035241365433,-0.04895515739917755,-0.15784084796905518,-0.1503845453262329,0.07933593541383743,0.030231216922402382,-0.01902618445456028,-0.08185092359781265,0.17547334730625153,0.14380595088005066,-0.04388555884361267,0.1386493444442749,0.11397329717874527,0.1104242354631424,-0.06083916127681732,0.13571445643901825,0.17247669398784637,-0.18688365817070007,-0.03984321281313896,-0.03656286001205444,-0.051349181681871414,0.18819262087345123,-0.10312600433826447,-0.024573858827352524,0.05846509337425232,0.029493918642401695,-0.2018449604511261,0.14568878710269928,-0.07888107001781464,-0.20842617750167847,0.12401982396841049,0.06103264167904854,0.03778111934661865,-0.07197301834821701,0.10934387892484665,-0.09985101968050003,-0.13796725869178772,-0.1038571447134018,0.046844881027936935,0.19449055194854736,-0.010801604948937893,-0.1776275783777237,0.0007169705932028592,-0.0001598861563252285,-0.14758625626564026,0.05004625394940376,-0.09467357397079468,0.09748272597789764,0.013869749382138252,0.10240301489830017,0.06903383880853653,-0.19631074368953705,-0.16258704662322998,0.04979840666055679,-0.13165779411792755,0.032252971082925797,0.06365188956260681,0.029627308249473572,-0.09894579648971558,0.11812043190002441,0.06722111999988556,0.06445947289466858,0.010781208984553814,-0.139846071600914,-0.08149783313274384,0.19160698354244232,-0.13740476965904236,-0.030324282124638557,0.13499024510383606,0.13366878032684326,0.02011864446103573,0.17073829472064972,-0.03397860378026962,-0.010286283679306507,0.18783101439476013,-0.04228496924042702,-0.14454659819602966,0.12297452986240387,-0.1609451323747635,0.011214323341846466,-0.03669275715947151,-0.13784843683242798,0.11424601078033447,0.1099298968911171,0.11207738518714905,0.1110539585351944,0.12795089185237885,-0.006625228561460972,0.0559220165014267,-0.006041215267032385,-0.16534331440925598,-0.014183379709720612,-0.03398401662707329,-0.1884360909461975,-0.1628100872039795,-0.019596748054027557,-0.0563071146607399,0.19912956655025482,-0.07894940674304962,0.08021242171525955,0.01952274516224861,-0.13343538343906403,-0.09854421764612198,-0.06163691356778145,-0.1493981033563614,0.15304291248321533,-0.07431939989328384,-0.04344024509191513,0.11247395724058151,-0.09889453649520874,0.047255922108888626,-0.09373609721660614,-0.11635278910398483,0.10921704769134521,-0.053705424070358276,0.10878196358680725,0.1459926813840866,0.1879211962223053,0.14542964100837708,-0.20133419334888458,-0.03827016055583954,0.19972357153892517,-0.021205570548772812,0.14845024049282074,0.08405919373035431,0.1120474636554718,0.013389919884502888,-0.013605679385364056,0.027320310473442078,-0.1735883206129074,0.05137935280799866,0.18647700548171997,-0.009770909324288368,0.05407300963997841,0.05194944515824318,-0.02176838368177414,-0.18387000262737274,0.19749626517295837,0.17054599523544312,0.02343197911977768,-0.10198605805635452,0.08308278024196625,0.06650827825069427,-0.0749572366476059,0.022781915962696075,-0.15921737253665924,0.19909486174583435,-0.12957987189292908,0.07808010280132294,-0.03607073053717613,-0.15625883638858795,-0.1605377048254013,0.03993871808052063,0.13440881669521332,0.05677375569939613],[0.01822023279964924,0.17011913657188416,-0.10872142761945724,0.14988665282726288,-0.10205555707216263,0.04500701278448105,0.11772214621305466,-0.05336570367217064,0.19956111907958984,-0.0319763608276844,0.15064537525177002,-0.1310594230890274,0.11631622165441513,0.16839252412319183,0.07213538140058517,0.15114110708236694,0.008431520313024521,0.09496473520994186,0.19508889317512512,0.1453344225883484,-0.13294100761413574,-0.06673461943864822,-0.11818331480026245,-0.17193834483623505,0.04925187677145004,-0.03240490332245827,-0.09675780683755875,0.028305470943450928,0.05099575221538544,0.10479697585105896,-0.02046927995979786,-0.17147184908390045,-0.16629408299922943,0.19959159195423126,0.10447917878627777,0.04744426906108856,-0.19186316430568695,0.015349814668297768,-0.024672823026776314,0.17687229812145233,0.04476672783493996,0.1149798184633255,-0.18425017595291138,-0.14326997101306915,0.008488628081977367,-0.18177492916584015,-0.18481121957302094,0.011345063336193562,-0.0435946024954319,-0.18374848365783691,0.0373624786734581,0.1362135112285614,-0.12843631207942963,0.11988745629787445,0.09532701224088669,-0.04200391471385956,-0.09997650980949402,-0.05936229228973389,-0.07116091996431351,-0.0022593275643885136,0.14253553748130798,-0.0033820264507085085,0.15008044242858887,-0.062051501125097275,-0.039553724229335785,-0.11427091807126999,0.0475904643535614,0.16024436056613922,0.1794041395187378,0.005393025930970907,-0.042648833245038986,0.048361510038375854,0.1693267673254013,-0.020730627700686455,0.17112743854522705,0.09220614284276962,-0.19429518282413483,-0.15977740287780762,0.02889135666191578,-0.08033821731805801,0.14546313881874084,-0.008788445964455605,0.17765027284622192,0.021779824048280716,0.15028904378414154,0.12673452496528625,0.05896637961268425,-0.12165240198373795,-0.15371742844581604,-0.12991097569465637,0.14376689493656158,-0.00628019031137228,-0.06777269393205643,0.0755198746919632,-0.14481694996356964,-0.18385666608810425,0.046529874205589294,0.11514773219823837,-0.1203499510884285,-0.1667155772447586,0.10664155334234238,-0.04383736476302147,-0.14749136567115784,0.06657469272613525,-0.13455475866794586,-0.04104592651128769,0.06154835224151611,-0.19027724862098694,0.034625519067049026,-0.03643831983208656,-0.15345580875873566,0.0031716329976916313,-0.15030734241008759,0.02297063171863556,-0.09387841820716858,0.16112405061721802,0.020346295088529587,0.18911799788475037,0.18920083343982697,0.009560601785779,0.0628424733877182,0.11013872176408768,0.11797671020030975,-0.10936151444911957,0.17158713936805725,0.09638810902833939,0.08947227150201797,-0.05019420012831688,0.13249360024929047,0.14934010803699493,-0.17721007764339447,0.07421662658452988,0.15275681018829346,-0.02029995061457157,0.027673374861478806,0.027508100494742393,0.18225938081741333,0.0918223112821579,0.16125164926052094,-0.011508123949170113,-0.16620862483978271,0.13634708523750305,0.11885853111743927,-0.08600905537605286,-0.008353222161531448,-0.11731383204460144,-0.05134621262550354,-0.1980583518743515,0.13319680094718933,-0.1315959095954895,0.0070573147386312485,0.12332566827535629,0.07246898114681244,-0.048930369317531586,-0.12136822938919067,-0.2115572988986969,0.06500532478094101,-0.12392577528953552,-0.17699484527111053,0.15718941390514374,0.1402021199464798,0.17439617216587067,0.12597061693668365,0.17388716340065002,-0.06247084587812424,0.13289231061935425,-0.06370240449905396,0.16149021685123444,0.13080793619155884,-0.09886868298053741,-0.04348716884851456,0.12799464166164398,-0.18105506896972656,0.12525993585586548,-0.014871252700686455,0.046540871262550354,0.0654490739107132,0.005077967885881662,-0.011944277212023735,-0.1758110523223877,0.07766354084014893,0.02414696477353573,-0.04687301442027092,-0.007221416104584932,-0.05402916669845581,-0.20395289361476898,-0.158595010638237,-0.15630093216896057,0.036193910986185074,-0.0599859282374382,-0.014657094143331051,0.04857996106147766,-0.1363116204738617,-0.04272913560271263,0.037291329354047775,0.06392332911491394,-0.0294664204120636,0.00909651629626751,0.14441196620464325,0.10487483441829681,-0.04773987457156181,-0.1684759110212326,-0.024548303335905075,0.03728312626481056,-0.058476272970438004,-0.05740676075220108,-0.04593970626592636,0.012760233134031296,-0.18641923367977142,0.16400332748889923,0.15428316593170166,0.1633676439523697,-0.1524738371372223,-0.22242115437984467,0.07735762745141983,0.009405725635588169,-0.12063904851675034,0.035037580877542496,0.13546521961688995,-0.20656715333461761,-0.03077109344303608,0.038374800235033035,-0.1873902678489685,-0.0597921647131443,-0.03264249861240387,0.1544545292854309,-0.026684900745749474,0.06383977830410004,-0.12294048815965652,-0.1397605836391449,-0.1339748054742813,-0.05443461239337921,0.07811248302459717,-0.08259505033493042,-0.08069530874490738,-0.1177762970328331,-0.00502545153722167,-0.03046022355556488,-0.16919177770614624,-0.046539247035980225,0.08101799339056015,0.053105417639017105,-0.20337261259555817,-0.14286893606185913,-0.007373022381216288,-0.06587523221969604,0.17306891083717346,0.1103559210896492,-0.0022101402282714844,-0.09323660284280777,-0.09335478395223618,0.03632408380508423,0.1893237829208374,0.01990208774805069,0.19569696485996246,-0.17177630960941315,-0.04020018130540848,-0.0852183923125267,-0.07579727470874786,0.1980506032705307,-0.10980000346899033,0.05984984338283539,-0.15599851310253143,-0.06859757006168365,0.1766810566186905,-0.005874332971870899,0.024669282138347626,-0.18460264801979065,0.028559032827615738,-0.02245275117456913,-0.16472601890563965,0.05785747244954109,-0.05888953432440758,0.10796954482793808,0.1092386469244957,0.005728582385927439,-0.001293059322051704,0.005511118099093437,0.08626210689544678,0.046843502670526505,-0.0913706123828888,-0.13199709355831146,0.07214462012052536,-0.19013004004955292,-0.17388880252838135,-0.056846216320991516,0.0404343456029892,0.21156679093837738,0.017633169889450073,0.20066004991531372,-0.06280527263879776,-0.09271387755870819,-0.08735492825508118,-0.18222804367542267,-0.2156161367893219,0.02618488483130932,-0.05394820496439934,0.09851068258285522,-0.028374124318361282,0.11700311303138733,-0.1482233703136444,-0.02961800992488861,0.14455915987491608,-0.029404575005173683,0.16456511616706848,-0.15615113079547882,0.18458418548107147,-0.09557900577783585,0.07353358715772629,0.1657411903142929,0.11913389712572098,-0.18273524940013885,-0.07489348948001862,0.1939682513475418,0.15493717789649963,-0.11459939181804657,0.014671597629785538,0.12871745228767395,0.011563960462808609,-0.14708273112773895,0.0567895770072937,0.15155191719532013,-0.09275554865598679,-0.06544889509677887,0.13575653731822968,-0.15225981175899506,-0.07407117635011673,0.1050320416688919,-0.12257825583219528,0.1837836503982544,0.006863641552627087,-0.10653886944055557,-0.08547660708427429,0.056581102311611176,-0.05527356639504433,0.11011439561843872,-0.12828747928142548,0.14627593755722046,-0.18166330456733704,0.16178148984909058,-0.1403854489326477,0.11625738441944122,-0.1253872513771057,-0.15169383585453033,0.19326412677764893,-0.07916668057441711,0.0070965527556836605,-0.11307863146066666,0.1807580143213272,-0.014583920128643513,-0.1216539591550827,0.13386152684688568,-0.14057789742946625,-0.1666564792394638,-0.1496032327413559,0.15217141807079315,0.176556795835495,0.000257782987318933,0.19005873799324036,-0.19460095465183258,-0.01062307320535183,0.10498365014791489,-0.0006830328493379056,0.07125387340784073,0.045190539211034775,-0.058471161872148514,-0.12902046740055084,0.19794099032878876,0.18016713857650757,-0.12812992930412292,0.12251818925142288,0.11881174892187119,0.005265520885586739,0.1716366708278656,-0.133915975689888,0.0615239217877388,-0.07698385417461395,-0.08710980415344238,-0.13451816141605377,0.16115528345108032,0.1463492512702942,0.10477782040834427,0.005187104921787977,-0.16137729585170746,-0.16585664451122284,-0.11779776960611343,0.05956099554896355,0.1267622709274292,-0.130295991897583,0.19780384004116058,0.09265506267547607,-0.0034673097543418407,0.0785641074180603,-0.06064850464463234,-0.08836566656827927,-0.026158951222896576,-0.16383124887943268,-0.05908438563346863,0.08036161214113235,-0.08758328855037689,0.008201653137803078,0.1744167059659958,-0.14805100858211517,0.17386241257190704,-0.05368344485759735,-0.07360676676034927,-0.046866800636053085,-0.19016921520233154,-0.07266196608543396,-0.1977538764476776,-0.1471514254808426,-0.1638324111700058,-0.20155233144760132,-0.06660526990890503,0.02877878025174141,0.14907695353031158,0.013617418706417084,-0.12966711819171906,-0.03243357315659523,0.137028768658638,-0.10414483398199081,0.1860487014055252,-0.16415856778621674,0.1424330770969391,0.08507681638002396,-0.1793815642595291,0.003536348231136799,-0.08679139614105225,-0.06166102737188339,0.1508053094148636,-0.10606800019741058,0.13737161457538605,-0.03249775245785713,-0.14701466262340546,-0.06705429404973984,-0.055334046483039856,0.10923794656991959,-0.0861949548125267,-0.0023839138448238373,0.08942669630050659,-0.02053031139075756,-0.012806086800992489,0.18031390011310577,0.14782749116420746,0.1836378276348114,-0.14978523552417755,0.09381700307130814,-0.04915447533130646,0.05624945089221001,0.12200479954481125,0.16515664756298065,-0.1389015167951584,-0.17494893074035645,-0.13503924012184143,-0.15967096388339996,-0.06004064157605171,-0.19743728637695312,0.13367056846618652,0.018460778519511223,0.02772924117743969,-0.02251683734357357,0.1166171282529831,0.0456998385488987,0.026676947250962257,-0.16775107383728027,0.16622696816921234,0.11998260766267776,0.05846424400806427,-0.14857615530490875,0.060818862169981,0.10346539318561554,-0.13031207025051117,0.1845288872718811,0.024125000461935997,0.06791846454143524,-0.18906258046627045,0.1618039757013321,0.19147391617298126,-0.07571665942668915,-0.07514464855194092,0.04745521396398544,-0.017199479043483734,0.11455783247947693,0.06459800153970718,0.027673589065670967,-0.19342118501663208,-0.03507456183433533,0.04874420911073685,-0.13567045331001282,0.010860995389521122,-0.020314624533057213,-0.0606478713452816,-0.18475337326526642,-0.1251675933599472,-0.10549317300319672,0.07853229343891144,0.018773281946778297,-0.016989177092909813,-0.1925238072872162,-0.20058698952198029,-0.04006165266036987,-0.09731976687908173,-0.11473538726568222,0.015790557488799095,-0.0028250329196453094,-0.10220323503017426,-0.08076299726963043,-0.019501270726323128,-0.20237000286579132,-0.19178201258182526,-0.08273989707231522,-0.14736627042293549,-0.11421126872301102,-0.07207606732845306,0.12383415549993515,-0.020964903756976128,0.1370021551847458,-0.08287959545850754,-0.139325812458992,-0.11988058686256409,0.06423553079366684,-0.06554008275270462,-0.04360136389732361,-0.10389432311058044,0.08477000892162323,-0.007163020316511393,0.13749799132347107,0.15657301247119904,0.1785198599100113,0.16886195540428162,-0.13556212186813354,0.17475396394729614,-0.13716821372509003,0.1864491105079651,-0.1478659212589264,-0.09446018934249878,-0.04199009761214256,-0.20293386280536652,0.02650235965847969,0.03223244845867157,-0.09994515776634216,-0.11100053042173386,0.10050240904092789,0.049004994332790375,0.173337921500206,-0.14593000710010529,0.10908771306276321,-0.1308499127626419,-0.23387411236763,0.010764433071017265,-0.11288830637931824,0.021409019827842712,0.06661134958267212,-0.047339197248220444,-0.17623673379421234,0.15926320850849152,0.16811145842075348,-0.02089887671172619,0.004162206314504147,0.13191290199756622,-0.04993685707449913,-0.16759364306926727,0.1333448737859726,-0.005247007589787245,0.10611072927713394,-0.1930541694164276,0.08662762492895126,-0.09045042097568512,-0.07545723766088486,-0.002645547967404127,-0.06986717879772186,-0.112002894282341,-0.11810588091611862,-0.11432808637619019,-0.027194133028388023,0.01785058155655861,-0.06340533494949341,0.1682949811220169,0.008908507414162159,-0.04202859103679657,-0.13941985368728638,-0.0007181272376328707,-0.0447416789829731,0.005755822639912367,0.18318039178848267,-0.14644727110862732,0.05714957043528557,0.025127844884991646,-0.12882770597934723,0.1377745270729065,0.19086487591266632,-0.20054663717746735,-0.1365089863538742,-0.015000934712588787,0.1543775498867035,-0.08150999248027802,-0.07861398905515671,0.045343756675720215,-0.016410449519753456,-0.19281966984272003,0.15951821208000183,-0.15302997827529907,-0.1172889843583107,-0.12830597162246704,-0.1856883019208908,0.14228112995624542,0.17022636532783508,-0.1855326145887375,-0.11551467329263687,0.029167015105485916,-0.14969952404499054,-0.14279155433177948,0.1852395087480545,0.06581910699605942,-0.021781472489237785,-0.13984355330467224,-0.03691328689455986,0.021337974816560745,-0.10073290765285492,0.06679381430149078,-0.18383850157260895,0.10859766602516174,-0.06067432463169098,-0.033277206122875214,-0.033848777413368225,-0.2215440571308136,-0.035501427948474884,-0.021761327981948853,-0.12730038166046143,-0.21898925304412842,-0.12463999539613724,0.002877515973523259,-0.15401634573936462,-0.1667497754096985,-0.011175211519002914,-0.07856487482786179,-0.15436360239982605,0.09527768194675446,0.0022471712436527014,0.02169944904744625,0.08670561015605927,0.15625900030136108,-0.1254662424325943,-0.1521056741476059,0.051487140357494354,0.04760189726948738,0.17142412066459656,-0.04514864459633827,-0.08868462592363358,0.07190965116024017,-0.05981868505477905,0.10199231654405594,-0.006903276313096285,-0.01930755004286766,-0.03494726121425629,0.1369498372077942,0.07822474837303162,0.09964947402477264,-0.20585255324840546,-0.2054368108510971,-0.20648719370365143,0.15206179022789001,0.18348774313926697,-0.09658794105052948,-0.00006577239400940016,0.12037965655326843,0.10859841108322144,0.19059495627880096,0.0058209337294101715,0.09626083821058273,-0.07858564704656601,-0.14467932283878326,-0.08081921935081482,-0.0771927759051323,-0.19827207922935486,-0.12772689759731293,-0.09819547832012177,-0.13696184754371643,-0.18089152872562408,0.061760805547237396,0.09881488233804703,0.07320263981819153,0.09168565273284912,0.0543665736913681,0.07984504848718643,-0.14019696414470673,0.11047691851854324,-0.11683576554059982,0.03756401687860489,0.1030052974820137,-0.16566778719425201,-0.15053053200244904,-0.1342720240354538,-0.08326318860054016,0.17093825340270996,0.09420648962259293,-0.1165170967578888,-0.019424963742494583,-0.09057726711034775,0.05826452001929283,0.035204481333494186,-0.06806996464729309,-0.10870051383972168,-0.06285881251096725,0.011906669475138187,0.03668346628546715,0.19435495138168335,0.020561885088682175,-0.14247214794158936,0.1735808402299881,-0.15094292163848877,0.06756214052438736,-0.14115189015865326,-0.14923100173473358,0.13359826803207397,0.20513716340065002,-0.04349834844470024,0.028859885409474373,0.008205987513065338,0.16450518369674683,0.17975294589996338,0.02453780174255371,0.2030579298734665,0.05395558476448059,-0.19381140172481537,0.09920230507850647,0.16027647256851196,-0.031738270074129105,0.16334916651248932,-0.053079135715961456,0.035300977528095245,0.18486133217811584,0.1837659627199173,-0.16732482612133026,-0.07696561515331268,-0.1596112847328186,-0.17667819559574127,-0.030235590413212776,0.1086636632680893,-0.13580527901649475,0.09197337180376053,0.16095896065235138,0.10688603669404984,0.00441442895680666,-0.003724439302459359,0.1949966996908188,0.10632689297199249,-0.0418563075363636,0.21012817323207855,0.16728322207927704,0.09781533479690552,-0.03913109749555588,-0.04857531934976578,-0.06688717007637024,-0.09064510464668274,0.11766752600669861,-0.008875610306859016,-0.16014672815799713,0.12169454991817474,-0.17368680238723755,-0.12010045349597931,-0.07741692662239075,-0.18940742313861847,-0.1464524269104004,-0.13256612420082092,0.02341708168387413,-0.15157030522823334,-0.12150590121746063,-0.18749423325061798,-0.17435461282730103,0.16473886370658875,0.06978658586740494,0.0016318525886163116,0.058842383325099945,0.021811462938785553,-0.16112881898880005,0.09240242093801498,0.06849208474159241,-0.0899713858962059,-0.13544879853725433,-0.06845005601644516,-0.030760904774069786,-0.18941353261470795,-0.12535136938095093],[0.07966897636651993,0.0310500655323267,0.11110996454954147,-0.17066620290279388,-0.05580413341522217,0.1347825825214386,0.023933984339237213,-0.09001593291759491,0.18998752534389496,-0.06662870198488235,-0.11460887640714645,-0.050899017602205276,0.13724897801876068,0.054430969059467316,0.1844509392976761,-0.03673041984438896,0.05317317321896553,-0.16577854752540588,0.1269085556268692,-0.027677886188030243,0.02072654664516449,-0.12123247236013412,0.031795747578144073,0.138816237449646,-0.1533808559179306,0.13925781846046448,-0.17396894097328186,-0.03980838507413864,0.08567055314779282,0.16841283440589905,0.1953299343585968,-0.03215014934539795,-0.18013602495193481,0.11112931370735168,0.02514888346195221,-0.02314290590584278,0.17484790086746216,-0.11169014126062393,0.0644589439034462,0.19070766866207123,0.11409305781126022,0.15407416224479675,-0.14359065890312195,-0.07238279283046722,-0.09201321005821228,-0.15665388107299805,-0.12940756976604462,0.19808359444141388,0.028299923986196518,0.11506646126508713,0.009208577685058117,0.05840911343693733,-0.14585284888744354,-0.11439153552055359,0.11285590380430222,-0.19154386222362518,-0.14045365154743195,0.08960418403148651,0.009398512542247772,0.05199611932039261,0.07671383023262024,-0.061457309871912,-0.06355094164609909,0.0462375171482563,0.06297164410352707,0.04671519622206688,0.18917100131511688,0.007426359690725803,-0.015102620236575603,0.1520141363143921,0.17860592901706696,0.19711267948150635,0.08347006142139435,0.09517532587051392,-0.05815821886062622,0.16025780141353607,0.1464088410139084,0.11333069950342178,0.08875727653503418,0.02656182460486889,0.01630261540412903,-0.0921977311372757,0.14122281968593597,-0.1438775211572647,-0.059779949486255646,-0.053442709147930145,-0.15685653686523438,-0.01362937968224287,0.07319586724042892,-0.03417031839489937,0.02245194837450981,0.1301790326833725,-0.1258837729692459,0.12834730744361877,-0.14321604371070862,0.16405965387821198,-0.11789361387491226,0.19341515004634857,-0.1778373420238495,0.007328378036618233,-0.06199309229850769,-0.03651414066553116,-0.12351066619157791,-0.09122076630592346,0.11889296770095825,-0.03506247326731682,0.11036577820777893,-0.07124093919992447,-0.13403627276420593,0.16567708551883698,-0.14029785990715027,-0.0834464281797409,-0.06116589531302452,0.06830190122127533,0.19123439490795135,-0.037281978875398636,-0.030928123742341995,-0.02127547189593315,-0.15889872610569,-0.1220259889960289,0.14530062675476074,0.07395555078983307,-0.19159601628780365,-0.01036601047962904,-0.10831873118877411,-0.17779281735420227,-0.007216394878923893,-0.20472584664821625,0.045003533363342285,-0.05654696002602577,0.09810930490493774,0.0727389007806778,0.005005931481719017,0.10949718952178955,-0.022959528490900993,0.1229567676782608,-0.03781682252883911,-0.15585073828697205,0.014950727112591267,0.10758248716592789,-0.1823868602514267,-0.0760735273361206,-0.17365306615829468,-0.1482686698436737,0.141413152217865,-0.08519294112920761,0.021004091948270798,0.1433447152376175,-0.14137674868106842,-0.173332080245018,-0.08051007241010666,0.03664287552237511,-0.12467692792415619,0.02569201961159706,0.06827367097139359,0.18872961401939392,0.04866199567914009,0.009882234036922455,-0.13709697127342224,0.011442194692790508,-0.11165109276771545,-0.1277897208929062,0.10689091682434082,-0.1872205287218094,-0.09277266263961792,-0.041274700313806534,0.059296753257513046,0.026606861501932144,-0.14087605476379395,-0.16727186739444733,0.012884984724223614,0.14231012761592865,-0.07325851172208786,-0.028707128018140793,-0.04159103333950043,0.04742420092225075,0.1655329465866089,-0.1922473907470703,-0.0016289324266836047,-0.1079137846827507,0.11587652564048767,0.16732904314994812,0.09725651890039444,0.05237212032079697,-0.1145649403333664,-0.025783613324165344,0.04188003018498421,-0.020032932981848717,-0.10796399414539337,0.02034379169344902,-0.09801151603460312,-0.043515004217624664,0.056384723633527756,-0.19667184352874756,0.044153016060590744,-0.08600999414920807,0.11563258618116379,-0.15358209609985352,-0.19426606595516205,0.03973611816763878,0.12017478793859482,-0.04979898780584335,-0.15536513924598694,-0.12824435532093048,-0.09217571467161179,-0.10217706859111786,-0.05486582592129707,-0.12848378717899323,0.10133011639118195,0.05507441982626915,-0.16761058568954468,-0.20434962213039398,0.14485934376716614,-0.09727480262517929,-0.021877922117710114,-0.2044360637664795,-0.017626671120524406,-0.11293714493513107,0.138351172208786,-0.18647895753383636,-0.08950579911470413,-0.07381640374660492,-0.13235847651958466,0.16662763059139252,-0.002984392922371626,-0.06239963322877884,-0.06897009909152985,0.11166973412036896,-0.0781283751130104,0.10131581872701645,0.06345430016517639,-0.17038646340370178,0.12861043214797974,-0.07868929207324982,-0.1962338387966156,0.02340368553996086,-0.061765819787979126,-0.13859552145004272,-0.018437694758176804,0.038186293095350266,0.015120486728847027,-0.06141128018498421,-0.199662446975708,-0.05674265697598457,0.08634944260120392,-0.15875515341758728,0.13481947779655457,-0.03932333365082741,-0.05943281948566437,-0.04190368950366974,-0.07914552837610245,-0.042360033839941025,-0.0398983433842659,-0.05277866870164871,0.01811140961945057,0.1710582673549652,-0.16400673985481262,0.10344064980745316,0.03925801441073418,-0.12939274311065674,-0.07844068109989166,0.0656072348356247,-0.02948560006916523,-0.22130511701107025,0.11715700477361679,-0.2029668688774109,-0.1631058305501938,-0.012465824373066425,-0.18598370254039764,-0.009533482603728771,-0.04926653951406479,0.13781501352787018,0.15365491807460785,-0.0491815023124218,0.05553752928972244,0.06304200738668442,-0.07407758384943008,0.013070537708699703,-0.16466528177261353,0.11584312468767166,-0.1977342963218689,0.042977288365364075,-0.10625556856393814,0.0787387415766716,-0.15296748280525208,0.033196479082107544,0.16000963747501373,0.1247134804725647,-0.17436543107032776,-0.020388437435030937,-0.12134751677513123,-0.018729420378804207,-0.20942971110343933,0.08792685717344284,-0.2562302052974701,-0.22919662296772003,0.08655177056789398,0.055026788264513016,-0.021919984370470047,0.13147374987602234,-0.10461296886205673,0.13518781960010529,0.07207074761390686,-0.08641667664051056,0.10522376000881195,0.010974119417369366,0.10281642526388168,0.13207972049713135,0.04560234770178795,0.11261355876922607,-0.020615682005882263,-0.10439717024564743,-0.07779349386692047,-0.08467491716146469,0.1555924266576767,0.1508055031299591,-0.12015962600708008,-0.0027444250881671906,-0.10978879779577255,0.15078964829444885,0.012508074752986431,0.14763909578323364,0.026772845536470413,0.0004404196224641055,-0.0344790555536747,0.1645514816045761,-0.13541126251220703,-0.18390609323978424,-0.1374616026878357,-0.19507034122943878,-0.19048333168029785,-0.06725180149078369,-0.016226090490818024,-0.11324647814035416,-0.15672452747821808,0.016163568943738937,0.15789267420768738,0.016949471086263657,-0.041021283715963364,-0.16356590390205383,-0.01832941360771656,-0.04428957402706146,0.18942707777023315,-0.09627333283424377,0.011228612624108791,0.060305364429950714,-0.06688443571329117,0.04019331932067871,-0.07063718885183334,0.030779670923948288,-0.09592363238334656,0.11327164620161057,-0.2263195663690567,0.056563202291727066,-0.2008172571659088,-0.11055047810077667,-0.09174937009811401,-0.18537025153636932,0.16641488671302795,-0.08976506441831589,0.17355361580848694,0.15964153409004211,0.07700680196285248,-0.04234441742300987,-0.08396255224943161,-0.04112107679247856,0.19573278725147247,-0.1503756195306778,0.11259445548057556,0.1902657449245453,0.1695476770401001,-0.024950498715043068,-0.03014918603003025,-0.18564827740192413,0.058455128222703934,-0.12784045934677124,0.1487588733434677,0.11992570757865906,0.05818694084882736,0.1285487413406372,-0.14157404005527496,0.005533789750188589,0.11545334756374359,0.19238637387752533,0.11173103749752045,0.08544458448886871,-0.097791388630867,0.09500142931938171,0.015726784244179726,-0.1264415979385376,0.09822128713130951,-0.0944427102804184,-0.024514123797416687,0.12133745849132538,-0.1960277557373047,0.1530867964029312,0.12361112982034683,-0.1636691689491272,-0.1882292628288269,0.015110750682651997,0.09506860375404358,-0.053347934037446976,-0.059985898435115814,0.1347196400165558,-0.10820376873016357,0.021939821541309357,-0.07408937811851501,-0.2083677351474762,0.0683802142739296,-0.037159163504838943,0.11891037225723267,0.07860858738422394,-0.003309740452095866,-0.014742900617420673,0.09536168724298477,-0.01062470767647028,0.10497170686721802,-0.11132902652025223,0.028022896498441696,0.1186530813574791,0.1623806357383728,-0.10021524131298065,-0.10085994005203247,0.09855282306671143,0.09768357872962952,0.10619610548019409,0.1519220769405365,0.09041202813386917,0.1137709841132164,-0.11549390852451324,-0.18240657448768616,-0.16813154518604279,-0.13628250360488892,0.11044415086507797,-0.15761393308639526,-0.1722819209098816,0.001213687937706709,-0.1251756101846695,0.13870875537395477,-0.09982801973819733,-0.06337404251098633,-0.13499966263771057,-0.20120541751384735,0.12160804122686386,0.14362215995788574,-0.17193762958049774,-0.1429721713066101,-0.0032521584071218967,-0.0560917854309082,-0.05183136463165283,0.05432891473174095,-0.0052379826083779335,-0.20077954232692719,0.0962633490562439,-0.0808240994811058,-0.13909755647182465,-0.1501874476671219,0.09038492292165756,-0.073403500020504,0.09326300770044327,0.10031172633171082,0.08083348721265793,-0.08650162070989609,0.06385538727045059,0.02912677638232708,-0.11561020463705063,-0.1546168476343155,-0.12978202104568481,0.12741632759571075,0.14783743023872375,0.1027664765715599,0.08099308609962463,-0.14998003840446472,0.09971270710229874,-0.023405013605952263,-0.029403455555438995,-0.18296174705028534,0.15189912915229797,-0.1898811310529709,-0.14697983860969543,0.01690300740301609,-0.17296890914440155,0.1584031879901886,-0.13915346562862396,-0.12451998144388199,0.14096443355083466,-0.19163742661476135,0.11814378947019577,-0.2223295122385025,0.07264634221792221,-0.16594429314136505,0.07810944318771362,-0.16390188038349152,0.10982711613178253,-0.2313993275165558,0.1272793412208557,-0.10026847571134567,0.17818206548690796,-0.05830617994070053,0.06768793612718582,-0.011848147958517075,-0.045314040035009384,0.1176493838429451,-0.09092212468385696,-0.17161069810390472,0.1141984835267067,-0.03996526449918747,-0.06513659656047821,-0.18353907763957977,0.15295888483524323,-0.04200645908713341,-0.16876977682113647,-0.15241311490535736,0.10604143142700195,0.19886049628257751,0.15890547633171082,0.0883883461356163,0.1253300905227661,-0.15108144283294678,-0.037141356617212296,-0.052094124257564545,-0.005164338741451502,0.019933518022298813,0.11132823675870895,-0.1401418000459671,0.047469768673181534,0.15384091436862946,-0.0709870234131813,-0.0458725169301033,-0.12131877988576889,-0.1657656729221344,0.023832878097891808,-0.028063012287020683,0.10587520897388458,0.0997103676199913,0.1884978860616684,-0.0829029232263565,-0.09411673247814178,0.09229107946157455,0.15531426668167114,-0.050555385649204254,-0.001889318460598588,-0.18000294268131256,-0.020124047994613647,-0.1934462934732437,-0.14454154670238495,-0.22307619452476501,-0.21950145065784454,-0.14654593169689178,-0.1320255845785141,-0.06423832476139069,0.03608347475528717,0.09979622066020966,-0.04524648189544678,0.08453807234764099,-0.13507086038589478,-0.1569439172744751,-0.05926058068871498,-0.12858140468597412,-0.15631067752838135,-0.08539240062236786,-0.1167864128947258,-0.17070041596889496,-0.012600904330611229,0.1617419570684433,0.16421295702457428,0.15830644965171814,0.15173271298408508,0.056603558361530304,-0.06390734761953354,-0.1764230728149414,-0.14244544506072998,-0.16265016794204712,-0.04550972953438759,-0.007130674086511135,0.04634155333042145,-0.03046474978327751,-0.14490288496017456,0.08919108659029007,-0.05161610245704651,-0.0008130553178489208,0.12228690087795258,0.17692860960960388,-0.030704980716109276,0.12101549655199051,0.17710407078266144,-0.01175293792039156,-0.08583728224039078,-0.0072368960827589035,-0.048116572201251984,0.16839709877967834,0.12465637177228928,0.0767710953950882,-0.16073696315288544,0.04171827808022499,0.02208486944437027,-0.10332722216844559,-0.1167127788066864,-0.032348670065402985,-0.08351867645978928,-0.09824369847774506,0.12156325578689575,-0.044759634882211685,0.02958931215107441,-0.17245706915855408,0.11633394658565521,-0.12478132545948029,-0.0890459194779396,0.14462047815322876,-0.0952819436788559,0.09751695394515991,-0.0814436674118042,0.04785633459687233,-0.10367002338171005,0.16765189170837402,0.12882551550865173,0.14572367072105408,0.13651800155639648,-0.013240199536085129,0.00548501405864954,-0.018658148124814034,0.1603064388036728,0.15590082108974457,-0.1977505087852478,-0.10349699854850769,0.16616056859493256,0.0915357694029808,-0.2037006914615631,-0.2217014580965042,-0.09895092248916626,0.053798917680978775,-0.2113979309797287,-0.11181522905826569,-0.16068710386753082,-0.11987022310495377,-0.0012612839927896857,0.19012075662612915,-0.11720819026231766,0.1687476933002472,-0.09474954009056091,0.15756794810295105,-0.04828343167901039,-0.05496229976415634,0.02462790347635746,-0.10917702317237854,0.1110675036907196,-0.056792307645082474,0.007140279281884432,-0.19764386117458344,-0.045939940959215164,-0.1418183147907257,-0.08958446234464645,0.14813581109046936,0.13738663494586945,0.007699226029217243,-0.17547301948070526,-0.15393829345703125,-0.13169392943382263,-0.09806877374649048,-0.007385971490293741,0.0730084702372551,-0.09999480098485947,-0.02657940611243248,0.16845230758190155,-0.13190419971942902,0.07915971428155899,-0.08445609360933304,-0.10894820094108582,0.0771842673420906,-0.0662267878651619,-0.17483225464820862,0.12610967457294464,-0.19364644587039948,0.01179834920912981,0.18353478610515594,0.11736759543418884,-0.11500310152769089,-0.14571727812290192,-0.01365078054368496,0.17620056867599487,-0.006531313061714172,-0.09281596541404724,0.0760064646601677,0.16738606989383698,-0.04506523907184601,-0.14722494781017303,0.1481557935476303,-0.2194717526435852,-0.07701770216226578,-0.10867679864168167,-0.16772696375846863,-0.05480648949742317,-0.14475320279598236,-0.0489623099565506,-0.03170960023999214,0.04129969701170921,-0.028749210759997368,-0.12175838649272919,-0.09575018286705017,-0.06168512627482414,-0.04767296463251114,-0.14907054603099823,0.17811888456344604,0.15347114205360413,0.12243624031543732,-0.06779243052005768,-0.012481343001127243,0.04591268301010132,0.00021980212477501482,-0.10775860399007797,0.14908741414546967,0.018909798935055733,0.06239764392375946,0.052948229014873505,-0.04020696505904198,-0.180684432387352,-0.17582820355892181,0.21461278200149536,0.11401568353176117,0.1275951862335205,-0.13331523537635803,-0.07149594277143478,0.19426007568836212,0.1459496021270752,-0.049185071140527725,0.11501538753509521,-0.08211255818605423,0.16716958582401276,0.07334108650684357,0.09791726619005203,0.012333707883954048,-0.01680348813533783,0.11073581129312515,-0.013482851907610893,-0.004035432357341051,-0.18337701261043549,-0.07878974080085754,-0.18799668550491333,0.1857699155807495,0.1828300952911377,0.0412566177546978,0.07165978848934174,0.12116045504808426,0.03676127642393112,0.061040494590997696,-0.04153633490204811,-0.146778404712677,-0.13726337254047394,-0.17376986145973206,0.18171003460884094,0.18640285730361938,0.10501278191804886,0.12163214385509491,-0.04807603731751442,0.15463539958000183,0.04706793278455734,-0.01546697411686182,-0.18138200044631958,0.09703005850315094,0.1706564575433731,-0.14832669496536255,-0.06273398548364639,0.13551266491413116,-0.056045033037662506,0.07664529979228973,0.10658691078424454,0.19957664608955383,0.07166625559329987,0.08138874918222427,0.032034117728471756,0.032290633767843246,-0.10995005816221237,0.008065370842814445,0.17164574563503265,-0.1460244357585907,-0.12187276035547256,-0.09586472064256668,-0.16259272396564484,0.1659834235906601,-0.16716694831848145,0.15046606957912445,-0.08080750703811646,0.11420399695634842,0.020378876477479935],[0.01393827423453331,0.06188734248280525,-0.061566997319459915,-0.04654080420732498,-0.024948440492153168,-0.03968160226941109,-0.12250422686338425,0.03660086542367935,0.12715360522270203,-0.10538690537214279,-0.19152899086475372,0.1518312394618988,-0.03233344107866287,0.027657561004161835,-0.040126677602529526,-0.029462356120347977,-0.19093675911426544,0.0064485990442335606,-0.023851444944739342,-0.18352365493774414,-0.18870751559734344,0.081074558198452,-0.11764685809612274,0.1396149843931198,-0.0020449364092200994,-0.07499156147241592,0.05891244485974312,-0.09503861516714096,0.021947069093585014,-0.03220874443650246,-0.0366741381585598,0.17085056006908417,0.038787465542554855,-0.0668233335018158,0.11093099415302277,0.001563546946272254,0.07547388225793839,0.025182034820318222,0.19280216097831726,0.11337248980998993,-0.036304883658885956,0.03845065087080002,-0.1119934469461441,0.09584568440914154,-0.14605799317359924,-0.19539952278137207,0.07378106564283371,-0.007458011154085398,0.1264565885066986,-0.07732678204774857,-0.12322083860635757,-0.10530475527048111,-0.11151870340108871,0.0608292892575264,0.04943966865539551,0.05507653206586838,-0.03667386248707771,0.04862753674387932,0.19174475967884064,0.03852872923016548,0.05415629222989082,0.15162308514118195,0.16534028947353363,-0.18796001374721527,0.16176047921180725,-0.1140885278582573,0.15607444941997528,-0.09021534025669098,0.1280215084552765,-0.08801186084747314,-0.05341886356472969,0.17617259919643402,0.08541058003902435,-0.1275693029165268,-0.14131486415863037,0.13929849863052368,0.07984142750501633,-0.11333843320608139,0.11045749485492706,0.13383722305297852,0.17368444800376892,-0.05469410866498947,-0.1381336897611618,0.06851433962583542,0.016322089359164238,-0.17358125746250153,-0.17633497714996338,-0.1176605150103569,-0.024916131049394608,0.10039633512496948,0.18957066535949707,0.03835089132189751,-0.1805497258901596,0.12270528078079224,-0.1556473821401596,0.11909613013267517,0.020084256306290627,0.11354436725378036,0.02728499285876751,0.08329696208238602,0.027187403291463852,-0.1998305320739746,-0.0599527582526207,0.038246456533670425,0.0757954865694046,-0.18704725801944733,0.12322662770748138,0.02956724725663662,-0.0038120450917631388,-0.005134952254593372,-0.040173809975385666,-0.1574956476688385,0.15999358892440796,0.08651739358901978,0.026299847289919853,-0.1179623082280159,0.15050949156284332,0.17206214368343353,0.06957254558801651,0.056317590177059174,0.06526298820972443,-0.07667488604784012,-0.12389670312404633,-0.16805042326450348,-0.19352184236049652,-0.17310723662376404,-0.2140997052192688,-0.004192833323031664,-0.0006640054634772241,0.1280270367860794,-0.07395219802856445,-0.08262653648853302,0.11666920781135559,0.15435807406902313,-0.08664797991514206,0.048678476363420486,0.13353919982910156,-0.14822576940059662,-0.15315039455890656,-0.12617063522338867,0.11142687499523163,-0.07192269712686539,-0.0438661128282547,-0.08702085167169571,-0.07708185911178589,0.08727506548166275,-0.185374915599823,0.06352386623620987,0.19770091772079468,-0.09427586197853088,0.15974301099777222,-0.21914929151535034,-0.11717253923416138,0.1370483934879303,0.17206333577632904,-0.15118920803070068,0.0283809807151556,-0.22000236809253693,-0.06551960855722427,-0.2081303745508194,0.10621508955955505,-0.12734411656856537,-0.09331356734037399,0.1339208483695984,-0.05505151301622391,0.00046122269122861326,-0.1206216961145401,-0.15283505618572235,-0.108305424451828,-0.11578239500522614,0.11583427339792252,-0.04839722812175751,0.08489029854536057,0.12179974466562271,0.018099376931786537,-0.024624856188893318,-0.10653936117887497,0.15142817795276642,0.009194590151309967,-0.06923094391822815,-0.0873323380947113,0.1398976594209671,0.06738969683647156,-0.016168560832738876,-0.07830668240785599,0.1539730280637741,-0.19319108128547668,0.06999276578426361,-0.03669959679245949,-0.062229059636592865,0.09883873909711838,-0.05718313157558441,0.08936396986246109,-0.09603505581617355,0.17090977728366852,-0.18267382681369781,0.004723710939288139,-0.12338309735059738,0.01501967292279005,-0.0038641788996756077,-0.1678503155708313,-0.16544437408447266,0.16825731098651886,0.0908903032541275,-0.05557982996106148,0.11556536704301834,0.07704835385084152,-0.10872333496809006,-0.00437536183744669,-0.033072683960199356,-0.11455017328262329,0.05193905159831047,-0.0927649661898613,-0.14829060435295105,-0.2069581151008606,-0.00973376166075468,-0.029777156189084053,0.11126737296581268,0.09875277429819107,-0.08598310500383377,0.0922098308801651,-0.06031321361660957,-0.1639959067106247,0.13009320199489594,0.11093540489673615,-0.19124141335487366,-0.046001505106687546,-0.11716737598180771,-0.08033624291419983,0.07279074192047119,0.12217394262552261,0.13125300407409668,0.15443722903728485,-0.12907584011554718,-0.06504031270742416,-0.0146253053098917,-0.23560868203639984,-0.14064402878284454,-0.14544008672237396,0.11983577907085419,0.058575019240379333,-0.1400863379240036,-0.09168282896280289,0.18077509105205536,-0.14661432802677155,-0.04292947053909302,0.1189749613404274,-0.03681306913495064,0.04402398318052292,0.0775657370686531,-0.00001662623071752023,0.1851537525653839,0.1131683811545372,0.15053187310695648,-0.06929603219032288,0.06889466196298599,-0.15827737748622894,-0.030403193086385727,0.10452703386545181,-0.0744379311800003,-0.20116448402404785,-0.003925513010472059,-0.12463178485631943,0.07554715871810913,0.08529651165008545,0.12027189880609512,0.02860121615231037,0.08229577541351318,-0.04781050235033035,0.12963414192199707,0.11077331751585007,-0.026416169479489326,-0.18614399433135986,0.17590849101543427,0.024811025708913803,0.06262372434139252,-0.1292549967765808,-0.18285652995109558,0.12607312202453613,0.18809175491333008,-0.1421143114566803,-0.01660677045583725,-0.07687780261039734,0.07098418474197388,0.0066060870885849,0.023212138563394547,-0.14970415830612183,-0.008365791290998459,-0.07635106146335602,-0.08922266215085983,-0.13324284553527832,0.11741417646408081,-0.23265275359153748,0.13350336253643036,0.1424349844455719,-0.0727638229727745,0.04037627950310707,0.009117266163229942,-0.02879312075674534,-0.05532342568039894,0.1576937586069107,0.1253105103969574,0.1563592553138733,0.059341322630643845,0.018800431862473488,0.04844958707690239,-0.10030501335859299,-0.194607675075531,0.13306674361228943,-0.13162077963352203,-0.01787402480840683,-0.17560461163520813,-0.17815379798412323,-0.16029305756092072,-0.16182316839694977,-0.10466783493757248,0.1585850715637207,-0.11766087263822556,0.10738037526607513,-0.017290880903601646,-0.13227517902851105,-0.19225865602493286,0.18611128628253937,0.039843108505010605,-0.09698416292667389,-0.05824163928627968,-0.12841930985450745,0.10247412323951721,0.028867850080132484,0.024663008749485016,-0.19735932350158691,-0.04217428341507912,-0.14904069900512695,0.19323907792568207,-0.10589135438203812,0.10011065006256104,-0.10407301038503647,-0.13241122663021088,0.11177121847867966,-0.0037658356595784426,0.1502026468515396,0.13744458556175232,-0.19128300249576569,0.09157034009695053,-0.20888370275497437,0.11905097216367722,-0.06573209911584854,-0.12394535541534424,-0.15458884835243225,-0.018657095730304718,-0.08723244071006775,-0.1352597028017044,-0.11413712054491043,0.11804793030023575,-0.20883461833000183,-0.10850927233695984,0.026716450229287148,-0.19250816106796265,-0.1059231162071228,-0.06197119876742363,0.17448590695858002,-0.11749105155467987,0.08405997604131699,-0.019637921825051308,-0.16118736565113068,0.18619191646575928,-0.02663077414035797,0.08201068639755249,-0.06236190348863602,-0.1417122483253479,-0.1839895397424698,-0.021208511665463448,-0.0190005823969841,-0.04160168021917343,-0.22074773907661438,-0.15072445571422577,0.07056722044944763,0.09309184551239014,0.037466879934072495,0.06841956824064255,-0.11671081930398941,-0.18310478329658508,0.17297221720218658,0.15167835354804993,-0.1540955752134323,0.013287346810102463,-0.08375322818756104,0.012597755528986454,-0.12791019678115845,0.10972470045089722,-0.12497873604297638,-0.041254542768001556,-0.06110219657421112,0.008364664390683174,0.0757649838924408,-0.1968071162700653,-0.1520402431488037,-0.04469756409525871,-0.05569775775074959,-0.17768043279647827,-0.0650680661201477,0.11208046227693558,0.09798280894756317,-0.08071909844875336,0.11731798201799393,0.06704245507717133,0.007226480636745691,-0.06695535033941269,-0.2173575609922409,-0.13785101473331451,-0.04404109716415405,-0.16303861141204834,-0.022125951945781708,-0.07531742751598358,-0.17225703597068787,-0.08661482483148575,0.2012728899717331,-0.13173991441726685,-0.033941008150577545,0.11240556091070175,-0.010774954222142696,0.10957644134759903,-0.06028096750378609,-0.1954292505979538,-0.12863831222057343,-0.031199999153614044,0.06209132820367813,-0.028916319832205772,0.08977151662111282,0.16514626145362854,0.044481948018074036,-0.22710560262203217,-0.12721410393714905,-0.16708533465862274,0.11705975234508514,-0.005024697165936232,0.014798819087445736,-0.1277468502521515,0.16414006054401398,-0.19095760583877563,-0.09596159309148788,-0.0009515333222225308,0.06846768409013748,0.003520367434248328,-0.08767119795084,0.19168277084827423,-0.14647507667541504,-0.16827817261219025,-0.09669706970453262,0.1284266710281372,0.1680210679769516,-0.011365165002644062,-0.02476656809449196,0.064315065741539,-0.14493653178215027,-0.06177028268575668,-0.04934222251176834,-0.05567196011543274,0.10692019015550613,-0.14792898297309875,-0.12797600030899048,-0.1895674169063568,0.03828722983598709,0.0983782410621643,-0.08844580501317978,-0.22412288188934326,-0.14034166932106018,0.10697914659976959,-0.214917853474617,0.02267591841518879,0.1533667892217636,-0.011437793262302876,-0.07650652527809143,-0.11094661056995392,0.11499664932489395,0.1806344985961914,-0.1126987412571907,-0.11840119957923889,-0.11292145401239395,0.1992933750152588,-0.06695245206356049,-0.012691022828221321,-0.006109990645200014,0.13849861919879913,-0.20077770948410034,-0.19883306324481964,0.01425921730697155,-0.2065507173538208,-0.0032830028794705868,0.16936135292053223,-0.08340687304735184,0.00590906897559762,0.04785154014825821,-0.025592993944883347,-0.1395169049501419,-0.16804112493991852,-0.19048234820365906,0.10240311920642853,-0.14527173340320587,-0.16928063333034515,-0.19134733080863953,-0.17658959329128265,0.129142627120018,0.12769074738025665,-0.05245039984583855,-0.017460012808442116,-0.06711262464523315,0.015054384246468544,0.0036017654929310083,-0.15870048105716705,0.04424327611923218,-0.18121621012687683,0.026968032121658325,0.0899411216378212,-0.150751531124115,-0.17001861333847046,-0.0204724483191967,0.07731784880161285,-0.044661745429039,-0.04702501371502876,-0.10130491107702255,0.10375866293907166,0.016574250534176826,0.11704079061746597,0.17292341589927673,0.15904834866523743,0.01161822210997343,-0.0647636279463768,0.061005979776382446,0.11685425043106079,-0.11306104063987732,-0.0690232440829277,0.16750119626522064,-0.1258644312620163,0.09813293814659119,0.10735021531581879,0.06097332388162613,-0.06937452405691147,-0.06675181537866592,0.08438675850629807,-0.027601508423686028,-0.06868083775043488,-0.15099312365055084,-0.06711835414171219,0.03085806593298912,-0.1363750696182251,0.003162702312693,0.04338619485497475,-0.18469445407390594,-0.1783742755651474,0.017123993486166,0.09016679227352142,-0.013417587615549564,0.1367296427488327,0.04859155789017677,0.08633723109960556,0.14213959872722626,0.14654389023780823,-0.008953065611422062,0.07787828892469406,-0.00570537056773901,0.1104978546500206,-0.1268632858991623,-0.016930093988776207,-0.04521699249744415,-0.1058739423751831,-0.09311483055353165,-0.036940574645996094,-0.13702386617660522,-0.1141091138124466,-0.1089887022972107,0.1182020902633667,0.10543809831142426,-0.21400372684001923,0.1583835929632187,0.11818351596593857,0.07158214598894119,0.09380777180194855,-0.15617315471172333,0.01592319644987583,0.07886319607496262,0.17371578514575958,-0.16789615154266357,-0.04284016415476799,0.13880497217178345,0.1349523812532425,0.03539121896028519,0.05720791593194008,0.02435988187789917,0.008906730450689793,-0.1332983374595642,-0.06658414006233215,-0.008610431104898453,-0.03920403867959976,-0.14460980892181396,-0.05855535715818405,0.15607407689094543,0.12158366292715073,0.07256436347961426,-0.06529562920331955,-0.09261278063058853,0.01783769205212593,-0.17573019862174988,-0.1777201145887375,0.029301200062036514,-0.03753814101219177,-0.03898760303854942,0.13013064861297607,0.057306014001369476,0.12067058682441711,0.15848244726657867,0.09307651221752167,0.04755131155252457,-0.19756290316581726,0.014653211459517479,0.0964108556509018,-0.024085137993097305,0.02819792553782463,-0.038511838763952255,0.1319425404071808,-0.11850708723068237,0.004922680091112852,0.16614484786987305,0.12342100590467453,0.003383051138371229,-0.0028560650534927845,-0.14933332800865173,0.0456414557993412,-0.1624177247285843,-0.10341217368841171,-0.05453764274716377,0.04125826433300972,0.21159173548221588,-0.16026195883750916,-0.013514683581888676,0.014857832342386246,0.0031610499136149883,-0.17130479216575623,-0.1336420327425003,0.07681495696306229,-0.14326614141464233,0.1902841329574585,0.1980065405368805,-0.019521024078130722,0.10113602876663208,-0.17519107460975647,-0.024151014164090157,0.026312295347452164,-0.10959061980247498,0.17511403560638428,0.07781322300434113,-0.09990748018026352,-0.17449629306793213,-0.16220566630363464,-0.10933969914913177,-0.20678584277629852,-0.028695296496152878,0.13306394219398499,0.11801950633525848,-0.060991689562797546,-0.1557292491197586,0.10510914772748947,-0.1943005621433258,0.1634836345911026,-0.055581074208021164,0.10750184953212738,0.06604966521263123,-0.07975392788648605,-0.017406871542334557,0.15285873413085938,-0.10482999682426453,0.06802360713481903,-0.11979958415031433,0.16137102246284485,0.08568579703569412,0.12940719723701477,0.11731245368719101,0.06869249045848846,0.10625910758972168,-0.07545091211795807,-0.03432794287800789,-0.08682633191347122,-0.11327385902404785,0.10836969316005707,0.011166117154061794,0.11449373513460159,-0.11964065581560135,-0.14211493730545044,-0.20951858162879944,-0.15932035446166992,0.00012234528549015522,-0.19391599297523499,-0.1062164381146431,0.10879125446081161,-0.12951502203941345,0.15728481113910675,-0.1141202449798584,0.09153702110052109,0.18678490817546844,-0.1785440742969513,-0.027472229674458504,-0.19929292798042297,0.031191205605864525,0.0811430960893631,0.03330479934811592,0.022886550053954124,0.132345512509346,0.1561799794435501,0.12319585680961609,-0.006516470108181238,-0.10629080981016159,-0.029645094648003578,-0.057712431997060776,0.1155722364783287,0.07359865307807922,-0.22643597424030304,-0.1283731758594513,0.1123250275850296,-0.12775850296020508,0.12559184432029724,-0.16143718361854553,0.11961580067873001,-0.06259699910879135,0.016632897779345512,0.16516448557376862,0.003993791528046131,-0.1984107345342636,0.19793550670146942,0.11516829580068588,0.064327172935009,-0.0719132348895073,-0.0034762134309858084,-0.011692078784108162,-0.16224604845046997,-0.13762488961219788,-0.009211434051394463,0.05470481887459755,-0.011082141660153866,-0.0373511016368866,-0.010904120281338692,0.0033423793502151966,0.05600558593869209,0.14259344339370728,-0.010037398897111416,-0.05406252294778824,0.15657857060432434,-0.11017820239067078,-0.06665283441543579,-0.1943969428539276,0.009481430053710938,-0.0328950360417366,0.12641014158725739,-0.14117920398712158,-0.16692200303077698,0.16852129995822906,-0.19356684386730194,0.10677366703748703,0.005188048351556063,0.18055351078510284,0.013788889162242413,0.17110998928546906,-0.13538911938667297,0.04593602940440178,0.027749229222536087,-0.01872529648244381,0.18288935720920563,-0.1964501142501831,-0.05828216299414635,0.1824381798505783,-0.1689329743385315,-0.08303509652614594,0.15007756650447845,-0.12302839010953903,-0.13400550186634064,-0.08085189014673233,0.14360491931438446,0.1864771544933319,-0.08641941845417023,0.0093076815828681,0.15842892229557037,0.1831439733505249,-0.10179614275693893,0.16845698654651642,-0.17644143104553223],[0.06915169954299927,-0.1741441935300827,0.1681591123342514,0.18990269303321838,-0.13662508130073547,0.12137046456336975,0.05362497642636299,-0.18129141628742218,-0.04516979306936264,0.17307794094085693,-0.11696859449148178,-0.10826478898525238,0.017979074269533157,0.11650798469781876,0.0418844148516655,0.027374446392059326,-0.17821259796619415,-0.038389015942811966,-0.1737339198589325,-0.10746744275093079,-0.02203891985118389,0.1670602560043335,-0.03611598163843155,0.08102685213088989,-0.024403516203165054,0.0784701481461525,0.034099262207746506,0.03556469455361366,-0.027121761813759804,0.1945458948612213,-0.0827694982290268,0.06406918168067932,0.1885603964328766,0.009997265413403511,-0.13288083672523499,-0.19312837719917297,0.05695587769150734,-0.1324414610862732,-0.17294497787952423,0.09111163020133972,-0.07410350441932678,0.18817433714866638,0.011212922632694244,-0.19275718927383423,0.15439705550670624,-0.0894295945763588,-0.1325225979089737,-0.13795967400074005,-0.15094712376594543,0.1778174787759781,0.15976424515247345,0.16288280487060547,-0.1409885287284851,-0.0013192797778174281,-0.1110086739063263,0.03698801249265671,-0.1590757519006729,0.017810584977269173,-0.18658483028411865,-0.13180667161941528,0.15004605054855347,0.1864735186100006,-0.01713859848678112,-0.17658129334449768,-0.06411664932966232,-0.12940573692321777,-0.0053760334849357605,0.19682848453521729,0.15300115942955017,-0.1286168396472931,0.1728547066450119,0.09555790573358536,0.1056743934750557,-0.06787268072366714,0.04750639945268631,0.04013712704181671,0.14973458647727966,-0.03486490622162819,0.08126034587621689,0.1675385683774948,-0.14887917041778564,0.017138350754976273,0.04649239778518677,0.16070766746997833,0.13503621518611908,-0.17069730162620544,-0.09305994212627411,-0.05677757039666176,0.00795167125761509,-0.06793442368507385,-0.16777464747428894,-0.1779017597436905,0.18636609613895416,0.1082950308918953,0.09772597253322601,-0.06555043160915375,0.08352350443601608,0.026795201003551483,0.05810856446623802,-0.13335104286670685,0.0964016243815422,0.04806555062532425,-0.09105605632066727,-0.05637937784194946,-0.06833820790052414,0.14370876550674438,-0.03919624909758568,-0.032938890159130096,0.06803812831640244,0.10378360748291016,-0.004696357529610395,-0.057722192257642746,0.10190467536449432,0.19455692172050476,0.06251318752765656,-0.017502587288618088,0.16806313395500183,-0.12277762591838837,-0.12398618459701538,-0.044374771416187286,-0.1886727213859558,0.13853605091571808,-0.17520129680633545,0.0558524988591671,0.08033015578985214,0.1727503389120102,-0.1101781576871872,0.052573394030332565,-0.14055867493152618,-0.15453363955020905,0.005987237673252821,0.08288899809122086,0.01594606786966324,-0.10959161818027496,-0.131262868642807,-0.19083435833454132,-0.1916017383337021,-0.038697678595781326,-0.14339406788349152,0.10276758670806885,0.06883388757705688,0.0018042052397504449,-0.17809690535068512,-0.19299852848052979,-0.05961856245994568,0.1117645874619484,0.04989118129014969,0.11929824203252792,0.14490820467472076,-0.00820381660014391,0.10180975496768951,-0.006480916403234005,-0.1383061707019806,-0.2001124769449234,-0.16128575801849365,-0.05720817297697067,0.14060309529304504,0.1018638089299202,-0.21707430481910706,-0.09859633445739746,0.12819550931453705,0.04896628111600876,